//Numpy array shape [3, 3, 16, 32]
//Min -0.125000000000
//Max 0.132812500000
//Number of zeros 126

#ifndef W10_H_
#define W10_H_

#ifndef __SYNTHESIS__
weight10_t w10[4608];
#else
weight10_t w10[4608] = {0.0390625, 0.0312500, -0.0781250, 0.0156250, 0.0468750, 0.0468750, 0.1015625, 0.0468750, 0.0000000, -0.0937500, -0.0546875, 0.0859375, 0.0390625, 0.1093750, -0.0390625, -0.0703125, -0.0937500, 0.0781250, -0.0468750, -0.0234375, 0.0937500, 0.0703125, -0.0234375, -0.0937500, 0.0625000, -0.1171875, -0.0625000, -0.1093750, -0.0859375, -0.0546875, 0.0156250, -0.0546875, 0.0625000, 0.0468750, 0.0859375, -0.0625000, -0.0156250, 0.1250000, 0.0078125, 0.0468750, -0.0078125, 0.0390625, -0.0859375, -0.1171875, 0.0390625, 0.0781250, 0.0781250, 0.0156250, -0.1015625, 0.0156250, -0.0156250, 0.0859375, 0.0781250, 0.0546875, 0.0859375, -0.1015625, 0.0546875, 0.0390625, -0.0546875, 0.0234375, 0.0312500, -0.0234375, -0.0625000, 0.0625000, 0.1015625, 0.0078125, -0.0156250, 0.0468750, 0.1015625, -0.0859375, -0.1250000, -0.1171875, -0.1015625, 0.0234375, 0.0781250, 0.1015625, 0.0390625, -0.0234375, -0.0937500, -0.0781250, 0.0546875, -0.1093750, -0.0546875, 0.0703125, -0.0390625, -0.0546875, 0.0703125, -0.0546875, -0.0703125, 0.1015625, 0.0156250, 0.0390625, 0.0781250, 0.0546875, -0.0859375, 0.0234375, 0.0312500, 0.0859375, -0.0859375, 0.0156250, -0.0156250, -0.0703125, -0.0468750, 0.1015625, 0.0000000, 0.0390625, 0.1171875, 0.0625000, 0.0312500, 0.0234375, -0.1171875, -0.0546875, 0.0312500, 0.0781250, -0.0859375, -0.0859375, -0.0234375, 0.0703125, 0.0312500, 0.0937500, 0.1015625, -0.0781250, -0.0234375, 0.0625000, 0.0390625, 0.0078125, 0.0078125, 0.0390625, 0.0625000, 0.1093750, -0.0937500, -0.0937500, -0.0390625, 0.0625000, -0.0312500, 0.0937500, 0.0859375, 0.0234375, -0.0156250, -0.0234375, -0.1015625, -0.0937500, -0.0937500, -0.0937500, -0.0703125, -0.0703125, -0.0625000, 0.0156250, 0.1015625, 0.0390625, 0.0703125, 0.0625000, -0.0781250, 0.0937500, 0.0312500, 0.0546875, -0.0156250, 0.1093750, 0.0703125, 0.0937500, 0.0000000, -0.0390625, 0.0703125, 0.0937500, 0.1093750, -0.1093750, -0.0078125, 0.0703125, 0.0000000, -0.0859375, 0.0546875, -0.0156250, -0.0781250, -0.0468750, 0.0312500, 0.1171875, 0.0703125, 0.0312500, -0.0625000, -0.0703125, -0.0781250, 0.0000000, 0.0000000, 0.0859375, 0.0234375, -0.1015625, 0.1015625, 0.0703125, -0.0312500, -0.0156250, -0.0078125, 0.0859375, -0.0390625, -0.0156250, -0.0625000, -0.0312500, -0.0937500, 0.0937500, -0.0078125, -0.0546875, 0.1015625, -0.0781250, 0.0703125, 0.1015625, 0.0859375, 0.0468750, -0.0625000, 0.0390625, -0.0156250, -0.0078125, -0.0390625, 0.0546875, 0.0781250, 0.0312500, 0.0000000, 0.0625000, 0.1015625, 0.0703125, 0.0937500, 0.0703125, 0.1015625, -0.0390625, -0.0859375, 0.0781250, 0.0625000, 0.0859375, -0.0781250, 0.0781250, -0.0390625, 0.0859375, 0.0390625, 0.0703125, 0.0000000, -0.0468750, -0.0078125, 0.0781250, 0.0703125, 0.0703125, 0.0078125, 0.1093750, -0.0859375, -0.0078125, 0.0156250, -0.1171875, 0.0156250, 0.0546875, -0.0937500, 0.1015625, -0.0625000, 0.0546875, -0.0468750, 0.0078125, -0.0703125, 0.0859375, 0.1015625, -0.0390625, 0.1093750, 0.0078125, -0.0546875, 0.0078125, -0.0468750, 0.0703125, 0.0000000, 0.0000000, 0.0078125, -0.1015625, -0.0546875, 0.0234375, 0.1015625, -0.0703125, -0.0234375, -0.1093750, -0.0781250, 0.0078125, -0.0703125, -0.0546875, 0.0156250, 0.0390625, 0.0390625, 0.0546875, 0.0781250, 0.0937500, -0.1015625, 0.1015625, 0.1015625, -0.1250000, -0.0703125, -0.0781250, 0.0312500, -0.1171875, -0.1015625, -0.1171875, 0.0390625, -0.0703125, 0.0703125, -0.0781250, 0.0625000, 0.0781250, 0.0703125, 0.0859375, 0.1015625, 0.0625000, -0.0703125, -0.1015625, 0.0703125, -0.1015625, 0.0234375, 0.0546875, 0.1015625, -0.1015625, 0.0312500, 0.0156250, 0.0859375, 0.0234375, -0.0703125, 0.0703125, 0.0859375, 0.0703125, -0.0937500, -0.1015625, 0.0468750, -0.0703125, 0.0312500, 0.0390625, -0.0468750, 0.0468750, 0.0000000, -0.1015625, 0.0703125, -0.0625000, 0.0781250, 0.0625000, 0.0859375, 0.0312500, 0.0312500, 0.0625000, -0.1015625, -0.1171875, -0.0390625, -0.1015625, -0.0234375, -0.0859375, 0.0468750, -0.1015625, 0.0156250, -0.1093750, -0.1171875, 0.0000000, -0.1015625, 0.0937500, -0.0312500, -0.0234375, 0.0703125, 0.0937500, -0.1015625, -0.0546875, 0.0859375, -0.0859375, -0.0937500, 0.0625000, 0.1093750, 0.1250000, 0.0234375, -0.0390625, -0.0625000, -0.1171875, 0.1093750, 0.1093750, 0.1093750, 0.1015625, 0.0703125, 0.0390625, 0.0468750, 0.0156250, -0.0078125, -0.0390625, 0.0703125, -0.1015625, 0.0625000, -0.0859375, 0.0312500, 0.1250000, 0.1015625, 0.0390625, -0.1015625, 0.0625000, 0.0078125, -0.0781250, 0.0390625, 0.1171875, -0.1250000, 0.0078125, 0.0000000, -0.0625000, 0.0312500, -0.1250000, -0.0234375, -0.0312500, -0.0859375, 0.0078125, -0.0390625, 0.0937500, -0.0703125, 0.0390625, -0.0156250, -0.0078125, 0.1015625, -0.0156250, 0.0390625, -0.0312500, -0.1015625, 0.0312500, 0.0781250, -0.0546875, 0.0859375, -0.0703125, 0.1015625, 0.1093750, 0.0234375, -0.1015625, 0.0859375, 0.0312500, -0.0937500, -0.0078125, 0.0703125, -0.1093750, -0.0625000, -0.0312500, -0.0312500, 0.0390625, 0.0781250, 0.1171875, 0.0468750, -0.0468750, 0.0468750, -0.1015625, -0.0390625, 0.1171875, 0.0625000, 0.0859375, -0.0937500, 0.0312500, 0.0078125, 0.1015625, -0.0703125, 0.1015625, 0.0546875, -0.0468750, -0.1015625, -0.0781250, -0.0078125, 0.0546875, -0.1093750, 0.1093750, 0.0000000, -0.0937500, -0.0781250, 0.0390625, 0.0859375, 0.0468750, -0.1015625, 0.0078125, -0.0312500, 0.0781250, -0.0937500, 0.0625000, 0.0468750, 0.0390625, 0.0625000, 0.1171875, -0.0937500, -0.0390625, -0.0859375, -0.0859375, 0.0078125, 0.0781250, -0.0312500, -0.0546875, -0.0546875, 0.0859375, -0.0703125, -0.0156250, -0.0312500, 0.0468750, -0.0703125, -0.0703125, -0.0312500, -0.0078125, 0.0546875, 0.0312500, -0.0781250, 0.0703125, 0.0625000, -0.0546875, 0.0078125, 0.0312500, 0.0312500, -0.1171875, -0.0390625, 0.0390625, 0.0468750, 0.0390625, -0.0390625, 0.0703125, -0.0859375, 0.0234375, -0.0156250, -0.0937500, 0.0078125, -0.0703125, 0.0937500, -0.0078125, 0.0156250, -0.0625000, -0.0546875, -0.0625000, -0.0625000, -0.1093750, 0.0078125, 0.1015625, -0.0468750, -0.0468750, 0.1093750, -0.0859375, 0.0859375, -0.0234375, 0.0312500, 0.0234375, -0.0156250, -0.0468750, -0.1171875, -0.0859375, 0.0546875, 0.0859375, 0.1015625, 0.0546875, -0.0625000, -0.0156250, -0.0625000, 0.0234375, 0.1093750, -0.1171875, -0.0859375, 0.0546875, 0.1250000, 0.0859375, 0.0937500, 0.0078125, 0.0468750, -0.1093750, 0.0078125, 0.0312500, 0.1015625, -0.0468750, -0.0625000, 0.0156250, 0.0625000, 0.0390625, 0.0156250, 0.0937500, 0.0390625, -0.1171875, -0.0703125, 0.1171875, 0.0156250, 0.0078125, 0.0156250, -0.0703125, -0.0078125, 0.0703125, -0.1015625, 0.0937500, 0.1015625, 0.1015625, 0.0546875, -0.1093750, 0.0703125, -0.0781250, -0.1171875, 0.1015625, 0.0546875, -0.0390625, -0.0390625, -0.1171875, -0.0625000, 0.0156250, 0.0703125, -0.0625000, 0.0703125, -0.0468750, -0.0312500, -0.0546875, -0.0781250, -0.0859375, -0.0703125, -0.0390625, -0.1093750, 0.0234375, -0.1015625, -0.1171875, 0.1250000, -0.0390625, -0.0625000, 0.0468750, 0.0937500, -0.0468750, -0.0937500, -0.0703125, -0.0078125, -0.0625000, 0.0937500, -0.0078125, 0.0156250, -0.0468750, 0.0156250, 0.0937500, -0.0078125, -0.0156250, 0.0000000, -0.1015625, 0.0000000, 0.0078125, -0.0312500, 0.0312500, -0.1171875, -0.0312500, 0.0312500, -0.0468750, -0.1015625, 0.1093750, 0.0156250, 0.0625000, -0.0156250, -0.0234375, 0.0468750, 0.0390625, 0.0234375, -0.1171875, -0.0781250, 0.0156250, -0.0390625, -0.0078125, 0.1015625, 0.1015625, 0.0234375, -0.0781250, 0.0859375, -0.0859375, -0.0859375, -0.0312500, 0.0234375, -0.0625000, 0.0234375, 0.0312500, 0.0937500, -0.0078125, 0.0390625, 0.0546875, -0.0781250, 0.0078125, 0.0781250, 0.0625000, 0.1015625, 0.1171875, 0.1250000, 0.0781250, 0.0937500, 0.0312500, 0.0234375, -0.0468750, -0.0156250, -0.1093750, 0.1171875, -0.0625000, 0.0468750, 0.0703125, 0.0078125, 0.1171875, 0.0703125, 0.1015625, 0.0234375, -0.0156250, 0.0625000, 0.0859375, -0.0156250, 0.0078125, -0.1015625, 0.0625000, -0.0937500, -0.0937500, 0.1171875, 0.1015625, 0.0546875, 0.1093750, -0.0234375, -0.0625000, 0.1015625, -0.0156250, 0.0546875, 0.0781250, -0.0859375, -0.0781250, -0.0781250, -0.0625000, 0.1015625, -0.1171875, 0.0390625, -0.0937500, 0.0312500, 0.1015625, 0.0000000, -0.0234375, -0.0234375, -0.0625000, -0.0937500, -0.0625000, -0.0468750, 0.0156250, -0.0078125, -0.1250000, -0.1093750, -0.0078125, 0.0625000, -0.1015625, -0.0937500, 0.0703125, -0.0859375, 0.0625000, -0.0312500, 0.0625000, -0.0703125, 0.1093750, 0.0546875, -0.0078125, -0.1250000, 0.0546875, -0.0937500, -0.0312500, 0.1093750, 0.0937500, 0.0234375, 0.0859375, 0.0937500, 0.0546875, -0.0468750, -0.0546875, -0.1171875, 0.0937500, -0.0312500, 0.0703125, 0.1093750, 0.0312500, 0.0078125, -0.0859375, 0.0703125, 0.0390625, -0.0937500, -0.0468750, 0.0625000, -0.0781250, -0.0703125, 0.0468750, 0.0703125, -0.0546875, -0.0312500, -0.0703125, -0.0312500, 0.0312500, 0.1015625, -0.0703125, -0.1171875, -0.0859375, 0.0312500, -0.0937500, -0.0156250, -0.0781250, -0.1171875, 0.0468750, 0.0390625, -0.0781250, 0.0234375, -0.1015625, -0.1171875, 0.0625000, -0.0078125, 0.0937500, -0.0937500, 0.0312500, -0.0078125, -0.0625000, -0.0390625, 0.1015625, 0.0546875, 0.0546875, -0.0390625, 0.0625000, -0.0390625, 0.0546875, -0.0937500, -0.0156250, 0.0625000, -0.0078125, -0.0859375, -0.0312500, 0.0625000, -0.0625000, -0.1093750, 0.0703125, 0.0468750, 0.0156250, -0.0781250, -0.0468750, 0.0468750, -0.0546875, -0.0312500, 0.0625000, -0.0859375, -0.0625000, 0.0625000, -0.0468750, 0.0078125, 0.0859375, -0.0312500, 0.0546875, -0.0703125, 0.0859375, -0.0703125, -0.1015625, -0.0625000, -0.1171875, -0.1250000, 0.0000000, 0.0000000, -0.0390625, 0.0781250, -0.0078125, 0.1015625, 0.0312500, -0.0390625, -0.0468750, 0.0703125, -0.0078125, 0.0703125, 0.0468750, -0.0468750, -0.0781250, -0.0312500, 0.0625000, -0.0234375, -0.1015625, -0.1171875, -0.0703125, -0.0156250, -0.0234375, 0.0156250, 0.0156250, 0.1015625, -0.1015625, 0.0781250, -0.0078125, 0.0781250, 0.0078125, -0.1250000, 0.0781250, -0.0625000, 0.0859375, 0.1015625, 0.0156250, 0.1015625, 0.0078125, 0.0156250, -0.0937500, -0.0234375, -0.0625000, 0.0703125, -0.0937500, 0.1171875, -0.0546875, 0.1015625, -0.1171875, 0.0781250, 0.0859375, -0.0078125, 0.0078125, 0.0390625, 0.0468750, 0.0234375, 0.0390625, 0.0312500, 0.0781250, 0.1015625, 0.0468750, 0.0937500, -0.0468750, -0.0546875, 0.0546875, 0.0078125, 0.0468750, -0.0078125, -0.0312500, 0.0546875, -0.0390625, 0.0859375, -0.1093750, -0.0468750, 0.0781250, -0.0703125, 0.0468750, -0.0859375, -0.1171875, 0.0859375, -0.1015625, 0.0312500, 0.0468750, -0.0859375, 0.0937500, -0.0468750, -0.1015625, -0.0078125, 0.0390625, -0.0390625, -0.0781250, 0.0703125, -0.0937500, 0.0703125, 0.0703125, -0.0703125, -0.0781250, -0.0468750, 0.0000000, 0.0859375, -0.0234375, 0.0937500, -0.0234375, -0.0625000, 0.0078125, -0.1093750, 0.0468750, -0.0312500, 0.0781250, 0.0468750, 0.0937500, -0.0703125, -0.0156250, -0.1015625, -0.0390625, -0.0156250, 0.0781250, 0.0078125, 0.0703125, 0.1015625, 0.0078125, -0.0312500, 0.0781250, -0.0625000, -0.0703125, -0.0546875, -0.0937500, -0.0234375, 0.0468750, -0.0390625, -0.0937500, 0.1015625, -0.0468750, 0.0000000, 0.0390625, 0.0468750, 0.0859375, -0.0312500, 0.0312500, 0.0937500, 0.0000000, -0.1171875, 0.0156250, 0.0546875, -0.1093750, -0.0234375, -0.0234375, 0.1093750, -0.0312500, 0.0390625, 0.0078125, 0.0390625, -0.0078125, -0.0390625, 0.0781250, -0.0859375, 0.0078125, -0.0625000, -0.0468750, 0.1015625, -0.0859375, 0.1015625, -0.0234375, -0.0078125, 0.0000000, 0.0625000, -0.1093750, -0.0390625, 0.0546875, -0.0468750, 0.0312500, -0.0156250, -0.0078125, -0.0078125, -0.0937500, -0.0078125, 0.0937500, -0.0312500, 0.0390625, 0.1015625, 0.0312500, -0.0859375, 0.0078125, 0.0156250, -0.0781250, -0.0312500, -0.1093750, -0.0781250, -0.0156250, -0.0859375, 0.0625000, -0.0703125, -0.0781250, -0.0234375, -0.0625000, 0.0625000, 0.1015625, 0.0078125, 0.0781250, -0.0156250, 0.1015625, -0.0859375, 0.0859375, 0.0234375, 0.0781250, -0.0156250, 0.0937500, 0.0156250, 0.0000000, 0.1093750, 0.0781250, -0.0468750, 0.1093750, 0.1171875, -0.0703125, -0.0390625, 0.0234375, -0.0468750, -0.0859375, 0.0625000, -0.0703125, -0.0468750, 0.1015625, -0.1171875, -0.0703125, -0.0312500, -0.0234375, -0.0546875, -0.1250000, -0.0390625, -0.0078125, 0.0156250, 0.0078125, -0.0625000, -0.0390625, 0.0078125, 0.0625000, -0.1015625, -0.0625000, -0.0234375, 0.0312500, 0.0703125, 0.0625000, -0.0468750, -0.0078125, -0.1015625, -0.0468750, 0.0234375, -0.0390625, -0.0625000, -0.1093750, 0.1093750, -0.1093750, 0.0859375, -0.0468750, 0.0312500, -0.0546875, 0.0781250, -0.0625000, -0.1015625, -0.1171875, -0.0156250, -0.0937500, -0.0937500, -0.0078125, 0.0546875, 0.0312500, -0.0703125, -0.1093750, -0.0546875, -0.0312500, 0.0859375, -0.0781250, -0.0781250, -0.1093750, -0.1171875, -0.0078125, 0.0000000, -0.0859375, -0.1093750, 0.0859375, -0.0312500, 0.0546875, -0.0781250, 0.0156250, -0.1093750, 0.0703125, -0.0859375, -0.1015625, 0.0156250, -0.0156250, -0.0625000, -0.0703125, -0.1015625, -0.0468750, 0.0312500, 0.0000000, 0.1015625, 0.0078125, 0.0312500, 0.0390625, -0.0312500, -0.0781250, 0.0859375, -0.0703125, -0.0859375, 0.0312500, -0.0078125, 0.0156250, 0.0078125, 0.0078125, 0.0000000, 0.0312500, -0.0625000, -0.0781250, 0.0781250, -0.0234375, -0.1093750, -0.0859375, -0.1171875, 0.0078125, -0.1171875, 0.0625000, 0.0078125, 0.0859375, 0.0937500, -0.0468750, -0.0625000, -0.0468750, 0.1093750, -0.0156250, -0.0390625, 0.0859375, -0.0234375, -0.0234375, -0.0312500, 0.1171875, -0.1015625, -0.0468750, 0.0468750, -0.0625000, 0.0703125, -0.1015625, -0.0234375, -0.0234375, -0.0625000, 0.1015625, 0.0781250, -0.0156250, 0.0703125, 0.0234375, -0.0234375, -0.1093750, -0.0156250, 0.0859375, -0.0468750, -0.0781250, 0.0234375, -0.1015625, 0.1015625, 0.0625000, -0.0390625, 0.0625000, 0.0937500, 0.0234375, -0.0234375, -0.0781250, 0.0234375, 0.0078125, 0.1093750, -0.0781250, 0.0234375, -0.0546875, 0.0156250, -0.0312500, -0.0312500, -0.1093750, -0.0078125, 0.0390625, 0.1093750, 0.1015625, 0.0078125, -0.0468750, -0.0234375, -0.0781250, -0.0468750, 0.0390625, 0.0468750, 0.0234375, 0.1093750, -0.0625000, 0.0078125, 0.0312500, -0.0546875, -0.0468750, 0.0234375, -0.0312500, 0.0625000, 0.0859375, 0.0625000, -0.1093750, 0.0781250, 0.0625000, -0.0390625, 0.1015625, 0.0156250, -0.0625000, 0.0234375, 0.0312500, 0.1093750, -0.0703125, -0.0703125, -0.0703125, -0.0703125, 0.0781250, -0.1250000, 0.0468750, 0.0234375, -0.1093750, -0.1250000, 0.1015625, 0.0781250, -0.0781250, -0.0234375, -0.0937500, 0.0468750, 0.0156250, 0.0312500, -0.0625000, -0.0390625, 0.0468750, -0.0546875, 0.0937500, -0.0234375, 0.0468750, -0.0625000, 0.0000000, 0.0781250, -0.0546875, -0.1015625, 0.0468750, 0.1250000, -0.0078125, 0.0859375, 0.0234375, -0.0468750, 0.0078125, -0.0781250, 0.1015625, -0.0156250, -0.0468750, -0.0859375, -0.0468750, -0.0312500, -0.0390625, -0.0703125, -0.0625000, -0.0468750, 0.0781250, 0.1015625, -0.0234375, -0.0546875, 0.1015625, 0.0625000, 0.0937500, -0.0468750, 0.1015625, 0.0703125, -0.0312500, 0.0234375, 0.0390625, 0.0156250, 0.0234375, -0.0625000, 0.1093750, 0.0781250, 0.0000000, -0.0625000, -0.0156250, 0.0781250, 0.1015625, 0.1093750, 0.0546875, 0.0625000, 0.0156250, -0.1015625, 0.0468750, -0.1093750, 0.0390625, -0.0546875, 0.0000000, 0.0312500, 0.0390625, 0.0468750, 0.0234375, -0.0781250, 0.0625000, 0.0468750, -0.0468750, 0.1015625, 0.0312500, 0.1171875, 0.1093750, 0.0937500, 0.0390625, 0.0859375, -0.0156250, -0.0390625, -0.0312500, 0.0781250, 0.0312500, -0.0781250, 0.1015625, -0.1093750, 0.0468750, -0.0625000, -0.0546875, 0.0000000, -0.0234375, -0.0625000, 0.0546875, 0.1015625, -0.1250000, 0.0312500, 0.0937500, -0.0625000, 0.0625000, 0.0859375, 0.1015625, -0.0625000, -0.0937500, 0.0312500, -0.0546875, 0.0468750, -0.0156250, -0.0781250, 0.0000000, 0.0468750, 0.0546875, -0.0859375, -0.0390625, -0.0546875, -0.0937500, -0.0703125, -0.0703125, 0.0156250, -0.0078125, 0.0234375, 0.0468750, 0.0703125, 0.0625000, 0.0546875, -0.0390625, -0.0078125, 0.0390625, 0.0859375, 0.0234375, 0.0781250, -0.0234375, 0.0781250, -0.0312500, -0.0390625, -0.0156250, 0.0859375, 0.0859375, -0.1171875, -0.0468750, 0.0468750, -0.0937500, -0.1015625, 0.0859375, 0.0312500, -0.1093750, -0.1015625, -0.0703125, 0.0859375, -0.0781250, -0.0703125, 0.0625000, -0.0234375, 0.0625000, 0.0234375, -0.0234375, 0.1015625, -0.0312500, -0.1093750, -0.0937500, 0.0625000, -0.0625000, -0.1093750, -0.0625000, -0.1171875, -0.0703125, 0.0000000, 0.0468750, 0.0078125, 0.0468750, 0.0937500, -0.1171875, -0.0937500, -0.1250000, 0.0312500, 0.0859375, -0.1093750, -0.0468750, -0.0937500, -0.0156250, 0.0156250, -0.1093750, -0.0546875, -0.1171875, 0.0937500, -0.0625000, -0.0703125, 0.1093750, -0.0078125, -0.0937500, 0.1093750, 0.0234375, 0.0468750, -0.0390625, -0.1093750, 0.0390625, -0.0859375, -0.1171875, -0.0546875, -0.0390625, -0.0312500, 0.0468750, 0.0156250, 0.1015625, -0.0625000, 0.1093750, -0.0625000, -0.1093750, 0.0703125, 0.0156250, 0.0781250, -0.0781250, -0.0859375, -0.0546875, 0.0156250, 0.0546875, -0.0390625, 0.0937500, 0.0234375, -0.1171875, 0.0781250, -0.1015625, -0.0078125, 0.0781250, 0.0468750, 0.0937500, -0.0703125, 0.0156250, 0.0078125, 0.0781250, -0.1015625, -0.0156250, -0.0156250, 0.0546875, 0.0625000, -0.0546875, 0.0390625, -0.0234375, 0.1250000, -0.0234375, 0.0703125, 0.0156250, -0.0390625, -0.0234375, -0.0390625, -0.0156250, -0.0625000, -0.0781250, -0.0234375, 0.0078125, 0.1015625, 0.0156250, 0.0312500, 0.0312500, 0.0703125, 0.0546875, -0.0156250, -0.0156250, 0.0703125, 0.1015625, 0.0390625, -0.0078125, 0.1093750, 0.0312500, 0.1093750, -0.0312500, 0.0390625, -0.0078125, -0.0156250, 0.0937500, -0.0937500, 0.1015625, -0.0703125, -0.0156250, 0.1015625, -0.0781250, -0.1093750, -0.0078125, 0.0390625, -0.0859375, 0.1015625, 0.1250000, -0.0937500, 0.0546875, -0.0703125, 0.1015625, 0.0312500, 0.0859375, 0.0859375, -0.1250000, 0.1093750, 0.0625000, 0.0468750, 0.0468750, 0.0000000, 0.1015625, 0.0156250, 0.0859375, -0.1093750, 0.0937500, 0.0625000, 0.0078125, 0.0781250, 0.1093750, 0.0156250, 0.0312500, -0.1093750, 0.0859375, -0.0312500, -0.1015625, -0.0156250, -0.0937500, -0.0156250, -0.0390625, -0.0546875, -0.0468750, -0.0390625, -0.0468750, -0.0781250, -0.0703125, -0.0781250, 0.0937500, -0.0234375, -0.0859375, -0.0156250, -0.0312500, -0.0625000, 0.0156250, 0.0703125, -0.0234375, 0.1093750, -0.0156250, -0.0234375, 0.0937500, -0.0468750, -0.0546875, -0.1171875, 0.0156250, 0.0703125, 0.0468750, 0.0156250, 0.0703125, -0.0703125, 0.0703125, 0.0859375, -0.0234375, 0.0156250, -0.1015625, 0.0859375, 0.0156250, -0.1250000, 0.0625000, -0.0625000, 0.0000000, 0.0000000, -0.0078125, 0.1015625, -0.0703125, -0.0234375, 0.0781250, 0.0625000, -0.0781250, -0.0312500, -0.1015625, 0.0078125, -0.0859375, -0.0156250, 0.0390625, 0.1093750, -0.0312500, 0.0156250, 0.0078125, 0.0390625, -0.1171875, 0.0781250, -0.1015625, 0.1015625, 0.0468750, 0.0312500, -0.1093750, -0.0937500, -0.0390625, -0.0078125, 0.0937500, -0.0078125, 0.0546875, 0.0468750, -0.1015625, -0.0156250, 0.0546875, -0.1171875, -0.0937500, -0.0937500, -0.0234375, 0.0625000, -0.0625000, 0.0156250, -0.0468750, -0.0703125, -0.1093750, 0.0937500, -0.0390625, -0.0468750, 0.0078125, 0.0078125, 0.0078125, -0.0781250, 0.0859375, 0.0937500, 0.0781250, -0.0937500, 0.0859375, -0.0312500, -0.0390625, -0.1093750, -0.0781250, -0.0390625, 0.0234375, -0.1015625, -0.0937500, -0.0937500, -0.0625000, -0.1015625, -0.0703125, -0.1093750, 0.0781250, -0.0937500, -0.0234375, -0.0859375, 0.0000000, -0.0546875, -0.0156250, 0.0703125, -0.0312500, -0.0312500, 0.0312500, -0.1093750, 0.0703125, 0.0703125, 0.0703125, 0.0937500, -0.0937500, 0.0937500, -0.1015625, -0.0937500, 0.1250000, 0.0703125, -0.0703125, -0.0625000, 0.0390625, 0.0859375, -0.1171875, 0.0312500, 0.1093750, 0.0625000, -0.0390625, -0.0312500, 0.0390625, 0.0390625, 0.0781250, -0.0859375, 0.1093750, 0.0546875, -0.0859375, 0.0390625, -0.0703125, -0.1093750, -0.0781250, -0.1171875, 0.0468750, 0.0546875, 0.0468750, 0.0312500, -0.0234375, 0.0859375, 0.0703125, -0.0781250, 0.0468750, 0.0937500, 0.0390625, 0.0937500, -0.0859375, -0.0937500, 0.0781250, -0.0859375, -0.0234375, 0.0625000, 0.0078125, -0.1015625, -0.0937500, 0.0156250, 0.1093750, 0.0390625, 0.0859375, 0.0937500, 0.0312500, 0.0859375, -0.1093750, 0.0000000, 0.0390625, 0.0312500, -0.1093750, -0.0546875, -0.1171875, -0.0234375, 0.0000000, 0.0078125, -0.0156250, -0.1171875, 0.0078125, 0.0156250, 0.0781250, 0.0312500, 0.0312500, 0.0703125, -0.0859375, 0.0468750, 0.0234375, -0.0781250, -0.1093750, 0.0234375, -0.0703125, 0.0234375, -0.0937500, 0.0312500, 0.0859375, 0.0703125, 0.0312500, 0.0859375, 0.0625000, -0.0468750, -0.1015625, -0.0625000, -0.0859375, 0.0078125, 0.0078125, 0.0468750, 0.0859375, 0.0937500, -0.1171875, -0.0937500, 0.0312500, -0.0234375, 0.0703125, 0.0078125, 0.0625000, -0.0546875, 0.0234375, 0.0390625, 0.0156250, -0.0468750, 0.0781250, -0.0781250, 0.0625000, 0.1171875, -0.0312500, -0.1171875, -0.0390625, 0.1015625, 0.1093750, 0.0546875, 0.0000000, 0.0703125, 0.0390625, 0.0625000, 0.0859375, -0.0312500, 0.0625000, 0.0156250, -0.0937500, -0.0078125, 0.0625000, 0.0546875, -0.0078125, 0.0625000, -0.0078125, -0.0390625, 0.0625000, 0.0390625, -0.0156250, 0.1015625, 0.0703125, 0.1171875, 0.0937500, 0.0468750, -0.1015625, 0.0156250, -0.0546875, -0.0546875, 0.0390625, -0.0312500, 0.1171875, -0.0390625, 0.0625000, 0.0390625, 0.0703125, -0.1250000, 0.0312500, 0.0078125, 0.0234375, 0.0546875, -0.0312500, -0.0312500, -0.0156250, 0.0390625, 0.0625000, 0.0078125, -0.1015625, 0.0312500, 0.0000000, 0.1093750, -0.0781250, -0.0312500, -0.1093750, -0.0937500, -0.0156250, -0.0078125, -0.0312500, -0.0781250, 0.1015625, 0.0781250, -0.1250000, -0.0468750, 0.0859375, -0.0859375, 0.0156250, 0.1015625, 0.0390625, -0.0234375, -0.0468750, 0.0078125, -0.0937500, 0.0390625, 0.0390625, 0.0781250, 0.0703125, -0.0390625, 0.0156250, 0.0390625, 0.0156250, 0.0937500, -0.0937500, -0.0859375, -0.1093750, 0.0234375, -0.0312500, -0.1015625, -0.0468750, -0.1171875, 0.0390625, 0.0625000, 0.0859375, 0.0156250, 0.1328125, 0.1250000, 0.0312500, 0.0312500, 0.0078125, -0.0625000, 0.0000000, -0.0312500, 0.0859375, 0.0546875, -0.0468750, -0.0312500, 0.0546875, -0.0156250, 0.0937500, 0.0703125, 0.0546875, -0.0625000, -0.0937500, -0.0859375, 0.0390625, 0.0156250, 0.0859375, 0.0625000, 0.0156250, 0.0781250, -0.0937500, -0.0703125, 0.0625000, -0.1015625, -0.0156250, 0.0312500, 0.1015625, 0.0859375, -0.0546875, 0.0703125, 0.1015625, -0.1015625, -0.0078125, -0.0156250, -0.0781250, -0.1171875, 0.0781250, 0.0859375, -0.1171875, -0.0468750, -0.1015625, 0.0156250, 0.0781250, -0.1250000, 0.0703125, -0.0546875, 0.0234375, -0.0546875, -0.0859375, -0.0390625, -0.1093750, -0.0937500, 0.0859375, -0.0390625, -0.0703125, -0.0546875, 0.0937500, -0.0312500, -0.1093750, 0.0156250, 0.0390625, -0.0156250, 0.0937500, -0.0781250, -0.0312500, 0.0937500, 0.1093750, -0.0781250, -0.0859375, -0.1015625, -0.1250000, 0.0234375, -0.0703125, 0.0234375, -0.0078125, -0.0625000, 0.1015625, -0.0546875, -0.0781250, 0.0937500, 0.0781250, -0.0468750, -0.0078125, 0.0312500, 0.0781250, -0.0312500, -0.0859375, -0.0781250, 0.0000000, -0.1171875, -0.0468750, 0.0390625, -0.0625000, -0.1093750, 0.0781250, -0.0781250, 0.0703125, -0.0156250, -0.0390625, -0.0781250, 0.0468750, 0.0546875, 0.0546875, -0.1093750, -0.0390625, -0.0390625, 0.0781250, -0.1250000, -0.0703125, -0.0390625, -0.0156250, -0.0546875, -0.0625000, 0.0937500, 0.0546875, -0.0859375, 0.1093750, 0.0703125, 0.0937500, -0.0703125, -0.1093750, 0.1093750, 0.0937500, -0.0546875, 0.0390625, -0.0625000, 0.1093750, 0.0000000, 0.1015625, -0.0937500, 0.1093750, -0.0546875, -0.0312500, 0.0234375, 0.0859375, 0.0312500, 0.0468750, -0.1171875, 0.1171875, -0.0625000, 0.0625000, -0.0156250, -0.0468750, 0.0468750, -0.0312500, -0.0390625, 0.0234375, 0.0390625, -0.0703125, 0.0312500, -0.0468750, 0.0078125, 0.1093750, 0.0703125, -0.1015625, 0.0468750, 0.0703125, 0.0390625, -0.1093750, -0.0546875, -0.0156250, -0.0312500, -0.0546875, 0.0468750, -0.0937500, 0.0781250, 0.0546875, -0.0625000, 0.1328125, 0.0468750, -0.0859375, 0.1171875, -0.0703125, 0.0078125, 0.0625000, -0.0859375, -0.0312500, -0.0078125, 0.0546875, -0.0156250, -0.1093750, -0.0312500, 0.0937500, -0.0703125, -0.0156250, 0.0390625, -0.0703125, 0.0859375, -0.0312500, 0.0390625, -0.0156250, -0.1171875, -0.0781250, 0.0468750, -0.0156250, -0.0625000, -0.0859375, -0.1171875, 0.0781250, -0.1015625, 0.0781250, -0.0859375, -0.0937500, 0.0937500, 0.0625000, -0.0625000, 0.0781250, 0.0000000, 0.0468750, -0.0625000, 0.0703125, -0.0703125, 0.0312500, 0.0312500, 0.0781250, -0.1093750, 0.0937500, -0.0937500, 0.0000000, -0.0312500, 0.0546875, 0.0234375, -0.0468750, -0.0234375, -0.0859375, 0.0859375, 0.0312500, -0.0156250, -0.0859375, 0.0937500, -0.0703125, 0.0625000, -0.0312500, 0.0546875, -0.0781250, -0.0546875, 0.0546875, 0.0703125, -0.1015625, -0.1093750, 0.0390625, 0.0000000, -0.1093750, -0.0156250, -0.1250000, -0.0546875, 0.0625000, -0.0468750, 0.0234375, 0.0234375, -0.0156250, -0.0859375, -0.1093750, 0.0625000, 0.0937500, -0.0781250, -0.0390625, 0.0390625, -0.1171875, -0.0703125, -0.0546875, -0.0390625, 0.0000000, 0.0312500, 0.0234375, 0.0156250, 0.1093750, -0.0703125, -0.0390625, 0.0312500, 0.0859375, 0.1171875, 0.0781250, 0.0781250, -0.0703125, -0.0156250, -0.0625000, -0.0390625, 0.0234375, -0.1093750, 0.0312500, 0.1093750, 0.0156250, 0.0156250, 0.0468750, 0.0000000, 0.1015625, -0.1093750, 0.0625000, -0.0390625, 0.1093750, -0.0937500, -0.0156250, 0.0937500, -0.0312500, 0.0312500, 0.0937500, 0.0156250, 0.0234375, -0.0390625, 0.0546875, -0.0859375, 0.0234375, 0.0703125, 0.0468750, -0.0859375, 0.0781250, 0.0390625, -0.0390625, -0.0703125, 0.0234375, -0.0468750, -0.0546875, -0.0078125, 0.0234375, 0.0156250, 0.0078125, 0.0937500, 0.1015625, 0.0937500, 0.0312500, 0.0937500, -0.0234375, 0.1093750, -0.0859375, -0.0234375, 0.0625000, -0.0625000, 0.0859375, 0.0703125, -0.1093750, -0.1015625, -0.0625000, -0.1015625, -0.0234375, -0.0859375, -0.1250000, -0.0234375, 0.0390625, 0.0625000, -0.0468750, 0.0625000, -0.1250000, 0.0156250, 0.0078125, -0.0859375, 0.0468750, 0.1171875, 0.0312500, 0.0625000, -0.1015625, -0.0781250, 0.0781250, 0.0312500, -0.0703125, 0.0546875, -0.0625000, 0.0625000, -0.1093750, 0.0703125, -0.1093750, -0.1015625, -0.0078125, 0.0000000, 0.0390625, 0.0312500, 0.0703125, -0.0625000, 0.1015625, 0.0546875, -0.0468750, 0.0703125, -0.0078125, -0.0625000, 0.0703125, -0.0625000, 0.0312500, -0.0937500, 0.1093750, 0.0234375, 0.0703125, -0.0859375, 0.0390625, 0.0859375, -0.0390625, 0.0156250, 0.0703125, -0.0625000, -0.0234375, -0.0156250, -0.0625000, -0.0156250, 0.1093750, -0.1015625, 0.0078125, -0.1171875, -0.0468750, -0.0546875, -0.0390625, -0.1093750, 0.0468750, 0.0312500, -0.0937500, 0.0312500, 0.0390625, 0.0234375, 0.0937500, 0.0859375, 0.1093750, -0.0468750, 0.1015625, -0.0156250, -0.0234375, -0.1093750, 0.0546875, 0.0234375, -0.0859375, 0.0000000, -0.0703125, -0.0156250, 0.0546875, -0.1250000, 0.0625000, -0.0625000, -0.0468750, 0.0859375, -0.0781250, 0.0390625, 0.0781250, -0.0312500, 0.0859375, 0.0078125, -0.0390625, 0.1093750, -0.0781250, 0.0234375, 0.0937500, -0.0781250, -0.0937500, -0.0703125, -0.0859375, -0.0703125, -0.1015625, 0.0937500, 0.1015625, -0.0078125, -0.0234375, -0.0078125, -0.0625000, -0.0859375, -0.0703125, -0.0468750, -0.0390625, -0.0781250, -0.0546875, 0.0859375, -0.0078125, -0.0546875, -0.0234375, 0.0625000, -0.0859375, -0.0546875, 0.0390625, -0.1093750, 0.0390625, 0.0234375, -0.0078125, -0.0078125, 0.0156250, 0.0390625, -0.1093750, 0.1015625, -0.0546875, 0.0234375, -0.1093750, -0.0937500, 0.0781250, -0.1093750, 0.0234375, 0.0312500, 0.0546875, 0.1171875, 0.1015625, 0.0078125, 0.0703125, 0.0468750, 0.0859375, -0.1250000, -0.0078125, 0.0312500, 0.0703125, -0.0937500, 0.1171875, -0.0937500, 0.0156250, -0.1093750, 0.0625000, -0.0156250, -0.0546875, 0.0468750, 0.0859375, 0.0859375, 0.0781250, -0.0468750, -0.0703125, 0.1093750, -0.0781250, 0.0859375, 0.0468750, 0.0234375, 0.1171875, 0.0703125, -0.1015625, -0.0625000, 0.0468750, -0.0546875, 0.0312500, -0.0546875, -0.0546875, -0.1093750, 0.1093750, 0.1093750, -0.0625000, 0.0781250, 0.0468750, -0.0937500, 0.0078125, -0.0781250, -0.0859375, -0.0156250, 0.0156250, 0.0703125, -0.0234375, 0.0312500, -0.1093750, -0.1093750, -0.0859375, -0.0859375, -0.0312500, 0.0234375, 0.0859375, -0.0468750, 0.0859375, -0.1015625, -0.0468750, 0.0156250, -0.0781250, -0.1015625, -0.1171875, -0.0078125, -0.1093750, 0.0781250, -0.0625000, 0.1093750, -0.0156250, 0.0703125, 0.1093750, 0.0000000, 0.0937500, 0.0859375, 0.0781250, -0.0546875, -0.0312500, 0.1015625, 0.0000000, -0.0859375, -0.1015625, 0.0937500, -0.1171875, -0.0703125, 0.0000000, -0.0312500, 0.0546875, 0.0000000, 0.0859375, -0.0468750, -0.0937500, 0.0859375, -0.0156250, -0.0937500, 0.0937500, 0.0781250, 0.0546875, -0.0078125, -0.1093750, -0.0937500, -0.1171875, -0.0546875, 0.0390625, -0.0781250, -0.1171875, 0.0390625, 0.0000000, 0.0390625, 0.0937500, 0.0390625, 0.0156250, -0.0781250, -0.0937500, -0.0546875, -0.0703125, 0.0937500, -0.0546875, -0.0156250, -0.0156250, -0.0703125, 0.0000000, -0.0156250, 0.0312500, 0.1171875, -0.0078125, 0.0625000, -0.0546875, -0.0390625, -0.0312500, 0.0546875, -0.0781250, -0.0625000, -0.0781250, 0.0000000, 0.1015625, 0.1250000, -0.1093750, 0.0546875, 0.0156250, 0.0937500, 0.0390625, 0.1015625, -0.0546875, 0.1093750, -0.0078125, -0.0156250, -0.0859375, 0.0546875, 0.0078125, 0.1015625, 0.1093750, -0.0781250, -0.0078125, -0.1171875, 0.1093750, 0.0390625, -0.1171875, 0.0312500, 0.0937500, 0.1250000, -0.0937500, -0.0625000, 0.0390625, 0.0234375, 0.0312500, 0.1015625, -0.0703125, -0.0937500, 0.1171875, -0.0703125, 0.0859375, -0.0156250, -0.0546875, 0.0390625, -0.0625000, 0.0859375, -0.0156250, -0.0703125, -0.1093750, -0.0468750, -0.0390625, 0.0781250, 0.0234375, 0.0468750, 0.0546875, 0.0156250, 0.0156250, -0.0546875, -0.1093750, 0.0000000, 0.0078125, -0.0078125, 0.0625000, -0.0546875, 0.0468750, 0.1093750, -0.1015625, -0.0312500, 0.0312500, 0.1093750, 0.0000000, -0.0703125, 0.0625000, 0.0781250, 0.0312500, -0.0390625, -0.0859375, 0.0546875, 0.0156250, -0.0546875, -0.1015625, -0.0234375, 0.0078125, -0.0625000, -0.0546875, -0.0781250, 0.0234375, -0.0156250, -0.0625000, 0.0312500, -0.0703125, -0.0468750, 0.0234375, -0.0781250, 0.1093750, -0.0859375, 0.0859375, -0.1093750, -0.0781250, 0.0937500, -0.0703125, 0.0156250, 0.0781250, -0.1171875, -0.1093750, 0.0781250, -0.0703125, 0.0546875, -0.0781250, 0.0937500, -0.0625000, 0.1171875, 0.0546875, 0.0156250, 0.0390625, -0.0937500, -0.0468750, 0.0312500, 0.0234375, 0.0937500, 0.0468750, -0.0625000, -0.0468750, -0.0078125, -0.0859375, -0.0312500, 0.0781250, 0.1093750, -0.0234375, -0.0546875, -0.1250000, -0.0390625, 0.0625000, -0.1015625, 0.0703125, 0.0000000, 0.0703125, -0.0468750, -0.0468750, -0.0156250, -0.0312500, -0.0781250, -0.0625000, 0.0703125, -0.1015625, 0.0781250, -0.0156250, -0.1015625, -0.1171875, -0.0937500, -0.0781250, -0.1250000, -0.0312500, 0.0000000, 0.0312500, -0.1093750, -0.1093750, 0.0546875, -0.0078125, 0.0859375, 0.0390625, 0.0937500, -0.0546875, -0.1093750, 0.0546875, 0.0546875, 0.0390625, 0.0468750, -0.0156250, -0.1171875, 0.0312500, -0.0468750, -0.1093750, 0.0390625, -0.0859375, 0.0312500, 0.0078125, -0.0937500, 0.1093750, 0.0625000, -0.1093750, -0.0859375, -0.0625000, -0.0625000, 0.1015625, -0.0468750, -0.0937500, -0.0468750, -0.0703125, 0.0468750, -0.0234375, 0.1093750, 0.0312500, 0.0937500, 0.0156250, -0.0156250, 0.0078125, 0.1171875, -0.0781250, 0.0937500, 0.0937500, 0.0859375, -0.0390625, -0.0234375, -0.0078125, -0.0078125, -0.0468750, 0.0156250, -0.1015625, -0.0234375, 0.1015625, 0.0000000, 0.0546875, 0.1093750, -0.1093750, -0.0156250, 0.0625000, -0.0859375, -0.0781250, 0.0625000, 0.1015625, -0.0625000, 0.0156250, -0.0625000, -0.0703125, -0.1171875, -0.0625000, 0.0390625, 0.0390625, -0.0859375, 0.0468750, 0.0859375, -0.0468750, 0.0546875, 0.0781250, 0.1093750, -0.0937500, -0.0312500, -0.1250000, -0.0546875, 0.0781250, 0.0000000, 0.1015625, 0.0468750, -0.0234375, -0.1171875, -0.0546875, 0.0390625, 0.0781250, 0.0703125, -0.1015625, -0.1015625, -0.0156250, -0.1015625, -0.0937500, 0.0156250, -0.0078125, -0.0078125, -0.0156250, 0.0390625, -0.0781250, -0.0078125, -0.1171875, 0.0859375, 0.0234375, -0.0625000, 0.0859375, 0.1015625, -0.0078125, 0.0468750, -0.0234375, -0.0546875, -0.0468750, 0.1093750, 0.0234375, 0.0390625, -0.0937500, 0.0625000, -0.0390625, -0.0625000, 0.0859375, -0.1015625, 0.0234375, 0.0390625, -0.0703125, -0.0859375, 0.0781250, -0.1093750, -0.0625000, -0.0937500, 0.0312500, 0.0000000, 0.0390625, 0.1015625, -0.1250000, -0.0312500, -0.0156250, -0.0859375, -0.0390625, 0.1015625, -0.0859375, 0.0937500, -0.0078125, -0.0468750, 0.0781250, -0.1171875, -0.0781250, -0.0781250, 0.1171875, -0.0312500, -0.0781250, -0.0781250, -0.1250000, -0.0546875, -0.1171875, -0.0546875, -0.0859375, -0.0546875, 0.0859375, -0.0625000, 0.0468750, 0.0156250, 0.0937500, 0.0859375, 0.0468750, -0.1171875, 0.0546875, 0.0312500, 0.0625000, -0.0312500, 0.0546875, -0.0468750, 0.0156250, 0.0703125, 0.0312500, 0.0546875, -0.0859375, -0.0312500, -0.1015625, 0.0234375, -0.0859375, 0.0000000, -0.0468750, -0.1093750, 0.0234375, -0.1015625, -0.0390625, 0.0156250, 0.1093750, 0.0468750, -0.0156250, 0.0390625, 0.0390625, -0.0078125, -0.0859375, 0.0468750, -0.0703125, 0.0390625, 0.0156250, -0.0937500, 0.0703125, -0.0390625, 0.0937500, 0.0468750, 0.0156250, 0.0156250, -0.0625000, -0.0546875, 0.0000000, 0.0000000, -0.1171875, 0.0546875, 0.0312500, -0.0859375, 0.0546875, 0.0859375, 0.0000000, 0.0937500, -0.0859375, 0.0390625, -0.0937500, -0.1171875, -0.0312500, -0.0156250, 0.1171875, 0.1171875, 0.0546875, 0.0078125, 0.0625000, 0.0703125, -0.0156250, 0.0468750, 0.0234375, -0.0234375, -0.0937500, -0.0078125, -0.0937500, 0.0390625, 0.0937500, -0.0937500, -0.0390625, -0.0546875, -0.0781250, 0.0703125, -0.0625000, 0.1015625, 0.1093750, 0.0859375, 0.0078125, 0.0468750, 0.0468750, -0.0546875, 0.0937500, -0.1171875, 0.0156250, 0.0859375, 0.0234375, -0.0156250, 0.0078125, 0.0546875, -0.1015625, -0.0390625, -0.0703125, 0.0468750, 0.0859375, 0.0859375, -0.0781250, -0.0703125, 0.1015625, 0.0937500, 0.0546875, -0.1093750, -0.0312500, 0.0937500, -0.0156250, -0.0234375, 0.0000000, -0.0546875, 0.0703125, -0.0234375, -0.0312500, 0.0546875, -0.0390625, -0.0312500, 0.0000000, -0.0703125, -0.0937500, -0.0390625, 0.0546875, -0.0703125, 0.0078125, 0.0234375, 0.0625000, 0.0312500, 0.0468750, 0.0312500, 0.0859375, 0.0546875, 0.0078125, 0.0546875, -0.1093750, -0.1093750, -0.0781250, -0.0703125, 0.0312500, -0.1171875, -0.0546875, -0.0781250, 0.0781250, -0.0937500, -0.0546875, 0.0859375, 0.0078125, 0.0859375, -0.0156250, -0.0625000, 0.0625000, -0.0781250, 0.0078125, -0.1250000, 0.0234375, 0.0937500, 0.0625000, 0.0312500, 0.0156250, 0.0468750, -0.0546875, -0.0937500, -0.0156250, -0.0078125, 0.0546875, -0.0859375, 0.0390625, -0.0859375, 0.0703125, 0.0625000, 0.0468750, 0.0781250, 0.0937500, -0.0859375, -0.0234375, -0.0078125, -0.1171875, 0.1015625, -0.0234375, 0.0390625, 0.0937500, 0.0234375, -0.1171875, -0.0625000, 0.0859375, 0.0546875, 0.0234375, 0.0937500, 0.1015625, 0.0312500, 0.0546875, 0.0625000, -0.0625000, 0.0312500, -0.0546875, -0.0546875, 0.0625000, 0.0078125, -0.0078125, -0.0703125, 0.0859375, 0.0859375, 0.0781250, 0.0156250, 0.0390625, -0.0625000, -0.0156250, -0.0156250, 0.0859375, -0.0234375, 0.0703125, -0.0781250, 0.0000000, 0.1015625, 0.0546875, 0.1015625, -0.1093750, 0.0546875, 0.0937500, -0.0234375, -0.0234375, -0.0390625, 0.1093750, 0.0546875, -0.0312500, 0.0937500, -0.0625000, -0.0234375, 0.1015625, -0.0781250, 0.0156250, -0.0078125, -0.1093750, 0.0546875, 0.0859375, -0.0625000, -0.0468750, -0.0390625, -0.0468750, -0.0859375, -0.0390625, 0.0000000, 0.0781250, -0.0937500, 0.0859375, 0.1093750, 0.0859375, 0.0703125, -0.0546875, 0.0781250, -0.0859375, 0.0312500, -0.1015625, -0.0625000, 0.0703125, 0.0859375, -0.0859375, 0.0390625, -0.0703125, -0.0078125, -0.0859375, -0.0781250, -0.0546875, -0.0859375, 0.0859375, -0.0625000, -0.1250000, -0.0546875, -0.0625000, -0.0546875, 0.0937500, 0.0859375, -0.0468750, -0.0234375, -0.0937500, 0.0937500, 0.0781250, 0.0234375, -0.1015625, -0.0781250, 0.0000000, 0.0781250, 0.0078125, 0.0390625, 0.0546875, -0.0625000, 0.0937500, 0.0859375, 0.0625000, 0.0078125, -0.1093750, 0.0625000, -0.0625000, 0.0390625, 0.0781250, 0.0234375, 0.0859375, 0.0078125, -0.0156250, -0.0156250, -0.0703125, 0.0625000, -0.0625000, -0.1171875, 0.0390625, -0.0703125, -0.0312500, -0.0546875, 0.0000000, -0.0468750, -0.0703125, 0.0000000, 0.1171875, 0.0937500, 0.0468750, 0.0781250, -0.0937500, 0.0859375, 0.0703125, -0.0312500, -0.0859375, -0.0859375, 0.0234375, 0.0390625, -0.1015625, -0.0078125, -0.0625000, 0.1093750, -0.0859375, 0.0234375, -0.0234375, 0.0468750, 0.0156250, 0.0078125, -0.1093750, -0.1015625, 0.0312500, -0.0703125, -0.0859375, 0.0156250, 0.1093750, -0.1093750, -0.0156250, -0.1171875, 0.0078125, 0.0468750, 0.0546875, -0.0468750, -0.0546875, 0.0156250, 0.0234375, -0.0625000, -0.0156250, -0.0312500, -0.1015625, -0.0312500, -0.0937500, 0.0625000, 0.0078125, 0.0546875, 0.0078125, 0.0234375, 0.0625000, -0.1093750, -0.0625000, -0.0156250, 0.0234375, -0.0781250, -0.0390625, 0.1171875, -0.1015625, -0.0078125, 0.1093750, 0.0859375, 0.0312500, 0.0546875, 0.0078125, -0.0156250, 0.1093750, 0.0781250, -0.0546875, 0.1015625, -0.0859375, 0.0546875, 0.0468750, -0.0234375, 0.0390625, -0.0234375, 0.1093750, 0.1171875, 0.0859375, -0.0703125, -0.0390625, 0.0781250, 0.0937500, -0.0859375, 0.0312500, 0.0468750, 0.1093750, 0.0625000, 0.0312500, 0.0703125, -0.0546875, 0.0390625, 0.0859375, 0.0000000, -0.0703125, 0.0859375, -0.0703125, -0.0781250, 0.0234375, 0.0703125, -0.0546875, -0.0781250, 0.0312500, -0.0859375, -0.1250000, 0.0781250, 0.0859375, 0.1093750, 0.0625000, 0.1015625, 0.0000000, 0.1015625, -0.0703125, -0.0312500, 0.0625000, 0.0468750, -0.0546875, -0.1093750, -0.0937500, -0.0625000, -0.0390625, -0.0312500, 0.0937500, 0.0468750, 0.0000000, -0.0468750, -0.0781250, 0.1171875, -0.0937500, 0.0156250, 0.0156250, -0.0156250, -0.0546875, -0.0703125, -0.0156250, 0.0703125, -0.0859375, -0.0234375, -0.0234375, 0.0156250, -0.0312500, 0.0625000, -0.0625000, -0.0781250, 0.0703125, 0.0781250, 0.1015625, 0.0781250, -0.1015625, -0.1171875, 0.0937500, -0.0703125, 0.0234375, 0.0625000, 0.0390625, 0.0468750, 0.0000000, -0.0781250, -0.1171875, 0.0390625, -0.0546875, 0.0859375, 0.0937500, -0.0781250, -0.0156250, -0.0156250, 0.0234375, -0.0625000, 0.0781250, 0.0078125, -0.0390625, 0.0234375, -0.0234375, -0.0546875, 0.1015625, -0.0390625, 0.0859375, -0.0156250, 0.0703125, -0.1171875, -0.1015625, -0.1171875, -0.1093750, -0.1093750, -0.0468750, 0.0156250, 0.0078125, 0.0859375, -0.1015625, -0.0156250, 0.0937500, -0.0859375, 0.0000000, 0.1015625, -0.0078125, 0.0156250, 0.0156250, 0.0468750, 0.0312500, -0.0625000, -0.0390625, 0.0000000, -0.0390625, -0.0468750, 0.1171875, 0.0546875, 0.0937500, 0.1093750, 0.0625000, 0.0781250, 0.0781250, 0.0078125, -0.0937500, -0.0781250, -0.1015625, -0.0859375, 0.0000000, 0.1093750, 0.0312500, -0.1015625, -0.0703125, 0.0078125, 0.0234375, 0.0312500, 0.0937500, 0.0625000, 0.0468750, -0.0390625, 0.0781250, 0.0937500, -0.0468750, -0.0859375, -0.0781250, 0.0390625, -0.0390625, -0.0781250, -0.0312500, -0.0156250, 0.0234375, 0.0156250, 0.0781250, 0.0546875, -0.0312500, -0.1093750, -0.0156250, 0.0625000, 0.0625000, -0.0625000, -0.0937500, 0.0156250, 0.0859375, -0.0312500, -0.0156250, 0.0234375, 0.0546875, 0.0937500, 0.1093750, 0.0078125, -0.1093750, -0.1015625, 0.0703125, 0.0546875, -0.1171875, -0.0703125, -0.1093750, 0.0000000, -0.0546875, 0.1015625, -0.0390625, 0.0000000, 0.0625000, -0.0078125, 0.0781250, -0.1015625, -0.0312500, -0.0859375, 0.0000000, 0.0937500, 0.1093750, 0.0312500, -0.0312500, 0.0859375, 0.0546875, -0.0937500, 0.0234375, 0.0625000, -0.0781250, 0.0937500, -0.0859375, -0.0390625, 0.1015625, 0.0468750, 0.0859375, 0.1093750, 0.0312500, 0.0937500, 0.0703125, 0.0234375, 0.0078125, -0.1015625, -0.0859375, 0.1015625, -0.0312500, 0.0859375, 0.0078125, 0.0468750, 0.0703125, -0.0546875, 0.0781250, -0.0390625, -0.1015625, 0.0234375, 0.0078125, -0.0859375, 0.0156250, 0.0234375, -0.0390625, -0.0156250, 0.0781250, 0.0468750, -0.0546875, 0.0078125, 0.0000000, 0.0625000, 0.1015625, 0.0937500, -0.0937500, -0.0390625, 0.0468750, -0.1250000, -0.0078125, 0.0703125, -0.1015625, 0.0000000, 0.0468750, 0.0703125, -0.1093750, 0.0468750, 0.0703125, -0.0625000, -0.0312500, 0.0312500, -0.0468750, -0.1015625, -0.0468750, 0.0312500, -0.0859375, 0.0625000, 0.1015625, -0.0859375, -0.0546875, -0.0625000, 0.1171875, -0.0703125, 0.0390625, 0.0937500, -0.0312500, -0.0625000, 0.0078125, 0.0859375, 0.0390625, -0.1093750, -0.0234375, -0.0156250, 0.0625000, -0.0703125, -0.0781250, 0.0156250, -0.0312500, -0.0468750, -0.0781250, -0.0937500, -0.1171875, -0.0937500, 0.0781250, 0.0468750, 0.0546875, 0.0781250, -0.1250000, -0.1015625, -0.1171875, -0.0156250, 0.0781250, 0.0703125, 0.1015625, -0.0625000, 0.0156250, -0.0468750, -0.0859375, -0.0390625, 0.0859375, -0.0156250, -0.1250000, -0.0390625, 0.0000000, -0.0625000, -0.1093750, 0.0625000, -0.0156250, 0.0156250, -0.0937500, -0.1093750, 0.0703125, -0.0546875, 0.0625000, 0.0312500, -0.0937500, 0.1015625, -0.0312500, 0.0000000, -0.0625000, 0.0937500, 0.1093750, -0.0546875, 0.0546875, 0.0625000, -0.0078125, -0.0468750, 0.0937500, -0.1171875, -0.0390625, 0.0546875, -0.0156250, -0.1171875, -0.0859375, -0.0078125, -0.0078125, 0.0703125, 0.0312500, 0.0000000, -0.0312500, 0.0625000, -0.0937500, -0.0781250, 0.0234375, -0.0937500, 0.0703125, -0.1015625, 0.0859375, 0.0781250, 0.0000000, -0.0390625, -0.0078125, -0.0234375, 0.0234375, -0.0234375, -0.0546875, 0.0625000, 0.0000000, 0.0703125, 0.0156250, -0.1015625, 0.0937500, 0.1171875, 0.1015625, -0.0546875, -0.1015625, 0.0703125, -0.0859375, 0.0937500, 0.0546875, -0.0234375, 0.0468750, 0.0312500, -0.0703125, -0.0937500, 0.0781250, 0.0390625, 0.0156250, -0.0390625, -0.0390625, -0.1015625, 0.0625000, -0.0625000, 0.0156250, -0.0156250, -0.0468750, 0.0937500, 0.0625000, 0.0625000, 0.1015625, -0.0234375, 0.0468750, 0.0937500, 0.0312500, 0.0312500, -0.0156250, 0.0078125, -0.0312500, -0.0390625, 0.0781250, 0.0703125, -0.1250000, -0.0781250, 0.0390625, -0.0703125, -0.0937500, 0.0390625, -0.0546875, 0.0078125, 0.0546875, -0.0937500, 0.0859375, 0.1093750, 0.0859375, 0.0000000, 0.0546875, -0.1171875, 0.0625000, 0.0234375, 0.0156250, 0.0937500, -0.0703125, -0.0312500, 0.0078125, 0.1093750, 0.0468750, -0.1171875, -0.0937500, -0.0859375, -0.1015625, 0.0312500, 0.0859375, -0.0234375, -0.0468750, -0.0937500, 0.0703125, 0.0546875, -0.0312500, 0.0234375, 0.0859375, 0.1015625, -0.1171875, 0.0937500, 0.0234375, -0.0859375, -0.0859375, -0.0390625, 0.1093750, -0.0312500, 0.0312500, 0.0781250, -0.0078125, 0.0234375, 0.0859375, 0.0703125, 0.0078125, -0.0625000, -0.0234375, 0.0937500, 0.1250000, 0.1015625, -0.0156250, 0.1093750, -0.0859375, 0.0156250, 0.0625000, -0.0546875, -0.0312500, 0.0937500, -0.0937500, -0.0546875, 0.0703125, -0.1093750, -0.0937500, 0.0312500, 0.0703125, -0.1093750, -0.1093750, 0.0546875, -0.0390625, -0.0156250, 0.0390625, -0.0156250, -0.0859375, -0.1250000, 0.1093750, 0.0234375, -0.0937500, -0.0390625, 0.0781250, 0.0234375, -0.0078125, 0.0703125, -0.0781250, 0.0312500, 0.0390625, 0.0781250, -0.0156250, -0.0781250, -0.0234375, 0.1093750, -0.0468750, -0.0156250, -0.0937500, -0.0859375, 0.0703125, -0.0312500, -0.0390625, -0.1015625, 0.0546875, -0.1015625, -0.0234375, -0.0859375, 0.0937500, -0.0156250, -0.0859375, 0.0156250, 0.0000000, 0.0156250, 0.0859375, 0.0390625, 0.0703125, 0.1093750, -0.1093750, -0.0156250, 0.0312500, 0.0703125, 0.0000000, -0.1015625, 0.0546875, -0.0078125, -0.0546875, -0.1171875, -0.0859375, 0.0312500, 0.0312500, 0.0859375, -0.1250000, -0.0546875, 0.0781250, -0.0937500, 0.0390625, -0.0703125, 0.0703125, -0.0234375, 0.0312500, 0.0937500, -0.0312500, 0.0703125, -0.0703125, -0.0390625, -0.0234375, -0.0625000, 0.0234375, 0.1093750, -0.1093750, 0.0625000, -0.0703125, -0.0468750, -0.0312500, 0.0468750, -0.1093750, 0.0937500, -0.0703125, 0.0234375, -0.0781250, 0.0625000, 0.0078125, 0.0859375, -0.0937500, 0.0859375, 0.0546875, -0.0312500, -0.1015625, 0.0312500, 0.0312500, 0.0234375, 0.0937500, 0.0312500, -0.0625000, 0.0937500, -0.0625000, -0.0781250, -0.0781250, 0.0937500, 0.0000000, 0.0000000, 0.0937500, -0.0390625, 0.0078125, 0.0390625, 0.0781250, -0.0781250, 0.0312500, 0.0937500, -0.0546875, 0.0078125, -0.0703125, 0.1171875, -0.0390625, 0.0859375, -0.0625000, -0.1093750, -0.0937500, 0.0781250, -0.0703125, 0.0390625, -0.1015625, 0.0781250, -0.1093750, -0.0937500, -0.0234375, 0.0468750, -0.0312500, 0.0625000, -0.1015625, 0.0703125, 0.0468750, -0.0390625, 0.0234375, 0.0468750, 0.0000000, 0.0625000, -0.0625000, -0.0078125, -0.1171875, 0.1093750, -0.0078125, 0.0312500, 0.1093750, -0.0625000, -0.0312500, -0.0781250, 0.0703125, -0.0937500, 0.0000000, -0.0156250, 0.1015625, -0.0625000, 0.1093750, -0.0078125, 0.0312500, 0.0781250, -0.0156250, -0.0078125, 0.0937500, -0.0312500, 0.1093750, -0.0937500, 0.1093750, 0.0390625, -0.1015625, 0.0546875, 0.0859375, 0.0546875, -0.0234375, -0.1171875, 0.0859375, 0.1093750, -0.0859375, -0.0781250, 0.0546875, 0.0468750, -0.0937500, 0.0546875, 0.0937500, -0.1093750, -0.1250000, 0.0625000, 0.0234375, -0.0078125, -0.0078125, 0.0234375, -0.0859375, -0.0078125, -0.0546875, 0.0625000, -0.0546875, 0.0000000, -0.0625000, -0.0937500, -0.0312500, -0.0781250, 0.1171875, -0.0625000, 0.1171875, 0.0000000, 0.0937500, 0.1171875, 0.0000000, 0.0468750, -0.1171875, 0.0546875, -0.0546875, -0.1015625, 0.0937500, 0.0390625, 0.0312500, -0.0781250, -0.0859375, 0.0859375, -0.0468750, -0.0625000, 0.0703125, 0.0000000, 0.1093750, -0.0937500, -0.0312500, -0.0390625, -0.0546875, -0.0156250, 0.0781250, 0.0625000, 0.0156250, -0.0312500, -0.0078125, 0.1093750, -0.1250000, 0.0625000, 0.0703125, -0.0781250, -0.0312500, 0.0312500, -0.1171875, 0.0625000, -0.1171875, 0.1171875, -0.1015625, -0.0312500, 0.0625000, -0.1015625, -0.0625000, -0.0234375, -0.0468750, -0.0546875, 0.0625000, -0.1250000, -0.0156250, 0.0312500, -0.0859375, -0.0859375, 0.0937500, 0.0468750, 0.1015625, 0.0703125, -0.0234375, 0.0234375, -0.0078125, 0.0703125, 0.0390625, 0.0312500, -0.1093750, -0.0390625, -0.1093750, 0.1171875, -0.0234375, 0.0937500, 0.0234375, 0.1171875, 0.0000000, 0.0078125, 0.0937500, -0.0781250, 0.0937500, 0.0937500, 0.1015625, -0.0078125, 0.0000000, 0.0000000, 0.0156250, -0.0234375, -0.1015625, -0.0312500, 0.0937500, -0.1093750, -0.0625000, 0.0859375, -0.1171875, -0.0390625, 0.0937500, -0.1015625, -0.0468750, 0.0468750, 0.0937500, -0.0312500, -0.0546875, 0.0625000, -0.0625000, 0.0156250, -0.0468750, 0.1093750, 0.0000000, 0.0312500, 0.0078125, -0.0703125, 0.1015625, 0.0234375, 0.0312500, -0.0781250, 0.1093750, 0.0625000, 0.0234375, -0.0390625, -0.0156250, 0.0000000, 0.0781250, -0.0156250, -0.0078125, 0.0000000, 0.0468750, 0.0468750, 0.0546875, -0.0625000, -0.1171875, 0.0546875, 0.0312500, 0.0625000, -0.1171875, 0.0234375, -0.0781250, -0.0625000, -0.0625000, 0.0390625, -0.0937500, -0.0625000, -0.0781250, 0.0859375, -0.0625000, 0.0937500, 0.0937500, -0.1093750, 0.1093750, -0.0468750, 0.0390625, -0.0781250, -0.0468750, -0.1015625, 0.0156250, -0.0625000, -0.1093750, 0.0000000, 0.0000000, -0.0781250, -0.0468750, -0.1093750, -0.1171875, -0.1015625, 0.0703125, -0.0156250, 0.0234375, -0.0859375, 0.1093750, -0.0937500, 0.0781250, -0.0156250, -0.1015625, -0.0781250, 0.0000000, 0.0625000, -0.0468750, -0.0312500, 0.0234375, 0.1015625, -0.0781250, 0.0468750, 0.0781250, 0.0312500, -0.1171875, 0.0781250, 0.1015625, -0.0781250, 0.0859375, -0.0468750, 0.1093750, -0.0468750, 0.0468750, -0.0078125, -0.0234375, 0.0937500, 0.1093750, 0.0703125, 0.0859375, 0.1015625, 0.0156250, -0.1171875, 0.0625000, -0.0312500, 0.0078125, 0.0703125, 0.0625000, 0.0859375, 0.0390625, -0.1093750, -0.0156250, -0.1015625, 0.0078125, 0.0390625, -0.0546875, -0.1015625, 0.0859375, -0.1250000, 0.0078125, -0.0390625, -0.0703125, 0.0546875, 0.0312500, 0.0781250, 0.0000000, 0.0859375, 0.1015625, -0.1093750, -0.0625000, 0.0625000, 0.0390625, -0.0859375, -0.0625000, 0.0937500, 0.0078125, 0.0859375, 0.1015625, 0.0390625, 0.0468750, -0.0156250, 0.0156250, 0.0546875, -0.0156250, 0.0234375, 0.0781250, 0.0468750, 0.0078125, -0.0078125, 0.1171875, -0.0390625, -0.0312500, -0.0781250, 0.0078125, -0.0234375, 0.0546875, 0.0546875, -0.0625000, 0.0156250, 0.0078125, 0.0000000, 0.0546875, -0.0937500, -0.0625000, -0.1015625, 0.0078125, -0.0859375, -0.1093750, -0.0703125, -0.0468750, 0.0156250, 0.0937500, -0.0468750, 0.0000000, 0.1015625, -0.1093750, -0.0078125, -0.0078125, -0.1093750, 0.0390625, 0.0937500, -0.0859375, 0.0000000, 0.0937500, 0.1093750, -0.1093750, -0.0859375, -0.0156250, -0.0781250, -0.0703125, -0.0468750, -0.0234375, 0.0312500, -0.0859375, -0.0312500, 0.0078125, 0.0234375, -0.1093750, 0.0703125, -0.0390625, -0.0625000, 0.0468750, -0.0859375, -0.0625000, -0.0781250, 0.0703125, 0.0703125, -0.0781250, 0.0546875, 0.0937500, 0.0703125, -0.0390625, 0.0625000, -0.0546875, -0.1093750, -0.0937500, -0.0625000, 0.0390625, 0.0937500, -0.0234375, -0.0156250, 0.0468750, 0.1015625, -0.0703125, 0.0703125, -0.0390625, -0.1171875, 0.0156250, -0.0468750, -0.0234375, 0.0468750, 0.1015625, 0.0234375, 0.1093750, -0.0468750, -0.0390625, 0.0703125, -0.0937500, 0.0859375, 0.0234375, -0.0859375, -0.0468750, 0.0234375, 0.0937500, 0.0156250, -0.1015625, 0.0937500, -0.0234375, -0.1171875, -0.0859375, -0.0078125, 0.0703125, 0.0937500, -0.0625000, -0.0312500, 0.0390625, -0.0546875, -0.0468750, -0.0625000, 0.0234375, 0.0859375, 0.0156250, 0.0468750, -0.0312500, -0.0312500, -0.1015625, -0.1171875, 0.0937500, 0.0078125, 0.1015625, -0.0859375, -0.0234375, -0.0937500, 0.0390625, -0.0703125, 0.0312500, -0.0156250, -0.0156250, 0.0234375, -0.0312500, -0.1015625, -0.1015625, 0.0546875, -0.0156250, -0.0390625, 0.0156250, 0.0625000, -0.0859375, -0.0625000, 0.0390625, -0.0234375, 0.0546875, -0.0937500, -0.0312500, -0.0781250, -0.0312500, -0.1250000, 0.0234375, 0.0078125, 0.0234375, 0.0625000, 0.1171875, -0.0703125, 0.1015625, 0.0859375, -0.0390625, -0.0078125, 0.0546875, 0.0078125, 0.0781250, -0.0859375, -0.0156250, -0.1093750, -0.0546875, 0.0078125, -0.0546875, -0.0234375, 0.1015625, 0.0078125, 0.0156250, -0.0625000, 0.0000000, 0.0546875, -0.0546875, -0.0546875, 0.0312500, -0.1015625, 0.0781250, -0.0937500, -0.0234375, -0.0390625, 0.0703125, -0.0859375, -0.0156250, -0.0703125, -0.0937500, -0.0078125, 0.0859375, 0.0468750, -0.1093750, 0.1015625, -0.0078125, -0.0468750, 0.0390625, -0.0625000, -0.0937500, 0.0937500, 0.0078125, -0.1171875, 0.0468750, 0.1015625, -0.0234375, -0.1093750, 0.0781250, 0.0156250, 0.0781250, -0.0546875, 0.0937500, -0.0156250, 0.0390625, 0.0625000, -0.1093750, 0.1093750, -0.0390625, 0.0468750, 0.1093750, -0.0156250, -0.0234375, 0.0390625, 0.1015625, -0.0546875, 0.0859375, -0.0625000, 0.0546875, -0.0625000, -0.0546875, 0.0546875, -0.1093750, -0.0937500, 0.1093750, 0.0468750, 0.0312500, -0.0859375, 0.0468750, 0.0937500, 0.0937500, -0.0625000, -0.0546875, 0.0078125, -0.0859375, 0.0781250, 0.0390625, -0.0859375, 0.1250000, -0.0625000, 0.0156250, -0.0546875, 0.0312500, 0.1093750, 0.0312500, -0.0859375, 0.0312500, -0.0781250, 0.0312500, -0.0937500, -0.0859375, 0.0000000, -0.0937500, -0.0156250, -0.0625000, 0.0234375, -0.0468750, -0.1171875, 0.0859375, -0.0312500, -0.1015625, -0.0078125, -0.0625000, 0.0625000, 0.0000000, 0.1171875, -0.0312500, -0.1171875, 0.0000000, -0.0468750, 0.0312500, -0.0937500, 0.0234375, 0.0703125, 0.0468750, 0.0859375, -0.0703125, 0.0078125, 0.0625000, -0.0312500, 0.0937500, 0.0468750, 0.0546875, 0.0468750, 0.0078125, -0.0390625, 0.0859375, -0.0937500, -0.0859375, -0.0546875, 0.0859375, 0.0234375, 0.0078125, -0.0703125, -0.1171875, 0.0000000, -0.0312500, -0.0156250, -0.0078125, -0.0390625, 0.0781250, -0.0625000, -0.0546875, 0.0000000, -0.0781250, -0.0156250, -0.1015625, 0.1093750, -0.1015625, 0.0781250, 0.0234375, -0.0312500, 0.0156250, 0.0468750, 0.0546875, 0.0703125, -0.0859375, 0.0937500, -0.1171875, 0.0390625, 0.0468750, -0.0156250, -0.0781250, -0.0859375, 0.0390625, 0.0468750, 0.0312500, 0.0390625, -0.0468750, -0.0390625, -0.1093750, -0.1015625, -0.0468750, 0.0859375, -0.0390625, -0.1171875, 0.0546875, 0.0312500, 0.0234375, 0.0546875, -0.0078125, 0.1093750, 0.0390625, -0.0234375, 0.0156250, -0.0625000, 0.0078125, 0.0781250, 0.0703125, -0.0625000, 0.0468750, 0.0156250, 0.0625000, -0.0781250, 0.0859375, 0.1015625, 0.0312500, -0.0390625, -0.0937500, -0.0781250, -0.1171875, 0.0625000, 0.0625000, 0.0078125, -0.0078125, 0.0312500, 0.0625000, -0.0859375, 0.0312500, -0.0625000, -0.0937500, -0.0234375, 0.0234375, 0.0390625, 0.0000000, -0.1171875, -0.1171875, -0.1015625, 0.1171875, 0.1015625, -0.0703125, 0.0000000, -0.0625000, -0.0390625, 0.0546875, 0.0390625, -0.0312500, -0.0468750, 0.0546875, -0.0703125, 0.0000000, 0.0703125, 0.1015625, 0.0703125, 0.1171875, -0.0546875, -0.0703125, -0.1015625, -0.0468750, 0.0546875, 0.0312500, -0.0468750, 0.0390625, 0.0546875, -0.0156250, -0.0468750, 0.0468750, 0.0312500, 0.0312500};
#endif

#endif
