//Numpy array shape [2048, 32]
//Min -0.078125000000
//Max 0.070312500000
//Number of zeros 4889

#ifndef W15_H_
#define W15_H_

#ifndef __SYNTHESIS__
weight15_t w15[65536];
#else
weight15_t w15[65536] = {0.0000000, 0.0312500, -0.0546875, -0.0390625, 0.0468750, -0.0390625, -0.0156250, 0.0234375, 0.0156250, 0.0468750, -0.0234375, -0.0156250, -0.0234375, 0.0468750, 0.0312500, 0.0156250, -0.0078125, 0.0312500, 0.0000000, -0.0312500, -0.0390625, -0.0546875, 0.0390625, -0.0468750, -0.0234375, 0.0000000, -0.0390625, -0.0234375, -0.0390625, 0.0156250, -0.0078125, -0.0312500, 0.0156250, 0.0468750, -0.0468750, 0.0312500, 0.0390625, 0.0468750, -0.0078125, -0.0078125, 0.0468750, 0.0468750, -0.0156250, 0.0312500, 0.0312500, -0.0468750, -0.0156250, -0.0156250, 0.0390625, 0.0000000, -0.0312500, -0.0390625, 0.0000000, -0.0312500, -0.0312500, 0.0312500, -0.0312500, -0.0390625, -0.0234375, 0.0156250, 0.0234375, -0.0234375, 0.0234375, 0.0546875, -0.0546875, -0.0625000, -0.0468750, 0.0156250, 0.0468750, -0.0234375, 0.0234375, 0.0156250, -0.0156250, -0.0468750, 0.0156250, -0.0468750, 0.0546875, -0.0312500, -0.0156250, -0.0078125, -0.0625000, 0.0000000, -0.0390625, 0.0000000, 0.0390625, 0.0234375, -0.0468750, -0.0078125, 0.0312500, -0.0078125, 0.0078125, -0.0234375, -0.0234375, 0.0234375, -0.0156250, -0.0156250, -0.0078125, -0.0390625, 0.0234375, 0.0156250, 0.0000000, 0.0390625, 0.0312500, -0.0312500, -0.0234375, -0.0312500, -0.0468750, -0.0546875, -0.0078125, -0.0312500, 0.0078125, 0.0000000, -0.0078125, -0.0156250, 0.0234375, 0.0156250, 0.0156250, 0.0312500, 0.0156250, -0.0156250, 0.0234375, -0.0390625, 0.0390625, -0.0468750, -0.0546875, -0.0078125, 0.0156250, -0.0390625, 0.0390625, 0.0312500, 0.0000000, -0.0546875, 0.0156250, -0.0156250, -0.0078125, 0.0312500, 0.0546875, 0.0312500, 0.0468750, 0.0546875, -0.0078125, 0.0546875, -0.0312500, 0.0312500, 0.0468750, -0.0546875, 0.0390625, -0.0312500, 0.0390625, -0.0156250, -0.0390625, -0.0078125, 0.0156250, 0.0078125, -0.0234375, -0.0078125, -0.0234375, -0.0312500, 0.0312500, -0.0312500, -0.0078125, -0.0546875, 0.0312500, 0.0156250, 0.0000000, -0.0390625, 0.0546875, 0.0156250, -0.0468750, 0.0000000, -0.0546875, 0.0312500, 0.0546875, -0.0156250, -0.0078125, -0.0078125, 0.0312500, 0.0156250, -0.0156250, 0.0312500, 0.0078125, 0.0156250, 0.0078125, 0.0546875, 0.0156250, 0.0000000, -0.0312500, 0.0078125, 0.0390625, -0.0156250, -0.0312500, 0.0468750, 0.0156250, 0.0234375, 0.0312500, -0.0156250, 0.0312500, -0.0156250, 0.0078125, -0.0468750, 0.0312500, 0.0078125, -0.0234375, 0.0390625, -0.0234375, 0.0390625, 0.0078125, 0.0078125, 0.0156250, -0.0390625, -0.0234375, -0.0312500, -0.0468750, 0.0468750, -0.0312500, 0.0078125, 0.0156250, 0.0000000, -0.0468750, 0.0312500, 0.0390625, -0.0156250, -0.0078125, 0.0468750, -0.0468750, 0.0156250, 0.0078125, 0.0000000, 0.0078125, 0.0078125, 0.0156250, 0.0078125, -0.0468750, -0.0390625, -0.0156250, 0.0156250, -0.0312500, -0.0078125, 0.0234375, 0.0390625, 0.0312500, 0.0390625, 0.0000000, -0.0312500, -0.0390625, 0.0312500, 0.0468750, 0.0390625, 0.0078125, 0.0156250, -0.0468750, 0.0390625, 0.0078125, 0.0390625, -0.0312500, -0.0312500, -0.0390625, 0.0390625, -0.0468750, 0.0078125, 0.0078125, 0.0546875, -0.0390625, -0.0390625, -0.0234375, 0.0390625, -0.0078125, -0.0468750, 0.0390625, 0.0156250, 0.0390625, 0.0000000, 0.0234375, -0.0078125, -0.0468750, -0.0156250, -0.0312500, 0.0390625, 0.0390625, -0.0390625, -0.0312500, 0.0078125, -0.0156250, -0.0156250, 0.0156250, -0.0390625, 0.0468750, -0.0234375, -0.0156250, -0.0390625, 0.0468750, 0.0234375, -0.0078125, -0.0234375, -0.0156250, -0.0234375, 0.0312500, 0.0312500, 0.0390625, 0.0312500, 0.0078125, -0.0468750, 0.0390625, 0.0390625, -0.0078125, 0.0312500, -0.0312500, 0.0000000, -0.0156250, 0.0390625, -0.0312500, -0.0156250, -0.0312500, -0.0156250, 0.0312500, -0.0468750, 0.0156250, 0.0234375, -0.0312500, 0.0312500, 0.0156250, -0.0468750, -0.0546875, -0.0546875, 0.0468750, 0.0312500, 0.0000000, -0.0312500, 0.0156250, 0.0156250, 0.0468750, -0.0625000, 0.0078125, -0.0312500, -0.0156250, 0.0000000, -0.0156250, 0.0390625, -0.0234375, -0.0546875, -0.0625000, 0.0234375, -0.0078125, 0.0390625, -0.0390625, -0.0234375, 0.0312500, 0.0312500, -0.0312500, -0.0156250, -0.0390625, 0.0000000, 0.0234375, 0.0312500, 0.0312500, -0.0390625, 0.0156250, -0.0234375, -0.0468750, -0.0390625, 0.0156250, 0.0078125, -0.0312500, -0.0234375, 0.0390625, 0.0000000, 0.0078125, -0.0312500, 0.0156250, -0.0234375, -0.0078125, 0.0078125, -0.0078125, -0.0312500, 0.0468750, -0.0234375, 0.0000000, -0.0078125, 0.0078125, 0.0000000, -0.0546875, -0.0156250, -0.0468750, 0.0234375, 0.0468750, -0.0156250, 0.0390625, 0.0000000, -0.0312500, -0.0234375, -0.0156250, -0.0234375, 0.0390625, -0.0156250, 0.0546875, -0.0234375, 0.0546875, -0.0312500, 0.0312500, -0.0468750, -0.0390625, 0.0468750, 0.0312500, -0.0546875, 0.0234375, 0.0468750, 0.0234375, -0.0312500, -0.0234375, -0.0156250, -0.0156250, 0.0468750, 0.0156250, 0.0234375, 0.0234375, 0.0234375, 0.0390625, -0.0156250, -0.0468750, -0.0234375, -0.0156250, -0.0546875, -0.0390625, 0.0156250, -0.0468750, -0.0312500, 0.0390625, 0.0156250, -0.0390625, -0.0546875, -0.0078125, 0.0312500, -0.0546875, -0.0468750, 0.0000000, 0.0312500, -0.0312500, 0.0078125, -0.0078125, -0.0234375, 0.0312500, -0.0468750, 0.0390625, -0.0234375, -0.0312500, -0.0546875, -0.0156250, -0.0078125, 0.0312500, 0.0156250, 0.0000000, -0.0234375, 0.0000000, -0.0312500, 0.0156250, 0.0234375, -0.0234375, -0.0078125, 0.0156250, -0.0078125, -0.0468750, -0.0234375, 0.0390625, 0.0000000, -0.0234375, 0.0468750, 0.0468750, 0.0000000, -0.0468750, 0.0312500, 0.0156250, -0.0546875, 0.0156250, 0.0390625, 0.0156250, 0.0390625, 0.0156250, 0.0078125, -0.0078125, -0.0234375, 0.0234375, 0.0312500, -0.0156250, -0.0312500, 0.0078125, -0.0234375, 0.0390625, -0.0312500, -0.0312500, -0.0312500, 0.0234375, -0.0546875, -0.0078125, -0.0546875, -0.0312500, -0.0390625, 0.0234375, -0.0546875, -0.0468750, 0.0312500, 0.0312500, -0.0312500, 0.0468750, -0.0390625, 0.0468750, -0.0468750, -0.0156250, 0.0000000, -0.0234375, 0.0000000, -0.0234375, 0.0390625, -0.0078125, 0.0312500, -0.0468750, -0.0390625, 0.0312500, 0.0234375, -0.0312500, 0.0312500, 0.0390625, -0.0312500, 0.0078125, -0.0234375, -0.0078125, -0.0546875, -0.0468750, -0.0468750, 0.0312500, -0.0234375, 0.0078125, 0.0000000, -0.0234375, 0.0078125, -0.0390625, 0.0156250, 0.0078125, -0.0468750, -0.0390625, 0.0078125, -0.0546875, -0.0078125, -0.0390625, -0.0156250, 0.0312500, -0.0468750, 0.0078125, 0.0312500, -0.0234375, -0.0156250, -0.0234375, -0.0312500, -0.0312500, -0.0312500, 0.0390625, 0.0000000, -0.0312500, -0.0312500, 0.0468750, -0.0390625, 0.0078125, 0.0000000, -0.0546875, -0.0312500, -0.0078125, 0.0078125, -0.0234375, 0.0000000, 0.0468750, 0.0390625, -0.0468750, -0.0312500, 0.0234375, 0.0000000, 0.0156250, -0.0312500, -0.0546875, 0.0312500, 0.0156250, -0.0078125, -0.0390625, -0.0546875, 0.0000000, -0.0468750, -0.0390625, -0.0234375, 0.0390625, -0.0234375, 0.0000000, -0.0546875, 0.0468750, 0.0156250, -0.0546875, 0.0156250, 0.0078125, 0.0390625, 0.0078125, -0.0546875, -0.0390625, 0.0156250, -0.0078125, 0.0234375, 0.0078125, 0.0000000, 0.0312500, -0.0546875, -0.0078125, 0.0390625, 0.0468750, -0.0078125, 0.0390625, 0.0000000, 0.0000000, 0.0390625, 0.0000000, 0.0078125, -0.0234375, -0.0156250, 0.0000000, 0.0234375, 0.0234375, -0.0468750, -0.0468750, 0.0156250, 0.0234375, -0.0156250, 0.0312500, 0.0000000, 0.0156250, 0.0312500, -0.0078125, 0.0312500, 0.0468750, -0.0156250, 0.0000000, 0.0312500, -0.0156250, -0.0156250, 0.0234375, -0.0468750, -0.0546875, -0.0468750, 0.0156250, -0.0390625, 0.0078125, -0.0156250, 0.0312500, -0.0234375, 0.0000000, 0.0078125, 0.0234375, -0.0546875, 0.0000000, -0.0625000, 0.0078125, -0.0156250, 0.0390625, -0.0156250, 0.0312500, -0.0312500, -0.0078125, -0.0234375, 0.0468750, -0.0234375, 0.0078125, -0.0312500, -0.0078125, -0.0156250, -0.0468750, 0.0390625, -0.0078125, -0.0078125, 0.0078125, -0.0390625, 0.0234375, 0.0390625, 0.0312500, -0.0312500, 0.0390625, -0.0312500, 0.0234375, -0.0468750, -0.0468750, 0.0312500, 0.0312500, -0.0078125, 0.0000000, -0.0312500, -0.0078125, 0.0234375, -0.0312500, -0.0546875, -0.0078125, 0.0078125, 0.0390625, 0.0156250, 0.0390625, -0.0546875, 0.0390625, 0.0234375, 0.0312500, 0.0000000, 0.0390625, 0.0000000, -0.0234375, -0.0078125, -0.0234375, -0.0156250, 0.0078125, 0.0156250, -0.0468750, -0.0312500, 0.0312500, 0.0078125, -0.0390625, -0.0234375, -0.0312500, -0.0312500, 0.0312500, 0.0000000, -0.0234375, -0.0312500, -0.0156250, 0.0234375, 0.0468750, 0.0078125, -0.0312500, 0.0156250, 0.0468750, -0.0156250, 0.0390625, 0.0156250, -0.0468750, 0.0000000, -0.0156250, -0.0468750, -0.0078125, -0.0078125, 0.0156250, -0.0234375, 0.0234375, -0.0468750, -0.0468750, 0.0234375, -0.0078125, 0.0078125, 0.0390625, -0.0468750, 0.0000000, -0.0546875, 0.0234375, 0.0312500, 0.0000000, 0.0468750, 0.0234375, -0.0468750, 0.0390625, 0.0234375, -0.0312500, 0.0000000, -0.0156250, 0.0468750, 0.0312500, -0.0312500, -0.0312500, 0.0312500, -0.0234375, -0.0546875, -0.0390625, 0.0468750, 0.0234375, 0.0468750, 0.0234375, 0.0546875, 0.0390625, -0.0312500, 0.0234375, 0.0234375, 0.0390625, 0.0078125, 0.0468750, 0.0546875, -0.0078125, -0.0234375, -0.0390625, 0.0390625, -0.0078125, 0.0312500, -0.0234375, 0.0312500, 0.0000000, -0.0234375, -0.0156250, 0.0000000, -0.0078125, 0.0078125, -0.0312500, 0.0546875, 0.0078125, 0.0312500, 0.0234375, 0.0078125, 0.0156250, -0.0390625, 0.0390625, 0.0234375, 0.0312500, 0.0156250, 0.0234375, -0.0312500, -0.0234375, 0.0468750, -0.0156250, 0.0078125, -0.0234375, 0.0156250, 0.0312500, -0.0156250, -0.0156250, 0.0156250, 0.0468750, 0.0390625, -0.0546875, 0.0078125, -0.0078125, -0.0468750, -0.0312500, -0.0468750, 0.0468750, 0.0000000, 0.0156250, 0.0312500, -0.0078125, 0.0390625, -0.0312500, -0.0390625, 0.0234375, -0.0156250, 0.0156250, -0.0156250, 0.0000000, -0.0312500, -0.0234375, 0.0000000, 0.0078125, 0.0156250, 0.0078125, 0.0000000, -0.0390625, 0.0546875, -0.0390625, 0.0078125, 0.0156250, -0.0312500, 0.0546875, 0.0312500, 0.0078125, -0.0156250, 0.0000000, -0.0468750, -0.0234375, -0.0234375, -0.0234375, -0.0078125, -0.0156250, -0.0390625, 0.0234375, -0.0234375, -0.0078125, 0.0312500, -0.0078125, 0.0156250, 0.0312500, 0.0312500, 0.0156250, -0.0546875, -0.0390625, 0.0390625, -0.0312500, -0.0234375, 0.0156250, -0.0312500, -0.0390625, 0.0468750, 0.0078125, -0.0156250, 0.0078125, -0.0468750, -0.0312500, 0.0000000, -0.0390625, -0.0312500, 0.0156250, -0.0156250, -0.0390625, 0.0468750, -0.0312500, -0.0234375, 0.0390625, -0.0234375, -0.0390625, 0.0468750, -0.0156250, 0.0078125, -0.0156250, 0.0312500, -0.0156250, -0.0312500, -0.0078125, 0.0234375, 0.0546875, 0.0468750, 0.0156250, 0.0312500, -0.0312500, 0.0468750, -0.0390625, 0.0546875, 0.0468750, 0.0546875, -0.0312500, -0.0468750, -0.0468750, -0.0468750, -0.0156250, 0.0234375, 0.0156250, -0.0234375, -0.0546875, -0.0312500, -0.0468750, -0.0156250, -0.0156250, 0.0312500, -0.0234375, 0.0078125, -0.0468750, 0.0078125, 0.0390625, 0.0000000, 0.0078125, 0.0156250, 0.0078125, -0.0156250, -0.0078125, 0.0000000, 0.0312500, -0.0390625, 0.0156250, 0.0156250, 0.0234375, 0.0468750, 0.0234375, -0.0390625, -0.0390625, 0.0078125, -0.0078125, 0.0468750, 0.0312500, -0.0468750, 0.0234375, -0.0468750, 0.0000000, 0.0156250, -0.0468750, 0.0000000, 0.0156250, 0.0234375, 0.0234375, -0.0234375, 0.0390625, -0.0234375, -0.0078125, -0.0156250, -0.0546875, -0.0078125, 0.0156250, -0.0156250, -0.0390625, 0.0078125, 0.0390625, 0.0234375, -0.0078125, 0.0390625, 0.0078125, -0.0390625, -0.0468750, -0.0546875, -0.0156250, -0.0468750, -0.0078125, -0.0312500, 0.0390625, -0.0078125, 0.0468750, 0.0468750, 0.0156250, 0.0156250, -0.0078125, 0.0000000, -0.0234375, 0.0234375, 0.0390625, -0.0234375, -0.0234375, 0.0000000, 0.0468750, -0.0546875, -0.0468750, 0.0468750, 0.0312500, -0.0312500, 0.0390625, -0.0156250, -0.0234375, 0.0234375, 0.0234375, 0.0234375, 0.0390625, 0.0156250, 0.0546875, -0.0234375, 0.0234375, 0.0156250, -0.0390625, 0.0078125, 0.0156250, 0.0000000, 0.0234375, -0.0234375, 0.0078125, -0.0234375, -0.0312500, 0.0312500, 0.0468750, 0.0000000, -0.0156250, -0.0390625, -0.0546875, -0.0312500, 0.0390625, -0.0078125, 0.0000000, 0.0078125, 0.0468750, -0.0078125, 0.0000000, 0.0312500, -0.0546875, 0.0468750, -0.0312500, 0.0312500, 0.0312500, 0.0468750, 0.0000000, -0.0234375, 0.0078125, -0.0234375, 0.0468750, -0.0468750, -0.0156250, 0.0234375, -0.0312500, -0.0078125, -0.0078125, -0.0078125, -0.0156250, 0.0000000, -0.0546875, 0.0156250, -0.0156250, -0.0390625, -0.0156250, 0.0312500, 0.0468750, 0.0312500, -0.0390625, -0.0312500, 0.0390625, -0.0156250, 0.0078125, -0.0468750, -0.0234375, -0.0312500, 0.0468750, 0.0078125, 0.0312500, -0.0546875, 0.0078125, -0.0390625, 0.0234375, -0.0078125, -0.0312500, -0.0312500, 0.0156250, 0.0078125, -0.0078125, -0.0234375, -0.0468750, 0.0468750, 0.0468750, -0.0312500, 0.0000000, -0.0156250, -0.0078125, 0.0078125, 0.0234375, 0.0312500, -0.0234375, 0.0390625, -0.0234375, -0.0468750, 0.0000000, 0.0234375, 0.0468750, -0.0390625, -0.0078125, 0.0312500, -0.0390625, 0.0078125, -0.0468750, 0.0468750, -0.0312500, -0.0312500, -0.0468750, -0.0234375, 0.0000000, 0.0078125, -0.0156250, 0.0000000, -0.0078125, -0.0078125, -0.0078125, -0.0156250, 0.0156250, -0.0468750, 0.0390625, -0.0468750, -0.0546875, -0.0312500, -0.0078125, 0.0078125, 0.0156250, -0.0078125, -0.0390625, -0.0546875, 0.0000000, 0.0078125, -0.0390625, 0.0468750, 0.0546875, -0.0156250, 0.0234375, 0.0390625, -0.0234375, -0.0390625, -0.0468750, 0.0078125, 0.0468750, 0.0078125, 0.0312500, 0.0390625, 0.0234375, -0.0078125, 0.0468750, 0.0312500, -0.0312500, 0.0078125, -0.0468750, 0.0468750, 0.0000000, -0.0156250, -0.0312500, -0.0078125, 0.0312500, -0.0078125, 0.0390625, -0.0546875, -0.0468750, 0.0312500, 0.0390625, 0.0390625, 0.0468750, 0.0546875, 0.0234375, 0.0156250, 0.0468750, 0.0468750, -0.0078125, 0.0156250, 0.0234375, 0.0546875, -0.0468750, -0.0312500, 0.0390625, 0.0156250, 0.0468750, 0.0000000, -0.0156250, 0.0078125, -0.0546875, 0.0000000, 0.0156250, -0.0156250, -0.0312500, 0.0156250, -0.0312500, 0.0312500, -0.0234375, -0.0546875, 0.0390625, 0.0234375, -0.0078125, 0.0234375, -0.0468750, 0.0390625, 0.0312500, -0.0390625, -0.0234375, 0.0390625, -0.0234375, -0.0156250, 0.0312500, -0.0312500, -0.0312500, -0.0078125, -0.0390625, 0.0390625, 0.0078125, -0.0078125, -0.0078125, -0.0390625, -0.0546875, -0.0546875, -0.0468750, -0.0312500, -0.0078125, 0.0546875, -0.0234375, 0.0000000, -0.0078125, -0.0156250, 0.0312500, -0.0390625, -0.0234375, -0.0156250, 0.0000000, -0.0546875, 0.0390625, -0.0078125, 0.0078125, 0.0390625, 0.0468750, -0.0156250, 0.0390625, 0.0312500, 0.0312500, -0.0078125, -0.0390625, -0.0546875, -0.0390625, 0.0468750, 0.0000000, 0.0390625, -0.0468750, -0.0546875, 0.0546875, -0.0390625, -0.0234375, 0.0000000, 0.0000000, 0.0234375, 0.0078125, -0.0156250, 0.0156250, -0.0078125, -0.0546875, -0.0156250, 0.0234375, 0.0234375, 0.0156250, 0.0078125, -0.0390625, -0.0156250, -0.0312500, -0.0078125, -0.0390625, -0.0390625, 0.0312500, 0.0078125, -0.0312500, -0.0312500, -0.0156250, -0.0234375, -0.0546875, -0.0156250, 0.0390625, -0.0312500, 0.0468750, -0.0390625, -0.0078125, 0.0000000, 0.0234375, 0.0312500, -0.0156250, -0.0312500, 0.0234375, 0.0000000, 0.0312500, 0.0234375, 0.0078125, 0.0468750, -0.0234375, 0.0156250, -0.0078125, 0.0390625, -0.0234375, -0.0312500, 0.0234375, -0.0546875, 0.0390625, -0.0468750, -0.0390625, -0.0078125, 0.0390625, -0.0468750, 0.0000000, -0.0078125, -0.0078125, 0.0234375, -0.0078125, 0.0000000, 0.0156250, 0.0234375, -0.0156250, -0.0468750, -0.0625000, -0.0312500, -0.0078125, -0.0546875, -0.0078125, 0.0390625, -0.0390625, 0.0156250, 0.0390625, -0.0546875, 0.0000000, 0.0468750, -0.0078125, 0.0468750, 0.0078125, 0.0468750, 0.0000000, 0.0078125, 0.0546875, -0.0312500, 0.0312500, -0.0156250, 0.0390625, -0.0312500, 0.0390625, 0.0234375, 0.0312500, -0.0156250, -0.0312500, -0.0468750, -0.0390625, -0.0234375, 0.0000000, -0.0312500, -0.0468750, -0.0156250, 0.0000000, -0.0078125, -0.0546875, -0.0078125, 0.0468750, -0.0546875, 0.0156250, 0.0234375, 0.0312500, -0.0390625, -0.0078125, 0.0312500, -0.0546875, 0.0078125, -0.0312500, 0.0390625, -0.0078125, 0.0000000, -0.0312500, 0.0546875, -0.0546875, 0.0390625, -0.0468750, 0.0390625, -0.0234375, 0.0156250, -0.0468750, -0.0468750, 0.0078125, 0.0156250, 0.0468750, 0.0312500, -0.0390625, -0.0390625, 0.0156250, 0.0156250, 0.0390625, 0.0312500, -0.0234375, -0.0234375, -0.0078125, -0.0156250, 0.0312500, -0.0156250, -0.0312500, -0.0468750, 0.0156250, -0.0390625, 0.0156250, -0.0156250, 0.0390625, -0.0468750, -0.0156250, -0.0390625, -0.0390625, 0.0312500, 0.0234375, 0.0234375, -0.0078125, -0.0468750, -0.0468750, -0.0390625, -0.0078125, -0.0234375, 0.0390625, -0.0468750, -0.0468750, 0.0000000, -0.0156250, -0.0078125, 0.0234375, 0.0234375, 0.0078125, 0.0156250, -0.0546875, -0.0312500, -0.0156250, 0.0312500, -0.0468750, -0.0078125, -0.0312500, 0.0234375, -0.0234375, -0.0234375, 0.0468750, -0.0156250, -0.0156250, 0.0078125, 0.0390625, -0.0078125, 0.0078125, 0.0156250, -0.0390625, -0.0078125, 0.0390625, -0.0312500, 0.0156250, 0.0468750, -0.0312500, 0.0078125, 0.0312500, 0.0156250, 0.0156250, -0.0546875, -0.0468750, 0.0156250, -0.0234375, 0.0234375, -0.0234375, 0.0468750, -0.0312500, -0.0234375, 0.0546875, 0.0078125, -0.0156250, -0.0390625, 0.0312500, 0.0000000, 0.0156250, -0.0234375, 0.0078125, -0.0234375, 0.0078125, 0.0000000, -0.0234375, 0.0468750, 0.0078125, -0.0078125, -0.0312500, 0.0468750, -0.0078125, -0.0546875, -0.0468750, -0.0156250, -0.0156250, -0.0468750, 0.0390625, 0.0156250, -0.0156250, 0.0234375, 0.0078125, 0.0078125, 0.0234375, -0.0078125, -0.0234375, -0.0312500, 0.0546875, -0.0390625, 0.0000000, -0.0468750, 0.0156250, 0.0156250, 0.0234375, 0.0234375, -0.0312500, 0.0390625, 0.0156250, 0.0156250, -0.0468750, 0.0390625, 0.0468750, -0.0312500, 0.0000000, 0.0468750, 0.0000000, -0.0468750, -0.0156250, -0.0312500, -0.0156250, 0.0468750, 0.0312500, -0.0312500, -0.0312500, -0.0546875, -0.0468750, -0.0156250, -0.0156250, -0.0468750, 0.0156250, 0.0156250, 0.0156250, -0.0625000, 0.0390625, -0.0390625, -0.0078125, -0.0234375, -0.0156250, -0.0234375, 0.0312500, -0.0234375, -0.0234375, -0.0546875, 0.0156250, -0.0234375, 0.0078125, 0.0468750, 0.0312500, 0.0390625, 0.0234375, -0.0156250, 0.0078125, 0.0156250, 0.0000000, -0.0390625, -0.0546875, -0.0156250, -0.0468750, -0.0312500, -0.0078125, -0.0234375, 0.0156250, -0.0390625, 0.0078125, 0.0156250, -0.0312500, -0.0078125, -0.0234375, -0.0078125, 0.0078125, -0.0234375, 0.0468750, 0.0468750, -0.0156250, -0.0468750, 0.0234375, 0.0234375, 0.0390625, 0.0078125, 0.0312500, 0.0156250, -0.0468750, 0.0312500, 0.0390625, -0.0546875, -0.0078125, -0.0156250, -0.0234375, -0.0234375, -0.0156250, -0.0546875, -0.0468750, -0.0078125, -0.0468750, -0.0390625, 0.0234375, 0.0000000, 0.0390625, -0.0546875, 0.0312500, -0.0156250, 0.0078125, 0.0468750, -0.0546875, -0.0546875, 0.0312500, -0.0390625, -0.0390625, 0.0156250, 0.0156250, 0.0234375, -0.0312500, -0.0546875, 0.0390625, -0.0312500, 0.0468750, -0.0234375, 0.0468750, -0.0234375, 0.0234375, -0.0156250, -0.0234375, -0.0078125, -0.0156250, 0.0078125, 0.0468750, -0.0546875, 0.0078125, -0.0390625, -0.0078125, 0.0312500, -0.0078125, -0.0156250, 0.0000000, -0.0390625, -0.0156250, -0.0312500, -0.0468750, 0.0468750, -0.0390625, 0.0156250, 0.0000000, 0.0000000, 0.0000000, 0.0234375, 0.0390625, -0.0390625, 0.0000000, -0.0390625, 0.0000000, 0.0390625, -0.0390625, 0.0312500, -0.0390625, -0.0312500, 0.0312500, 0.0078125, -0.0078125, -0.0234375, 0.0234375, -0.0078125, -0.0468750, -0.0078125, 0.0000000, -0.0468750, -0.0468750, -0.0078125, -0.0234375, 0.0390625, 0.0468750, 0.0312500, 0.0234375, -0.0078125, 0.0234375, -0.0156250, 0.0468750, 0.0234375, 0.0234375, 0.0078125, 0.0156250, -0.0234375, -0.0546875, -0.0312500, 0.0000000, 0.0234375, -0.0390625, 0.0000000, 0.0000000, -0.0390625, 0.0312500, 0.0156250, 0.0390625, 0.0312500, 0.0234375, -0.0390625, -0.0312500, 0.0390625, -0.0078125, -0.0546875, -0.0546875, 0.0000000, 0.0234375, 0.0390625, -0.0078125, 0.0390625, -0.0468750, -0.0078125, 0.0234375, -0.0156250, 0.0390625, -0.0156250, 0.0000000, -0.0234375, -0.0078125, 0.0000000, 0.0390625, 0.0000000, 0.0234375, -0.0390625, -0.0468750, 0.0468750, -0.0234375, 0.0312500, 0.0078125, 0.0390625, -0.0156250, -0.0156250, -0.0156250, -0.0312500, 0.0078125, 0.0468750, 0.0312500, -0.0078125, 0.0234375, 0.0078125, -0.0468750, 0.0234375, 0.0156250, -0.0390625, 0.0390625, 0.0156250, -0.0234375, 0.0078125, 0.0312500, -0.0234375, -0.0468750, 0.0312500, 0.0390625, -0.0312500, 0.0468750, -0.0390625, -0.0234375, 0.0390625, -0.0312500, 0.0390625, 0.0078125, -0.0625000, 0.0000000, 0.0312500, 0.0156250, 0.0390625, 0.0312500, 0.0312500, -0.0234375, -0.0390625, 0.0156250, 0.0468750, -0.0312500, -0.0078125, -0.0390625, -0.0468750, -0.0312500, -0.0234375, -0.0234375, -0.0156250, 0.0390625, 0.0234375, -0.0078125, -0.0156250, 0.0234375, 0.0312500, 0.0468750, 0.0078125, -0.0468750, -0.0078125, -0.0468750, 0.0156250, 0.0078125, -0.0078125, -0.0312500, 0.0546875, -0.0234375, 0.0156250, 0.0468750, -0.0156250, 0.0156250, -0.0312500, 0.0156250, 0.0078125, 0.0078125, 0.0156250, -0.0468750, -0.0468750, 0.0078125, 0.0390625, 0.0156250, 0.0234375, 0.0390625, 0.0000000, -0.0546875, 0.0078125, 0.0000000, -0.0546875, 0.0312500, 0.0312500, 0.0468750, 0.0234375, -0.0390625, 0.0312500, 0.0078125, -0.0625000, 0.0234375, -0.0390625, 0.0234375, -0.0390625, -0.0234375, -0.0390625, -0.0312500, 0.0156250, 0.0390625, -0.0156250, -0.0078125, -0.0468750, 0.0234375, -0.0468750, -0.0078125, 0.0000000, -0.0546875, 0.0234375, -0.0156250, 0.0312500, 0.0078125, -0.0156250, 0.0234375, -0.0078125, -0.0156250, -0.0468750, -0.0156250, -0.0234375, -0.0312500, 0.0468750, -0.0156250, -0.0234375, -0.0468750, 0.0156250, 0.0078125, 0.0000000, 0.0312500, 0.0390625, 0.0312500, 0.0312500, 0.0000000, 0.0312500, 0.0078125, -0.0156250, -0.0234375, 0.0078125, -0.0312500, -0.0312500, 0.0156250, 0.0000000, 0.0468750, -0.0234375, -0.0468750, 0.0312500, 0.0468750, 0.0312500, 0.0078125, 0.0000000, 0.0156250, -0.0156250, -0.0312500, 0.0546875, 0.0156250, 0.0234375, 0.0468750, -0.0468750, -0.0312500, -0.0312500, -0.0468750, 0.0156250, -0.0156250, 0.0000000, -0.0468750, -0.0234375, 0.0234375, 0.0468750, -0.0078125, -0.0234375, 0.0000000, -0.0312500, 0.0234375, 0.0078125, -0.0078125, -0.0390625, -0.0390625, 0.0312500, 0.0000000, 0.0312500, -0.0078125, -0.0078125, -0.0468750, 0.0000000, 0.0156250, -0.0468750, -0.0078125, 0.0390625, 0.0000000, -0.0546875, 0.0468750, -0.0078125, -0.0234375, 0.0468750, 0.0234375, -0.0156250, -0.0312500, 0.0156250, 0.0390625, -0.0312500, 0.0156250, -0.0156250, -0.0546875, -0.0390625, -0.0312500, -0.0078125, -0.0390625, -0.0078125, -0.0156250, -0.0546875, 0.0234375, 0.0234375, 0.0468750, 0.0234375, -0.0312500, -0.0312500, 0.0078125, -0.0546875, 0.0390625, -0.0234375, -0.0234375, 0.0156250, 0.0390625, 0.0312500, 0.0390625, -0.0390625, -0.0546875, -0.0078125, -0.0156250, 0.0234375, 0.0312500, -0.0234375, 0.0234375, -0.0234375, -0.0546875, -0.0234375, 0.0000000, -0.0078125, -0.0390625, -0.0546875, -0.0390625, -0.0468750, -0.0390625, -0.0390625, -0.0312500, -0.0234375, 0.0078125, -0.0156250, -0.0546875, 0.0312500, -0.0156250, -0.0156250, 0.0000000, 0.0234375, 0.0312500, -0.0468750, 0.0156250, 0.0468750, -0.0156250, -0.0234375, -0.0234375, -0.0078125, -0.0390625, 0.0390625, -0.0078125, -0.0156250, -0.0156250, -0.0234375, 0.0078125, -0.0156250, 0.0000000, -0.0234375, 0.0234375, 0.0312500, 0.0156250, 0.0468750, 0.0312500, -0.0078125, -0.0234375, 0.0078125, 0.0234375, -0.0078125, 0.0312500, -0.0312500, 0.0000000, 0.0468750, 0.0078125, 0.0156250, -0.0468750, -0.0156250, 0.0234375, -0.0156250, -0.0468750, 0.0234375, -0.0468750, 0.0234375, -0.0312500, -0.0312500, -0.0468750, -0.0625000, -0.0156250, -0.0390625, 0.0156250, 0.0468750, 0.0156250, 0.0078125, 0.0000000, 0.0000000, -0.0078125, 0.0234375, -0.0390625, -0.0312500, 0.0156250, 0.0000000, 0.0078125, 0.0000000, 0.0468750, -0.0390625, 0.0312500, -0.0390625, -0.0390625, -0.0234375, 0.0468750, 0.0000000, -0.0390625, 0.0156250, -0.0312500, 0.0390625, 0.0546875, -0.0312500, 0.0468750, -0.0078125, -0.0546875, -0.0078125, -0.0078125, -0.0390625, 0.0234375, 0.0234375, -0.0468750, 0.0234375, 0.0156250, -0.0468750, -0.0078125, -0.0468750, -0.0390625, 0.0234375, 0.0390625, 0.0312500, 0.0000000, -0.0312500, -0.0312500, 0.0390625, -0.0078125, 0.0468750, 0.0546875, -0.0312500, -0.0234375, 0.0312500, 0.0234375, 0.0312500, -0.0156250, -0.0468750, 0.0156250, 0.0390625, -0.0468750, -0.0546875, -0.0156250, 0.0312500, -0.0625000, -0.0078125, -0.0312500, 0.0078125, -0.0234375, 0.0000000, -0.0312500, -0.0390625, -0.0312500, -0.0156250, -0.0390625, -0.0078125, -0.0312500, -0.0156250, -0.0468750, 0.0078125, -0.0390625, 0.0390625, 0.0156250, -0.0078125, 0.0234375, -0.0312500, -0.0312500, -0.0390625, 0.0468750, 0.0234375, -0.0390625, 0.0468750, 0.0468750, 0.0156250, -0.0078125, 0.0078125, -0.0234375, -0.0234375, 0.0468750, -0.0156250, 0.0312500, 0.0078125, -0.0468750, 0.0234375, -0.0390625, 0.0078125, 0.0312500, -0.0156250, 0.0468750, -0.0234375, 0.0156250, -0.0468750, 0.0156250, -0.0312500, -0.0234375, 0.0234375, -0.0078125, 0.0312500, 0.0468750, 0.0234375, -0.0312500, -0.0234375, -0.0390625, -0.0468750, -0.0234375, 0.0234375, -0.0078125, -0.0234375, 0.0000000, 0.0312500, -0.0312500, 0.0390625, -0.0468750, 0.0468750, 0.0468750, 0.0000000, 0.0390625, 0.0546875, 0.0390625, 0.0156250, 0.0000000, 0.0000000, -0.0234375, -0.0468750, 0.0234375, -0.0156250, -0.0468750, -0.0156250, -0.0390625, 0.0312500, 0.0078125, 0.0000000, 0.0156250, 0.0546875, 0.0078125, -0.0546875, 0.0000000, 0.0312500, -0.0156250, -0.0234375, -0.0312500, -0.0390625, 0.0156250, -0.0468750, 0.0390625, -0.0546875, 0.0312500, -0.0546875, 0.0156250, 0.0234375, 0.0468750, -0.0546875, 0.0078125, -0.0390625, 0.0234375, -0.0468750, 0.0546875, -0.0468750, -0.0390625, 0.0234375, -0.0078125, -0.0546875, -0.0390625, 0.0390625, 0.0078125, 0.0078125, -0.0390625, 0.0390625, -0.0078125, -0.0468750, 0.0312500, 0.0000000, 0.0468750, -0.0312500, -0.0546875, -0.0078125, 0.0000000, 0.0312500, -0.0078125, -0.0234375, 0.0000000, 0.0234375, 0.0390625, -0.0156250, -0.0156250, 0.0234375, -0.0468750, -0.0546875, 0.0390625, 0.0390625, 0.0078125, 0.0000000, -0.0078125, 0.0390625, 0.0234375, -0.0312500, -0.0390625, -0.0156250, 0.0468750, 0.0078125, 0.0234375, 0.0000000, -0.0156250, -0.0078125, -0.0468750, -0.0078125, 0.0156250, -0.0468750, 0.0078125, 0.0234375, -0.0390625, -0.0156250, 0.0000000, 0.0078125, -0.0312500, 0.0078125, 0.0468750, 0.0390625, -0.0234375, 0.0390625, 0.0390625, 0.0156250, 0.0078125, -0.0234375, -0.0234375, -0.0312500, 0.0390625, -0.0546875, 0.0468750, -0.0390625, -0.0312500, 0.0000000, 0.0000000, 0.0078125, -0.0390625, -0.0390625, 0.0312500, -0.0156250, -0.0156250, -0.0390625, 0.0078125, 0.0156250, -0.0390625, -0.0312500, 0.0234375, 0.0078125, 0.0156250, -0.0078125, -0.0390625, 0.0156250, -0.0234375, -0.0390625, 0.0078125, 0.0390625, -0.0234375, -0.0156250, 0.0156250, 0.0156250, -0.0546875, -0.0312500, -0.0156250, 0.0312500, -0.0546875, -0.0078125, 0.0390625, -0.0546875, 0.0156250, -0.0468750, -0.0390625, 0.0234375, 0.0312500, -0.0312500, 0.0468750, 0.0390625, -0.0234375, -0.0390625, -0.0546875, 0.0000000, -0.0390625, -0.0546875, 0.0390625, -0.0234375, 0.0390625, -0.0468750, -0.0078125, 0.0078125, 0.0234375, 0.0078125, -0.0156250, -0.0156250, -0.0312500, -0.0078125, 0.0156250, -0.0546875, -0.0078125, -0.0546875, -0.0078125, -0.0390625, -0.0078125, 0.0078125, -0.0234375, -0.0078125, 0.0312500, -0.0468750, -0.0078125, 0.0312500, -0.0390625, -0.0468750, -0.0078125, -0.0390625, 0.0390625, -0.0312500, 0.0078125, 0.0156250, -0.0468750, 0.0312500, -0.0546875, -0.0078125, 0.0390625, 0.0468750, -0.0078125, 0.0312500, -0.0156250, -0.0468750, 0.0156250, 0.0234375, -0.0312500, -0.0625000, 0.0234375, -0.0390625, -0.0312500, -0.0234375, 0.0156250, 0.0390625, 0.0078125, 0.0000000, 0.0156250, -0.0156250, -0.0078125, -0.0234375, 0.0234375, -0.0078125, -0.0468750, 0.0312500, 0.0156250, -0.0312500, -0.0468750, -0.0468750, 0.0234375, 0.0000000, 0.0390625, -0.0390625, 0.0078125, -0.0312500, 0.0156250, -0.0390625, 0.0000000, -0.0468750, -0.0468750, 0.0390625, -0.0156250, 0.0312500, 0.0468750, -0.0078125, 0.0390625, 0.0468750, 0.0078125, -0.0468750, -0.0234375, 0.0234375, -0.0234375, -0.0078125, 0.0468750, -0.0234375, 0.0234375, -0.0546875, -0.0390625, 0.0546875, 0.0312500, 0.0312500, -0.0156250, 0.0078125, 0.0468750, -0.0156250, -0.0234375, 0.0156250, 0.0234375, 0.0546875, 0.0078125, -0.0312500, -0.0312500, 0.0000000, -0.0468750, 0.0078125, -0.0234375, -0.0078125, 0.0078125, 0.0078125, -0.0468750, -0.0546875, 0.0078125, 0.0000000, 0.0156250, -0.0156250, 0.0000000, -0.0156250, -0.0312500, -0.0546875, -0.0078125, -0.0390625, -0.0468750, 0.0078125, 0.0156250, 0.0546875, -0.0546875, 0.0078125, 0.0312500, -0.0468750, -0.0390625, -0.0312500, -0.0156250, 0.0156250, 0.0078125, 0.0156250, -0.0390625, -0.0390625, -0.0156250, -0.0234375, -0.0390625, 0.0468750, -0.0234375, 0.0546875, -0.0468750, 0.0390625, 0.0234375, 0.0546875, -0.0156250, -0.0390625, -0.0390625, 0.0078125, 0.0546875, -0.0468750, 0.0312500, 0.0000000, 0.0078125, 0.0312500, -0.0390625, 0.0234375, 0.0078125, 0.0000000, -0.0234375, 0.0000000, -0.0156250, -0.0078125, 0.0546875, 0.0312500, 0.0078125, -0.0546875, 0.0312500, -0.0390625, -0.0234375, -0.0468750, 0.0156250, 0.0312500, 0.0000000, -0.0078125, 0.0546875, 0.0078125, 0.0546875, -0.0078125, 0.0312500, -0.0078125, -0.0234375, -0.0546875, 0.0390625, -0.0078125, -0.0390625, -0.0234375, -0.0312500, 0.0000000, 0.0312500, 0.0000000, -0.0234375, 0.0156250, -0.0312500, 0.0312500, 0.0468750, 0.0312500, -0.0234375, -0.0156250, -0.0078125, -0.0546875, -0.0390625, -0.0390625, 0.0156250, -0.0546875, 0.0312500, 0.0000000, 0.0000000, 0.0468750, 0.0156250, 0.0000000, -0.0234375, -0.0234375, -0.0390625, -0.0156250, -0.0312500, -0.0468750, -0.0546875, 0.0156250, 0.0312500, -0.0546875, 0.0000000, -0.0078125, -0.0468750, -0.0468750, -0.0156250, -0.0390625, -0.0078125, 0.0000000, 0.0156250, -0.0468750, -0.0468750, 0.0156250, 0.0312500, 0.0078125, -0.0156250, -0.0546875, -0.0234375, -0.0312500, 0.0312500, 0.0234375, -0.0468750, -0.0078125, -0.0078125, -0.0234375, 0.0000000, -0.0078125, 0.0390625, -0.0468750, -0.0546875, -0.0234375, 0.0234375, 0.0312500, 0.0156250, -0.0390625, 0.0468750, -0.0078125, -0.0390625, -0.0312500, -0.0390625, -0.0078125, -0.0312500, 0.0156250, -0.0390625, -0.0234375, -0.0234375, 0.0468750, -0.0546875, 0.0390625, 0.0000000, -0.0312500, 0.0234375, 0.0156250, 0.0468750, 0.0312500, -0.0390625, -0.0468750, 0.0468750, -0.0234375, -0.0468750, 0.0000000, 0.0390625, 0.0546875, 0.0390625, 0.0390625, -0.0390625, 0.0000000, 0.0390625, 0.0625000, -0.0312500, 0.0156250, 0.0234375, -0.0468750, 0.0390625, 0.0234375, -0.0468750, -0.0078125, -0.0234375, 0.0000000, -0.0312500, -0.0078125, 0.0312500, 0.0468750, 0.0156250, 0.0156250, -0.0468750, 0.0078125, -0.0234375, -0.0234375, 0.0546875, 0.0234375, 0.0312500, 0.0234375, 0.0312500, 0.0078125, 0.0000000, 0.0078125, 0.0468750, 0.0546875, -0.0390625, 0.0468750, -0.0468750, 0.0390625, -0.0546875, -0.0078125, 0.0234375, 0.0390625, 0.0468750, 0.0468750, -0.0546875, 0.0390625, -0.0546875, -0.0546875, -0.0546875, 0.0156250, -0.0078125, 0.0468750, -0.0546875, 0.0312500, 0.0234375, -0.0468750, 0.0234375, -0.0078125, -0.0312500, 0.0078125, 0.0000000, 0.0156250, 0.0156250, 0.0234375, 0.0234375, -0.0390625, 0.0234375, 0.0312500, -0.0468750, -0.0078125, 0.0078125, 0.0000000, -0.0078125, -0.0234375, -0.0390625, 0.0390625, 0.0390625, 0.0468750, 0.0390625, -0.0546875, 0.0234375, 0.0312500, 0.0000000, 0.0468750, 0.0000000, -0.0546875, 0.0234375, -0.0390625, -0.0390625, -0.0468750, 0.0156250, 0.0000000, -0.0312500, 0.0156250, -0.0234375, -0.0546875, 0.0078125, 0.0234375, 0.0390625, -0.0234375, 0.0234375, -0.0312500, -0.0312500, -0.0078125, 0.0312500, -0.0312500, -0.0156250, -0.0312500, 0.0390625, 0.0234375, -0.0234375, 0.0078125, 0.0156250, 0.0468750, 0.0000000, 0.0234375, -0.0312500, -0.0390625, 0.0234375, 0.0078125, -0.0312500, -0.0156250, 0.0312500, -0.0546875, 0.0156250, 0.0234375, 0.0312500, -0.0078125, -0.0234375, -0.0234375, -0.0078125, -0.0312500, -0.0312500, 0.0156250, 0.0234375, 0.0312500, -0.0546875, 0.0390625, 0.0234375, 0.0468750, 0.0078125, 0.0156250, 0.0234375, -0.0234375, 0.0546875, -0.0546875, 0.0468750, -0.0156250, 0.0000000, 0.0390625, 0.0156250, 0.0234375, -0.0546875, -0.0390625, 0.0078125, 0.0000000, -0.0546875, 0.0156250, 0.0312500, -0.0390625, -0.0234375, 0.0312500, -0.0234375, -0.0546875, 0.0234375, -0.0468750, -0.0312500, 0.0468750, -0.0078125, -0.0312500, 0.0234375, -0.0390625, 0.0234375, 0.0546875, -0.0234375, 0.0078125, -0.0390625, 0.0000000, 0.0078125, -0.0390625, 0.0390625, 0.0312500, -0.0390625, 0.0468750, 0.0234375, -0.0156250, -0.0234375, -0.0390625, 0.0078125, 0.0312500, -0.0078125, 0.0312500, 0.0000000, -0.0312500, 0.0234375, 0.0000000, -0.0468750, 0.0234375, -0.0234375, 0.0234375, 0.0078125, 0.0390625, 0.0000000, -0.0546875, 0.0000000, -0.0156250, -0.0546875, -0.0156250, -0.0390625, -0.0390625, -0.0312500, 0.0078125, 0.0000000, 0.0234375, -0.0078125, -0.0156250, -0.0234375, 0.0078125, -0.0156250, 0.0078125, 0.0468750, -0.0156250, -0.0468750, -0.0078125, -0.0546875, 0.0156250, 0.0234375, 0.0156250, 0.0078125, -0.0390625, 0.0156250, 0.0000000, 0.0312500, -0.0078125, 0.0078125, 0.0312500, 0.0078125, 0.0234375, -0.0390625, 0.0390625, -0.0234375, 0.0234375, -0.0156250, 0.0468750, -0.0234375, -0.0468750, 0.0156250, 0.0468750, -0.0156250, 0.0078125, -0.0546875, 0.0234375, 0.0156250, -0.0390625, -0.0156250, 0.0312500, 0.0234375, -0.0546875, 0.0390625, -0.0390625, -0.0390625, -0.0234375, 0.0234375, 0.0000000, -0.0312500, 0.0234375, -0.0546875, -0.0312500, 0.0000000, -0.0468750, -0.0546875, -0.0156250, -0.0312500, -0.0078125, 0.0468750, 0.0156250, 0.0156250, -0.0390625, -0.0546875, 0.0312500, 0.0078125, 0.0312500, -0.0312500, 0.0156250, -0.0234375, 0.0156250, -0.0156250, -0.0156250, -0.0468750, -0.0390625, 0.0312500, 0.0078125, 0.0468750, 0.0312500, 0.0312500, -0.0234375, 0.0468750, 0.0156250, -0.0234375, -0.0156250, 0.0312500, 0.0156250, -0.0312500, 0.0390625, -0.0390625, -0.0546875, 0.0156250, -0.0156250, -0.0312500, 0.0390625, 0.0312500, 0.0312500, 0.0390625, -0.0546875, 0.0078125, 0.0156250, -0.0468750, -0.0468750, -0.0468750, -0.0234375, -0.0312500, -0.0234375, 0.0234375, 0.0078125, 0.0312500, 0.0312500, 0.0156250, -0.0312500, 0.0156250, -0.0156250, -0.0078125, -0.0234375, -0.0156250, 0.0078125, -0.0156250, 0.0156250, -0.0078125, 0.0312500, -0.0234375, 0.0468750, 0.0000000, 0.0468750, 0.0390625, -0.0234375, -0.0390625, 0.0312500, 0.0156250, -0.0312500, -0.0390625, 0.0000000, -0.0234375, 0.0312500, 0.0078125, 0.0312500, -0.0468750, -0.0234375, 0.0078125, -0.0390625, 0.0312500, 0.0078125, 0.0000000, -0.0468750, 0.0078125, -0.0546875, -0.0312500, 0.0156250, 0.0390625, 0.0234375, -0.0312500, 0.0078125, -0.0234375, 0.0468750, -0.0078125, -0.0156250, -0.0468750, 0.0000000, -0.0312500, -0.0078125, 0.0468750, 0.0468750, -0.0468750, 0.0156250, -0.0078125, 0.0468750, -0.0468750, -0.0312500, 0.0312500, -0.0312500, 0.0468750, 0.0468750, 0.0000000, -0.0078125, -0.0468750, -0.0312500, 0.0546875, -0.0468750, -0.0390625, 0.0156250, 0.0078125, -0.0078125, 0.0000000, 0.0000000, -0.0078125, 0.0468750, -0.0078125, 0.0000000, -0.0078125, -0.0078125, 0.0468750, -0.0234375, 0.0468750, 0.0000000, -0.0468750, -0.0156250, 0.0468750, 0.0156250, 0.0078125, 0.0078125, 0.0000000, -0.0312500, -0.0312500, -0.0312500, -0.0312500, 0.0156250, -0.0234375, -0.0390625, 0.0000000, 0.0312500, -0.0156250, -0.0156250, 0.0390625, 0.0234375, -0.0156250, -0.0390625, -0.0468750, 0.0625000, 0.0234375, -0.0468750, -0.0468750, -0.0625000, 0.0000000, -0.0546875, 0.0468750, 0.0390625, 0.0234375, 0.0468750, -0.0234375, -0.0390625, -0.0234375, 0.0234375, 0.0000000, 0.0078125, -0.0156250, 0.0234375, -0.0390625, -0.0078125, 0.0234375, -0.0390625, 0.0156250, 0.0312500, 0.0156250, -0.0078125, 0.0468750, 0.0468750, 0.0156250, 0.0468750, 0.0156250, 0.0078125, 0.0156250, -0.0234375, 0.0390625, -0.0468750, -0.0312500, 0.0078125, -0.0468750, -0.0390625, -0.0468750, -0.0312500, -0.0156250, 0.0000000, -0.0078125, 0.0312500, 0.0312500, 0.0468750, 0.0312500, 0.0546875, -0.0468750, -0.0390625, -0.0156250, 0.0156250, -0.0312500, 0.0390625, -0.0156250, 0.0234375, -0.0390625, -0.0546875, -0.0546875, -0.0156250, -0.0078125, 0.0156250, 0.0156250, 0.0156250, 0.0156250, 0.0234375, -0.0078125, -0.0156250, -0.0078125, 0.0468750, -0.0312500, -0.0312500, 0.0000000, 0.0078125, -0.0156250, -0.0078125, -0.0078125, 0.0312500, -0.0156250, -0.0156250, -0.0234375, -0.0234375, 0.0390625, 0.0000000, 0.0234375, 0.0000000, 0.0390625, 0.0234375, 0.0468750, 0.0312500, 0.0390625, -0.0078125, -0.0156250, 0.0546875, 0.0078125, -0.0156250, 0.0312500, -0.0078125, -0.0312500, 0.0312500, 0.0234375, -0.0234375, 0.0546875, 0.0312500, -0.0468750, -0.0312500, 0.0078125, -0.0234375, -0.0078125, 0.0546875, 0.0156250, 0.0546875, 0.0156250, 0.0078125, 0.0312500, 0.0546875, -0.0234375, 0.0234375, -0.0468750, 0.0156250, -0.0390625, -0.0078125, 0.0078125, 0.0312500, -0.0390625, -0.0078125, -0.0078125, 0.0468750, 0.0468750, 0.0000000, -0.0078125, -0.0078125, -0.0546875, 0.0312500, -0.0156250, 0.0468750, -0.0468750, -0.0390625, -0.0234375, 0.0390625, 0.0312500, 0.0078125, 0.0468750, 0.0156250, 0.0312500, -0.0156250, -0.0234375, -0.0546875, -0.0468750, -0.0156250, -0.0078125, 0.0546875, 0.0390625, -0.0078125, 0.0156250, -0.0156250, -0.0390625, -0.0156250, -0.0156250, -0.0078125, 0.0078125, -0.0078125, 0.0000000, -0.0546875, 0.0156250, 0.0156250, 0.0078125, 0.0000000, 0.0468750, 0.0078125, -0.0468750, -0.0546875, 0.0156250, 0.0312500, 0.0468750, -0.0234375, -0.0078125, -0.0078125, -0.0390625, 0.0312500, 0.0468750, -0.0234375, -0.0312500, 0.0000000, 0.0312500, 0.0390625, -0.0078125, -0.0234375, 0.0390625, 0.0156250, -0.0234375, 0.0156250, 0.0312500, 0.0000000, -0.0390625, -0.0234375, 0.0156250, 0.0078125, 0.0468750, 0.0156250, -0.0390625, -0.0078125, -0.0390625, -0.0390625, 0.0234375, -0.0234375, -0.0234375, 0.0390625, 0.0234375, -0.0390625, 0.0390625, 0.0156250, -0.0234375, -0.0234375, 0.0234375, 0.0000000, 0.0078125, 0.0156250, -0.0234375, 0.0234375, 0.0078125, 0.0312500, -0.0390625, -0.0078125, -0.0546875, 0.0390625, -0.0078125, 0.0000000, 0.0000000, 0.0078125, 0.0078125, 0.0078125, -0.0546875, -0.0468750, 0.0078125, -0.0390625, -0.0468750, -0.0468750, 0.0156250, -0.0234375, -0.0156250, -0.0156250, -0.0312500, -0.0156250, -0.0156250, 0.0390625, -0.0312500, -0.0468750, 0.0312500, -0.0234375, 0.0390625, -0.0546875, 0.0156250, -0.0156250, 0.0312500, 0.0234375, -0.0312500, 0.0234375, 0.0312500, 0.0390625, -0.0390625, 0.0078125, 0.0468750, 0.0234375, 0.0234375, 0.0390625, -0.0156250, -0.0234375, -0.0390625, -0.0156250, 0.0234375, -0.0234375, -0.0234375, -0.0156250, -0.0312500, -0.0546875, -0.0546875, -0.0156250, -0.0078125, -0.0234375, -0.0078125, 0.0312500, -0.0234375, 0.0000000, -0.0312500, 0.0234375, 0.0468750, 0.0078125, -0.0546875, 0.0390625, -0.0312500, -0.0312500, 0.0156250, -0.0234375, 0.0078125, 0.0546875, -0.0078125, 0.0312500, -0.0156250, 0.0000000, -0.0546875, 0.0234375, -0.0234375, -0.0078125, -0.0234375, -0.0234375, 0.0000000, 0.0468750, -0.0078125, 0.0390625, -0.0468750, 0.0390625, 0.0468750, -0.0156250, -0.0078125, 0.0000000, -0.0078125, 0.0312500, 0.0000000, -0.0156250, -0.0312500, 0.0234375, -0.0390625, 0.0312500, 0.0234375, 0.0156250, 0.0078125, -0.0312500, -0.0468750, 0.0234375, 0.0546875, 0.0312500, -0.0312500, -0.0156250, -0.0156250, -0.0390625, 0.0390625, -0.0625000, -0.0156250, 0.0078125, -0.0312500, -0.0546875, 0.0468750, 0.0390625, -0.0156250, -0.0546875, 0.0078125, -0.0234375, -0.0390625, -0.0156250, -0.0468750, -0.0156250, 0.0078125, -0.0156250, -0.0156250, -0.0312500, 0.0156250, -0.0390625, 0.0234375, 0.0078125, 0.0078125, -0.0468750, -0.0234375, 0.0468750, -0.0078125, 0.0078125, 0.0546875, -0.0078125, 0.0156250, -0.0546875, 0.0546875, 0.0234375, -0.0312500, 0.0078125, -0.0156250, 0.0390625, 0.0312500, -0.0156250, -0.0390625, 0.0546875, -0.0078125, 0.0234375, -0.0078125, -0.0390625, -0.0312500, 0.0312500, 0.0156250, -0.0468750, -0.0312500, 0.0468750, 0.0156250, -0.0546875, -0.0078125, 0.0078125, -0.0312500, -0.0312500, 0.0078125, 0.0234375, 0.0234375, -0.0468750, -0.0156250, 0.0000000, 0.0234375, 0.0390625, -0.0468750, 0.0078125, 0.0078125, 0.0468750, 0.0234375, 0.0234375, -0.0312500, 0.0156250, -0.0468750, 0.0000000, 0.0468750, -0.0234375, 0.0156250, -0.0468750, 0.0000000, 0.0156250, 0.0312500, 0.0156250, -0.0078125, 0.0000000, -0.0234375, -0.0078125, 0.0468750, -0.0234375, -0.0078125, -0.0234375, -0.0156250, -0.0234375, 0.0468750, -0.0468750, 0.0468750, -0.0156250, -0.0156250, -0.0312500, 0.0000000, -0.0234375, 0.0000000, -0.0234375, 0.0390625, -0.0078125, -0.0234375, 0.0078125, 0.0000000, -0.0390625, -0.0156250, 0.0390625, 0.0390625, 0.0390625, 0.0234375, -0.0546875, 0.0156250, -0.0234375, -0.0156250, 0.0234375, 0.0468750, -0.0390625, 0.0000000, 0.0468750, 0.0234375, -0.0390625, 0.0000000, -0.0312500, -0.0468750, 0.0468750, 0.0234375, -0.0390625, 0.0000000, 0.0000000, -0.0078125, -0.0156250, -0.0156250, -0.0390625, -0.0078125, 0.0156250, 0.0078125, -0.0156250, 0.0000000, 0.0546875, 0.0312500, 0.0078125, 0.0390625, 0.0156250, 0.0468750, -0.0468750, -0.0312500, -0.0390625, -0.0468750, 0.0000000, -0.0078125, 0.0078125, 0.0312500, -0.0234375, -0.0390625, 0.0312500, -0.0312500, 0.0390625, -0.0078125, 0.0000000, -0.0546875, -0.0312500, 0.0234375, 0.0468750, -0.0078125, -0.0625000, -0.0078125, -0.0468750, -0.0390625, 0.0156250, -0.0312500, -0.0078125, 0.0312500, 0.0234375, -0.0234375, -0.0312500, -0.0078125, -0.0234375, -0.0468750, -0.0390625, -0.0156250, -0.0390625, -0.0390625, -0.0234375, 0.0000000, 0.0234375, 0.0000000, 0.0390625, -0.0390625, -0.0156250, -0.0468750, -0.0312500, -0.0468750, 0.0078125, -0.0390625, 0.0468750, 0.0468750, 0.0468750, 0.0156250, 0.0390625, 0.0390625, 0.0312500, 0.0078125, 0.0234375, 0.0390625, 0.0078125, 0.0312500, -0.0156250, 0.0000000, -0.0390625, 0.0468750, 0.0234375, 0.0390625, -0.0312500, 0.0234375, -0.0390625, -0.0234375, -0.0078125, 0.0078125, -0.0625000, -0.0078125, -0.0312500, 0.0234375, 0.0468750, -0.0390625, -0.0312500, 0.0000000, 0.0000000, 0.0156250, -0.0625000, -0.0390625, -0.0078125, -0.0625000, 0.0625000, 0.0156250, 0.0468750, 0.0000000, -0.0312500, -0.0234375, 0.0390625, -0.0468750, 0.0078125, -0.0078125, 0.0156250, 0.0156250, 0.0156250, 0.0000000, 0.0312500, -0.0156250, 0.0390625, -0.0234375, 0.0468750, -0.0312500, -0.0078125, -0.0078125, 0.0468750, 0.0546875, -0.0390625, 0.0390625, -0.0234375, -0.0078125, 0.0078125, 0.0468750, 0.0078125, 0.0234375, 0.0156250, -0.0078125, -0.0390625, 0.0390625, 0.0312500, -0.0390625, 0.0156250, 0.0156250, 0.0156250, 0.0468750, 0.0390625, 0.0156250, -0.0390625, 0.0000000, -0.0156250, -0.0312500, 0.0390625, 0.0390625, -0.0468750, 0.0156250, 0.0312500, -0.0390625, 0.0078125, 0.0234375, -0.0312500, 0.0234375, -0.0078125, -0.0468750, -0.0546875, 0.0546875, 0.0000000, -0.0390625, -0.0468750, 0.0468750, 0.0156250, -0.0468750, 0.0000000, 0.0156250, -0.0156250, 0.0312500, 0.0312500, 0.0468750, -0.0156250, 0.0390625, -0.0546875, 0.0000000, 0.0468750, 0.0078125, -0.0312500, 0.0468750, -0.0390625, -0.0390625, 0.0390625, 0.0156250, 0.0000000, 0.0234375, -0.0156250, -0.0312500, -0.0156250, 0.0234375, -0.0156250, -0.0234375, 0.0000000, -0.0390625, 0.0390625, -0.0468750, 0.0078125, -0.0234375, -0.0390625, 0.0000000, -0.0156250, -0.0546875, 0.0156250, 0.0000000, -0.0546875, 0.0468750, 0.0000000, 0.0234375, 0.0312500, -0.0390625, 0.0078125, -0.0468750, 0.0156250, 0.0312500, -0.0156250, -0.0078125, -0.0468750, 0.0000000, -0.0078125, 0.0234375, -0.0468750, 0.0000000, 0.0078125, -0.0390625, -0.0312500, -0.0156250, -0.0078125, 0.0390625, -0.0156250, 0.0156250, -0.0390625, 0.0234375, -0.0312500, -0.0312500, 0.0078125, -0.0312500, 0.0078125, -0.0078125, 0.0000000, -0.0156250, 0.0312500, -0.0546875, 0.0312500, 0.0468750, -0.0546875, 0.0000000, 0.0234375, -0.0078125, 0.0078125, -0.0156250, 0.0312500, -0.0546875, 0.0000000, 0.0078125, 0.0078125, 0.0468750, 0.0312500, -0.0468750, 0.0390625, -0.0312500, 0.0156250, 0.0078125, 0.0000000, -0.0078125, -0.0468750, -0.0468750, -0.0078125, 0.0156250, 0.0078125, 0.0000000, 0.0468750, 0.0312500, -0.0546875, -0.0390625, -0.0468750, -0.0156250, 0.0156250, 0.0468750, 0.0078125, -0.0390625, -0.0390625, -0.0078125, 0.0000000, 0.0468750, 0.0312500, 0.0312500, -0.0390625, 0.0468750, 0.0546875, 0.0312500, -0.0546875, 0.0156250, -0.0078125, 0.0468750, -0.0234375, 0.0390625, -0.0468750, 0.0312500, -0.0234375, 0.0234375, -0.0312500, -0.0078125, -0.0546875, -0.0234375, -0.0312500, 0.0000000, -0.0156250, 0.0390625, -0.0156250, 0.0468750, -0.0234375, -0.0468750, 0.0390625, 0.0468750, 0.0078125, -0.0546875, 0.0000000, 0.0000000, 0.0312500, 0.0078125, -0.0312500, 0.0312500, -0.0234375, -0.0468750, 0.0000000, 0.0000000, -0.0468750, -0.0078125, 0.0078125, -0.0078125, 0.0390625, -0.0546875, -0.0234375, -0.0312500, 0.0000000, 0.0312500, -0.0390625, -0.0468750, -0.0078125, -0.0546875, -0.0390625, 0.0234375, -0.0390625, 0.0078125, 0.0078125, 0.0078125, -0.0234375, 0.0000000, -0.0390625, -0.0078125, -0.0078125, 0.0000000, -0.0468750, -0.0546875, 0.0078125, -0.0546875, -0.0156250, -0.0156250, -0.0468750, -0.0234375, -0.0078125, 0.0390625, -0.0390625, 0.0234375, 0.0156250, 0.0468750, -0.0234375, -0.0390625, 0.0312500, -0.0468750, -0.0234375, 0.0234375, -0.0078125, 0.0078125, 0.0156250, -0.0468750, 0.0000000, 0.0312500, 0.0156250, 0.0078125, -0.0546875, 0.0156250, 0.0390625, 0.0390625, 0.0234375, 0.0390625, 0.0000000, 0.0234375, 0.0000000, -0.0156250, -0.0156250, 0.0156250, 0.0234375, -0.0546875, 0.0390625, -0.0546875, 0.0000000, -0.0156250, 0.0390625, 0.0234375, -0.0312500, 0.0546875, 0.0468750, 0.0468750, 0.0000000, 0.0156250, -0.0390625, -0.0390625, -0.0468750, 0.0390625, 0.0390625, 0.0078125, -0.0468750, -0.0390625, 0.0234375, -0.0312500, 0.0390625, 0.0312500, -0.0156250, -0.0078125, 0.0468750, -0.0468750, 0.0468750, 0.0156250, 0.0078125, 0.0312500, -0.0078125, 0.0000000, 0.0156250, -0.0468750, 0.0000000, 0.0000000, 0.0390625, 0.0312500, -0.0468750, 0.0390625, 0.0000000, -0.0234375, 0.0234375, 0.0390625, 0.0312500, 0.0078125, -0.0078125, 0.0390625, 0.0000000, -0.0234375, 0.0078125, 0.0000000, -0.0156250, -0.0625000, -0.0078125, -0.0078125, 0.0312500, 0.0390625, 0.0078125, 0.0390625, -0.0312500, 0.0234375, -0.0390625, 0.0312500, 0.0468750, 0.0312500, 0.0468750, 0.0234375, -0.0468750, -0.0234375, 0.0078125, -0.0546875, -0.0234375, -0.0234375, 0.0000000, 0.0234375, 0.0468750, 0.0156250, -0.0546875, 0.0468750, 0.0000000, 0.0468750, 0.0312500, 0.0312500, 0.0234375, 0.0234375, -0.0546875, -0.0234375, -0.0468750, -0.0546875, 0.0156250, 0.0078125, -0.0468750, 0.0468750, -0.0156250, 0.0078125, 0.0000000, 0.0234375, 0.0078125, -0.0156250, -0.0156250, -0.0390625, -0.0156250, 0.0156250, 0.0234375, 0.0156250, -0.0390625, -0.0312500, -0.0156250, -0.0234375, 0.0468750, -0.0390625, 0.0078125, 0.0468750, -0.0156250, 0.0234375, 0.0000000, -0.0234375, -0.0234375, -0.0390625, 0.0468750, 0.0390625, -0.0312500, -0.0234375, -0.0156250, -0.0078125, -0.0156250, -0.0312500, -0.0390625, 0.0156250, 0.0312500, 0.0078125, -0.0468750, -0.0390625, 0.0078125, -0.0156250, -0.0546875, 0.0312500, 0.0312500, 0.0078125, -0.0078125, 0.0156250, -0.0156250, 0.0078125, -0.0078125, -0.0390625, 0.0234375, 0.0312500, -0.0468750, 0.0156250, 0.0468750, 0.0156250, 0.0234375, 0.0312500, 0.0390625, -0.0156250, -0.0468750, 0.0234375, 0.0390625, -0.0156250, 0.0078125, -0.0546875, -0.0078125, 0.0078125, 0.0390625, -0.0234375, 0.0312500, 0.0078125, -0.0312500, -0.0390625, 0.0000000, 0.0546875, 0.0390625, 0.0156250, 0.0390625, -0.0312500, -0.0390625, -0.0234375, 0.0156250, 0.0000000, -0.0390625, 0.0546875, 0.0078125, 0.0156250, -0.0468750, -0.0156250, 0.0312500, -0.0156250, 0.0312500, 0.0234375, 0.0000000, 0.0468750, 0.0390625, -0.0234375, -0.0390625, 0.0468750, 0.0390625, 0.0468750, 0.0234375, 0.0468750, 0.0156250, -0.0468750, 0.0390625, 0.0078125, 0.0390625, 0.0156250, 0.0312500, -0.0390625, -0.0234375, 0.0156250, -0.0234375, 0.0390625, 0.0390625, 0.0312500, 0.0156250, -0.0390625, 0.0390625, -0.0468750, 0.0156250, 0.0390625, -0.0078125, -0.0156250, 0.0000000, -0.0546875, -0.0546875, 0.0234375, -0.0234375, -0.0156250, -0.0390625, 0.0156250, 0.0234375, 0.0156250, -0.0312500, -0.0078125, -0.0468750, 0.0078125, -0.0468750, 0.0312500, 0.0156250, -0.0312500, 0.0000000, 0.0078125, 0.0078125, 0.0468750, -0.0078125, 0.0156250, -0.0078125, -0.0468750, 0.0468750, -0.0312500, 0.0468750, 0.0000000, 0.0312500, -0.0625000, 0.0078125, 0.0312500, -0.0078125, -0.0156250, 0.0390625, 0.0156250, -0.0234375, 0.0000000, -0.0156250, -0.0156250, 0.0078125, 0.0000000, 0.0156250, -0.0234375, -0.0390625, 0.0000000, 0.0234375, 0.0390625, 0.0156250, 0.0078125, 0.0078125, 0.0468750, 0.0390625, -0.0546875, 0.0390625, 0.0312500, 0.0468750, 0.0546875, -0.0078125, 0.0234375, 0.0234375, 0.0312500, 0.0000000, 0.0156250, -0.0390625, 0.0390625, -0.0234375, 0.0078125, 0.0390625, 0.0390625, 0.0000000, -0.0078125, 0.0234375, -0.0390625, -0.0468750, -0.0234375, -0.0312500, 0.0078125, 0.0468750, 0.0234375, -0.0234375, 0.0312500, 0.0156250, 0.0078125, 0.0468750, 0.0000000, -0.0078125, 0.0468750, 0.0234375, 0.0468750, 0.0234375, -0.0234375, -0.0156250, 0.0156250, -0.0546875, -0.0468750, 0.0156250, 0.0312500, -0.0078125, 0.0078125, -0.0312500, -0.0234375, -0.0546875, -0.0078125, 0.0000000, 0.0312500, 0.0312500, 0.0312500, -0.0468750, 0.0000000, 0.0312500, -0.0390625, -0.0312500, 0.0390625, -0.0156250, 0.0156250, 0.0078125, 0.0156250, -0.0468750, -0.0156250, -0.0312500, -0.0312500, 0.0000000, -0.0468750, 0.0000000, 0.0000000, 0.0390625, 0.0468750, 0.0312500, -0.0234375, -0.0546875, 0.0078125, -0.0390625, 0.0312500, 0.0234375, -0.0468750, -0.0234375, 0.0390625, -0.0312500, 0.0390625, 0.0312500, -0.0390625, 0.0390625, -0.0312500, 0.0000000, 0.0390625, -0.0312500, -0.0234375, -0.0546875, 0.0078125, -0.0546875, 0.0078125, 0.0468750, -0.0078125, 0.0234375, -0.0468750, -0.0234375, -0.0468750, 0.0312500, 0.0078125, -0.0078125, -0.0468750, 0.0468750, -0.0156250, 0.0312500, -0.0390625, 0.0156250, -0.0078125, 0.0234375, 0.0234375, 0.0000000, 0.0390625, 0.0156250, 0.0078125, -0.0234375, 0.0156250, 0.0390625, 0.0156250, 0.0312500, 0.0390625, 0.0234375, 0.0468750, 0.0234375, -0.0468750, -0.0234375, 0.0468750, -0.0078125, -0.0312500, 0.0546875, 0.0468750, 0.0000000, 0.0312500, -0.0468750, 0.0156250, 0.0312500, -0.0390625, -0.0156250, -0.0078125, 0.0078125, -0.0312500, 0.0390625, 0.0000000, 0.0156250, -0.0312500, -0.0078125, 0.0078125, 0.0078125, 0.0000000, -0.0234375, -0.0468750, 0.0390625, 0.0156250, 0.0312500, -0.0312500, -0.0468750, 0.0390625, -0.0234375, -0.0234375, 0.0468750, 0.0000000, -0.0156250, 0.0312500, -0.0234375, 0.0234375, 0.0234375, 0.0000000, 0.0468750, -0.0156250, -0.0468750, -0.0468750, 0.0000000, -0.0390625, 0.0390625, 0.0078125, -0.0468750, 0.0390625, 0.0234375, 0.0234375, -0.0156250, 0.0312500, 0.0000000, -0.0234375, 0.0390625, 0.0078125, -0.0234375, -0.0546875, -0.0312500, -0.0078125, 0.0156250, 0.0468750, 0.0078125, -0.0546875, -0.0390625, -0.0468750, -0.0546875, 0.0000000, 0.0000000, -0.0078125, -0.0546875, 0.0156250, 0.0156250, -0.0234375, -0.0234375, 0.0390625, 0.0156250, 0.0078125, 0.0312500, -0.0468750, 0.0078125, -0.0312500, -0.0234375, 0.0000000, 0.0000000, -0.0468750, -0.0468750, 0.0546875, -0.0234375, -0.0156250, -0.0234375, -0.0546875, -0.0156250, 0.0234375, 0.0000000, 0.0000000, 0.0156250, 0.0000000, -0.0390625, -0.0546875, 0.0000000, -0.0234375, -0.0390625, -0.0156250, 0.0312500, -0.0390625, 0.0234375, 0.0078125, -0.0390625, 0.0234375, 0.0078125, 0.0234375, 0.0078125, 0.0078125, 0.0156250, -0.0390625, 0.0234375, 0.0546875, 0.0000000, 0.0468750, 0.0390625, 0.0390625, 0.0078125, 0.0156250, 0.0156250, 0.0156250, 0.0078125, -0.0156250, -0.0078125, 0.0078125, 0.0312500, 0.0312500, -0.0234375, 0.0000000, -0.0468750, 0.0390625, -0.0468750, -0.0234375, 0.0312500, -0.0468750, 0.0000000, -0.0390625, 0.0234375, 0.0234375, -0.0390625, 0.0078125, -0.0546875, -0.0625000, -0.0078125, 0.0078125, -0.0468750, 0.0312500, -0.0156250, -0.0468750, 0.0312500, 0.0468750, -0.0312500, -0.0078125, -0.0546875, 0.0468750, -0.0312500, -0.0312500, 0.0312500, 0.0000000, 0.0156250, -0.0234375, -0.0078125, 0.0156250, 0.0000000, -0.0390625, -0.0078125, 0.0234375, 0.0000000, -0.0312500, -0.0078125, -0.0312500, 0.0078125, -0.0468750, 0.0468750, 0.0000000, 0.0000000, 0.0312500, 0.0156250, -0.0390625, 0.0234375, -0.0078125, -0.0312500, 0.0390625, 0.0468750, 0.0000000, -0.0546875, -0.0390625, 0.0156250, -0.0156250, -0.0156250, 0.0468750, 0.0156250, 0.0468750, -0.0546875, -0.0156250, 0.0234375, 0.0234375, 0.0468750, 0.0468750, 0.0312500, -0.0312500, -0.0390625, 0.0468750, 0.0468750, 0.0078125, -0.0468750, 0.0234375, 0.0546875, -0.0312500, 0.0234375, 0.0000000, 0.0468750, 0.0312500, -0.0234375, 0.0078125, -0.0078125, 0.0390625, 0.0078125, 0.0312500, 0.0234375, 0.0234375, -0.0156250, 0.0468750, -0.0078125, 0.0078125, 0.0156250, 0.0546875, 0.0000000, -0.0312500, -0.0156250, -0.0078125, 0.0156250, 0.0468750, -0.0156250, -0.0468750, -0.0468750, 0.0234375, -0.0078125, -0.0078125, 0.0156250, -0.0468750, -0.0546875, 0.0390625, -0.0390625, -0.0390625, 0.0312500, -0.0390625, -0.0546875, 0.0078125, -0.0156250, -0.0468750, 0.0234375, 0.0156250, 0.0078125, -0.0078125, 0.0312500, -0.0390625, 0.0234375, 0.0156250, 0.0468750, -0.0468750, -0.0078125, -0.0312500, 0.0312500, -0.0468750, 0.0000000, -0.0078125, -0.0468750, 0.0000000, 0.0078125, 0.0312500, 0.0312500, 0.0156250, -0.0156250, 0.0078125, 0.0468750, 0.0000000, 0.0468750, -0.0468750, 0.0000000, 0.0078125, -0.0390625, 0.0156250, 0.0234375, 0.0234375, 0.0390625, -0.0546875, 0.0000000, 0.0156250, 0.0468750, -0.0156250, -0.0312500, -0.0312500, 0.0468750, 0.0234375, -0.0390625, -0.0390625, 0.0234375, -0.0312500, -0.0390625, 0.0078125, 0.0312500, 0.0234375, 0.0078125, -0.0078125, -0.0468750, -0.0156250, 0.0390625, 0.0234375, -0.0468750, -0.0078125, -0.0468750, 0.0468750, -0.0156250, 0.0312500, -0.0468750, -0.0390625, 0.0468750, -0.0312500, 0.0546875, 0.0468750, 0.0468750, -0.0390625, 0.0468750, 0.0468750, -0.0312500, 0.0234375, -0.0078125, 0.0390625, 0.0546875, 0.0468750, 0.0234375, -0.0546875, 0.0078125, 0.0468750, 0.0390625, 0.0468750, -0.0546875, -0.0078125, -0.0078125, 0.0234375, -0.0312500, -0.0234375, -0.0468750, 0.0000000, -0.0156250, 0.0078125, 0.0468750, -0.0390625, 0.0468750, 0.0390625, 0.0078125, 0.0468750, -0.0156250, 0.0000000, -0.0468750, 0.0468750, 0.0468750, -0.0156250, -0.0625000, 0.0078125, 0.0078125, 0.0312500, -0.0312500, 0.0312500, -0.0546875, 0.0000000, -0.0468750, 0.0312500, 0.0078125, 0.0390625, 0.0390625, -0.0234375, -0.0156250, 0.0156250, 0.0234375, 0.0312500, 0.0078125, -0.0390625, -0.0234375, -0.0625000, 0.0390625, -0.0312500, -0.0390625, 0.0156250, 0.0468750, 0.0078125, -0.0546875, -0.0390625, 0.0156250, 0.0078125, -0.0234375, 0.0468750, -0.0312500, -0.0234375, -0.0390625, -0.0078125, -0.0312500, 0.0156250, -0.0312500, 0.0234375, -0.0234375, -0.0234375, -0.0312500, 0.0390625, 0.0234375, 0.0312500, -0.0234375, -0.0156250, 0.0390625, 0.0312500, -0.0312500, 0.0468750, 0.0312500, 0.0078125, 0.0390625, -0.0312500, -0.0078125, 0.0156250, 0.0312500, 0.0234375, -0.0546875, -0.0312500, -0.0234375, 0.0156250, 0.0234375, 0.0234375, 0.0312500, -0.0468750, 0.0000000, -0.0156250, -0.0390625, 0.0234375, 0.0156250, 0.0468750, -0.0156250, -0.0078125, -0.0234375, 0.0234375, -0.0312500, 0.0390625, 0.0468750, -0.0468750, 0.0078125, 0.0312500, 0.0312500, 0.0234375, 0.0390625, 0.0468750, -0.0468750, 0.0390625, -0.0546875, 0.0156250, 0.0234375, 0.0078125, 0.0234375, 0.0390625, 0.0078125, 0.0156250, 0.0234375, -0.0078125, 0.0312500, -0.0156250, -0.0390625, 0.0390625, -0.0546875, -0.0078125, -0.0468750, 0.0000000, 0.0078125, 0.0390625, 0.0312500, -0.0078125, -0.0390625, -0.0468750, -0.0390625, -0.0234375, 0.0000000, -0.0156250, 0.0312500, -0.0312500, -0.0156250, 0.0234375, 0.0078125, 0.0078125, -0.0390625, -0.0546875, 0.0312500, 0.0078125, -0.0468750, 0.0546875, 0.0390625, 0.0000000, 0.0234375, 0.0000000, 0.0000000, 0.0468750, 0.0234375, 0.0234375, -0.0078125, -0.0312500, 0.0468750, -0.0156250, 0.0156250, 0.0000000, -0.0078125, 0.0234375, -0.0312500, 0.0390625, 0.0078125, -0.0312500, -0.0234375, 0.0234375, -0.0234375, -0.0234375, 0.0000000, -0.0156250, -0.0546875, -0.0312500, 0.0312500, -0.0078125, 0.0156250, -0.0234375, -0.0546875, -0.0468750, 0.0234375, 0.0390625, 0.0234375, -0.0390625, -0.0312500, -0.0468750, -0.0156250, 0.0468750, 0.0390625, 0.0390625, 0.0078125, 0.0000000, 0.0468750, 0.0312500, -0.0078125, -0.0156250, -0.0390625, 0.0078125, 0.0312500, 0.0312500, 0.0078125, -0.0234375, -0.0390625, -0.0078125, -0.0468750, -0.0156250, -0.0390625, 0.0078125, 0.0078125, 0.0000000, 0.0078125, -0.0468750, 0.0312500, -0.0156250, 0.0078125, -0.0156250, 0.0078125, 0.0078125, -0.0468750, -0.0234375, 0.0156250, -0.0234375, -0.0312500, -0.0390625, -0.0390625, 0.0390625, -0.0390625, 0.0078125, -0.0156250, 0.0156250, 0.0312500, -0.0468750, -0.0546875, 0.0312500, -0.0312500, 0.0312500, 0.0078125, 0.0078125, -0.0312500, -0.0234375, 0.0468750, 0.0234375, 0.0546875, -0.0468750, 0.0234375, -0.0468750, -0.0156250, 0.0156250, 0.0000000, -0.0390625, 0.0078125, -0.0468750, -0.0390625, 0.0234375, 0.0312500, -0.0234375, -0.0312500, -0.0156250, -0.0234375, -0.0234375, 0.0234375, -0.0312500, 0.0312500, -0.0468750, -0.0078125, 0.0000000, -0.0312500, 0.0468750, 0.0468750, 0.0234375, 0.0312500, 0.0156250, -0.0546875, 0.0312500, -0.0078125, 0.0312500, 0.0312500, 0.0234375, 0.0390625, 0.0312500, 0.0156250, -0.0156250, -0.0156250, 0.0312500, 0.0312500, 0.0000000, -0.0546875, 0.0078125, 0.0234375, 0.0390625, 0.0468750, -0.0078125, -0.0546875, -0.0078125, 0.0312500, 0.0312500, -0.0312500, 0.0078125, -0.0546875, 0.0078125, 0.0156250, -0.0156250, -0.0625000, -0.0078125, 0.0000000, 0.0078125, 0.0078125, 0.0078125, 0.0234375, 0.0390625, 0.0078125, 0.0000000, 0.0234375, -0.0468750, 0.0468750, 0.0234375, 0.0234375, -0.0390625, -0.0468750, -0.0546875, 0.0078125, -0.0468750, 0.0312500, -0.0390625, 0.0546875, 0.0234375, 0.0390625, 0.0000000, 0.0312500, -0.0468750, -0.0546875, 0.0312500, 0.0312500, 0.0234375, 0.0312500, -0.0468750, -0.0156250, 0.0312500, -0.0234375, 0.0468750, -0.0468750, 0.0078125, 0.0000000, 0.0390625, 0.0234375, -0.0390625, -0.0625000, -0.0078125, -0.0234375, 0.0390625, 0.0312500, 0.0000000, -0.0078125, 0.0078125, -0.0390625, -0.0546875, 0.0312500, 0.0390625, 0.0312500, 0.0468750, 0.0000000, -0.0468750, -0.0234375, 0.0390625, -0.0312500, -0.0546875, 0.0468750, -0.0078125, -0.0546875, -0.0312500, 0.0468750, -0.0078125, 0.0078125, 0.0156250, 0.0468750, -0.0312500, -0.0468750, 0.0312500, 0.0000000, -0.0312500, 0.0156250, -0.0078125, 0.0078125, -0.0312500, 0.0468750, -0.0390625, 0.0234375, 0.0078125, -0.0156250, 0.0468750, -0.0468750, 0.0156250, 0.0000000, 0.0156250, -0.0156250, -0.0468750, 0.0312500, -0.0546875, -0.0390625, 0.0000000, -0.0390625, 0.0000000, -0.0078125, -0.0546875, -0.0390625, -0.0078125, -0.0390625, 0.0156250, -0.0156250, 0.0078125, -0.0078125, -0.0156250, 0.0390625, 0.0156250, 0.0156250, 0.0078125, 0.0234375, 0.0390625, -0.0078125, -0.0390625, 0.0468750, 0.0312500, -0.0468750, 0.0312500, 0.0078125, 0.0000000, -0.0078125, 0.0390625, 0.0156250, 0.0078125, 0.0234375, 0.0390625, -0.0078125, 0.0078125, -0.0156250, 0.0156250, -0.0234375, 0.0078125, -0.0312500, 0.0156250, 0.0312500, -0.0390625, -0.0312500, -0.0078125, -0.0468750, 0.0468750, 0.0390625, -0.0468750, 0.0156250, 0.0390625, 0.0390625, 0.0234375, 0.0000000, 0.0312500, -0.0390625, -0.0546875, -0.0234375, 0.0078125, -0.0078125, -0.0312500, -0.0156250, 0.0156250, 0.0312500, 0.0156250, -0.0078125, 0.0390625, -0.0234375, 0.0000000, 0.0234375, 0.0078125, 0.0000000, -0.0390625, -0.0156250, 0.0546875, -0.0156250, 0.0390625, -0.0078125, -0.0234375, -0.0234375, -0.0390625, 0.0390625, -0.0156250, 0.0156250, 0.0468750, -0.0078125, -0.0312500, -0.0156250, -0.0546875, 0.0000000, -0.0156250, -0.0312500, 0.0078125, -0.0390625, 0.0312500, 0.0078125, 0.0078125, -0.0468750, 0.0000000, -0.0078125, 0.0234375, 0.0078125, 0.0468750, 0.0000000, -0.0468750, -0.0390625, -0.0234375, 0.0390625, -0.0078125, -0.0546875, -0.0390625, -0.0468750, 0.0156250, 0.0312500, 0.0078125, 0.0234375, 0.0156250, 0.0078125, -0.0078125, -0.0546875, 0.0078125, -0.0156250, 0.0468750, 0.0468750, -0.0390625, -0.0156250, -0.0390625, -0.0390625, 0.0234375, 0.0234375, -0.0312500, 0.0234375, 0.0234375, 0.0546875, -0.0546875, 0.0156250, 0.0312500, -0.0468750, -0.0546875, -0.0468750, 0.0312500, 0.0390625, 0.0234375, 0.0234375, -0.0390625, -0.0234375, 0.0078125, 0.0312500, 0.0390625, -0.0312500, 0.0468750, 0.0078125, 0.0156250, 0.0078125, -0.0078125, -0.0468750, 0.0390625, 0.0468750, -0.0078125, -0.0312500, 0.0156250, -0.0468750, -0.0156250, -0.0078125, -0.0312500, 0.0390625, -0.0234375, 0.0156250, -0.0390625, 0.0234375, 0.0234375, -0.0312500, -0.0234375, -0.0078125, 0.0078125, -0.0312500, -0.0312500, -0.0546875, 0.0156250, -0.0468750, -0.0156250, -0.0312500, 0.0156250, 0.0156250, 0.0156250, -0.0078125, -0.0468750, 0.0390625, -0.0078125, 0.0234375, -0.0078125, 0.0000000, 0.0468750, 0.0312500, -0.0234375, 0.0234375, 0.0000000, -0.0156250, -0.0078125, 0.0234375, -0.0234375, 0.0078125, -0.0234375, -0.0156250, 0.0156250, 0.0078125, 0.0000000, -0.0390625, -0.0078125, 0.0312500, 0.0000000, -0.0312500, -0.0312500, 0.0390625, -0.0546875, -0.0312500, -0.0546875, -0.0078125, 0.0312500, 0.0000000, -0.0468750, -0.0390625, -0.0078125, 0.0078125, 0.0000000, 0.0000000, -0.0312500, -0.0468750, -0.0078125, -0.0078125, -0.0156250, -0.0390625, -0.0078125, -0.0078125, -0.0078125, 0.0078125, -0.0156250, -0.0234375, 0.0156250, -0.0468750, 0.0000000, -0.0156250, -0.0156250, -0.0312500, 0.0390625, 0.0390625, -0.0546875, -0.0546875, -0.0546875, -0.0546875, -0.0546875, -0.0156250, -0.0312500, 0.0312500, 0.0156250, 0.0156250, -0.0156250, 0.0078125, 0.0234375, -0.0078125, 0.0546875, 0.0390625, -0.0234375, -0.0078125, 0.0468750, 0.0000000, 0.0156250, 0.0156250, -0.0234375, 0.0390625, 0.0312500, 0.0000000, -0.0468750, 0.0390625, -0.0468750, -0.0234375, 0.0078125, -0.0390625, 0.0390625, -0.0156250, -0.0468750, -0.0156250, 0.0234375, 0.0234375, -0.0390625, 0.0234375, -0.0390625, 0.0390625, -0.0390625, 0.0468750, 0.0078125, 0.0078125, -0.0546875, -0.0546875, 0.0234375, -0.0390625, -0.0546875, -0.0546875, -0.0078125, -0.0625000, 0.0078125, -0.0312500, 0.0000000, -0.0234375, 0.0390625, 0.0156250, 0.0156250, 0.0000000, 0.0390625, -0.0312500, 0.0312500, 0.0390625, 0.0156250, 0.0000000, 0.0000000, 0.0156250, 0.0078125, -0.0546875, 0.0156250, 0.0312500, -0.0156250, -0.0312500, -0.0468750, 0.0000000, 0.0312500, -0.0390625, 0.0312500, 0.0312500, -0.0234375, -0.0234375, -0.0468750, 0.0390625, 0.0156250, 0.0312500, -0.0234375, 0.0390625, -0.0234375, -0.0156250, -0.0625000, 0.0312500, -0.0312500, -0.0156250, 0.0000000, 0.0000000, 0.0156250, 0.0390625, 0.0000000, -0.0156250, 0.0000000, 0.0156250, -0.0312500, -0.0312500, -0.0546875, -0.0156250, -0.0312500, -0.0390625, 0.0078125, -0.0390625, -0.0234375, 0.0000000, -0.0468750, 0.0468750, -0.0078125, -0.0156250, 0.0390625, -0.0234375, 0.0000000, 0.0156250, 0.0312500, -0.0312500, -0.0156250, 0.0468750, 0.0234375, 0.0390625, -0.0234375, -0.0078125, 0.0234375, -0.0078125, -0.0546875, -0.0078125, 0.0390625, 0.0156250, 0.0156250, -0.0234375, 0.0468750, 0.0546875, 0.0468750, 0.0000000, -0.0390625, 0.0468750, 0.0390625, -0.0468750, -0.0234375, 0.0156250, -0.0390625, -0.0468750, -0.0468750, -0.0156250, 0.0000000, -0.0312500, -0.0234375, -0.0468750, -0.0078125, -0.0312500, -0.0078125, 0.0078125, -0.0078125, 0.0234375, 0.0078125, 0.0468750, -0.0078125, 0.0078125, 0.0234375, -0.0312500, -0.0312500, -0.0078125, 0.0468750, 0.0078125, 0.0078125, 0.0000000, -0.0234375, 0.0468750, -0.0312500, 0.0156250, 0.0000000, 0.0468750, -0.0468750, -0.0312500, 0.0312500, 0.0234375, -0.0234375, 0.0156250, 0.0000000, 0.0000000, -0.0312500, -0.0234375, 0.0234375, 0.0468750, 0.0234375, -0.0234375, 0.0468750, -0.0078125, 0.0156250, 0.0468750, 0.0390625, 0.0234375, 0.0078125, -0.0312500, 0.0390625, 0.0156250, 0.0234375, 0.0078125, -0.0312500, -0.0156250, 0.0234375, -0.0078125, -0.0468750, 0.0234375, 0.0468750, 0.0390625, 0.0078125, 0.0390625, 0.0000000, 0.0312500, 0.0312500, 0.0234375, -0.0468750, -0.0156250, 0.0156250, 0.0156250, -0.0234375, -0.0156250, 0.0312500, 0.0000000, 0.0000000, -0.0312500, -0.0078125, -0.0312500, 0.0468750, 0.0078125, -0.0234375, -0.0390625, -0.0156250, 0.0468750, -0.0468750, 0.0000000, 0.0234375, 0.0390625, -0.0078125, 0.0234375, 0.0390625, -0.0468750, 0.0312500, 0.0468750, 0.0234375, 0.0312500, 0.0000000, -0.0390625, -0.0468750, -0.0390625, 0.0468750, 0.0468750, -0.0234375, 0.0234375, 0.0078125, -0.0390625, -0.0078125, 0.0234375, 0.0390625, -0.0156250, 0.0000000, -0.0078125, -0.0234375, -0.0234375, 0.0468750, 0.0000000, 0.0156250, 0.0156250, -0.0468750, -0.0156250, 0.0156250, -0.0312500, -0.0078125, 0.0468750, -0.0546875, 0.0234375, -0.0468750, 0.0312500, -0.0078125, 0.0000000, 0.0078125, -0.0312500, 0.0234375, -0.0312500, 0.0312500, -0.0234375, -0.0390625, 0.0078125, 0.0234375, -0.0468750, 0.0078125, 0.0156250, 0.0390625, 0.0390625, -0.0468750, -0.0390625, 0.0390625, -0.0546875, -0.0390625, 0.0312500, 0.0156250, 0.0156250, -0.0156250, -0.0078125, 0.0000000, 0.0390625, 0.0312500, 0.0312500, 0.0078125, 0.0234375, -0.0390625, -0.0468750, -0.0390625, 0.0312500, -0.0546875, -0.0156250, -0.0546875, 0.0156250, -0.0078125, -0.0078125, 0.0078125, 0.0078125, -0.0312500, 0.0000000, 0.0156250, 0.0000000, -0.0312500, -0.0156250, -0.0390625, -0.0156250, 0.0312500, 0.0078125, 0.0156250, 0.0000000, -0.0234375, 0.0156250, 0.0156250, 0.0156250, -0.0390625, 0.0000000, -0.0390625, -0.0390625, 0.0312500, 0.0468750, -0.0390625, 0.0000000, 0.0000000, 0.0468750, 0.0000000, 0.0312500, 0.0390625, 0.0156250, 0.0156250, -0.0468750, -0.0156250, -0.0234375, -0.0312500, -0.0234375, -0.0312500, 0.0000000, 0.0468750, 0.0312500, -0.0078125, 0.0468750, -0.0078125, -0.0078125, -0.0156250, 0.0468750, -0.0468750, 0.0000000, 0.0000000, -0.0468750, 0.0468750, -0.0468750, -0.0468750, -0.0156250, 0.0546875, -0.0390625, 0.0390625, 0.0468750, -0.0468750, -0.0234375, 0.0546875, 0.0234375, -0.0078125, 0.0390625, 0.0000000, -0.0390625, 0.0156250, -0.0312500, 0.0000000, -0.0312500, -0.0468750, 0.0468750, 0.0312500, -0.0546875, 0.0156250, -0.0468750, 0.0234375, -0.0468750, 0.0468750, 0.0234375, 0.0000000, -0.0234375, -0.0234375, -0.0390625, -0.0234375, -0.0390625, 0.0156250, -0.0078125, -0.0468750, -0.0468750, -0.0156250, 0.0078125, -0.0390625, -0.0078125, -0.0546875, -0.0234375, -0.0156250, -0.0312500, 0.0312500, 0.0078125, 0.0156250, -0.0312500, -0.0390625, 0.0468750, -0.0312500, -0.0390625, -0.0390625, 0.0156250, 0.0000000, 0.0000000, 0.0390625, -0.0234375, 0.0312500, 0.0078125, 0.0234375, 0.0078125, 0.0000000, -0.0390625, -0.0156250, 0.0390625, 0.0078125, 0.0234375, 0.0312500, 0.0156250, -0.0546875, 0.0000000, 0.0156250, 0.0234375, 0.0234375, 0.0078125, 0.0390625, 0.0000000, 0.0000000, 0.0078125, -0.0468750, -0.0468750, -0.0156250, 0.0390625, -0.0390625, 0.0078125, -0.0234375, -0.0234375, 0.0078125, 0.0078125, -0.0390625, -0.0312500, -0.0312500, -0.0468750, -0.0156250, 0.0390625, -0.0078125, 0.0078125, -0.0234375, -0.0312500, 0.0468750, -0.0156250, 0.0546875, -0.0234375, 0.0078125, 0.0156250, -0.0468750, 0.0312500, -0.0390625, -0.0468750, -0.0234375, -0.0312500, -0.0390625, 0.0312500, -0.0234375, -0.0546875, -0.0312500, -0.0078125, -0.0234375, -0.0078125, -0.0078125, 0.0234375, -0.0234375, -0.0156250, 0.0468750, -0.0468750, -0.0156250, 0.0234375, -0.0312500, -0.0546875, -0.0156250, -0.0078125, -0.0234375, 0.0390625, -0.0312500, -0.0078125, 0.0000000, 0.0468750, -0.0468750, 0.0468750, -0.0546875, 0.0156250, 0.0312500, -0.0156250, 0.0078125, 0.0312500, -0.0156250, 0.0234375, 0.0000000, 0.0078125, 0.0546875, -0.0546875, -0.0156250, 0.0078125, -0.0468750, 0.0468750, 0.0000000, 0.0390625, 0.0312500, -0.0468750, -0.0156250, 0.0156250, -0.0234375, -0.0468750, 0.0078125, 0.0312500, 0.0000000, 0.0156250, -0.0234375, -0.0390625, -0.0078125, 0.0234375, 0.0390625, 0.0468750, -0.0546875, 0.0156250, -0.0312500, 0.0000000, -0.0234375, -0.0468750, -0.0078125, -0.0234375, 0.0468750, -0.0468750, 0.0078125, 0.0078125, 0.0078125, -0.0234375, -0.0468750, -0.0312500, -0.0468750, 0.0078125, -0.0468750, 0.0312500, 0.0234375, 0.0078125, -0.0078125, -0.0156250, 0.0156250, -0.0156250, -0.0546875, -0.0234375, 0.0312500, 0.0000000, -0.0234375, -0.0078125, 0.0078125, 0.0000000, -0.0078125, -0.0234375, 0.0000000, 0.0156250, -0.0312500, -0.0156250, 0.0312500, 0.0156250, -0.0312500, 0.0000000, -0.0468750, -0.0234375, -0.0234375, 0.0312500, -0.0156250, 0.0156250, 0.0000000, 0.0390625, -0.0156250, 0.0234375, 0.0078125, 0.0312500, -0.0546875, -0.0234375, 0.0390625, -0.0156250, 0.0078125, 0.0078125, 0.0156250, 0.0234375, -0.0468750, 0.0156250, -0.0390625, 0.0312500, 0.0000000, 0.0390625, -0.0390625, 0.0078125, 0.0000000, 0.0312500, -0.0390625, 0.0468750, -0.0468750, 0.0390625, 0.0390625, 0.0312500, 0.0546875, -0.0312500, 0.0078125, -0.0156250, -0.0234375, -0.0546875, 0.0312500, -0.0312500, -0.0078125, -0.0078125, -0.0312500, -0.0546875, -0.0390625, 0.0234375, -0.0078125, 0.0312500, 0.0078125, 0.0078125, 0.0078125, 0.0234375, 0.0390625, -0.0312500, 0.0468750, -0.0156250, -0.0078125, 0.0078125, 0.0078125, -0.0078125, 0.0468750, -0.0234375, -0.0390625, -0.0390625, -0.0312500, 0.0312500, -0.0234375, -0.0156250, -0.0468750, -0.0078125, 0.0156250, 0.0312500, 0.0468750, 0.0234375, -0.0078125, -0.0390625, 0.0390625, -0.0312500, -0.0234375, -0.0156250, 0.0468750, -0.0234375, -0.0078125, 0.0312500, 0.0156250, -0.0312500, -0.0468750, -0.0312500, -0.0312500, -0.0546875, -0.0156250, -0.0546875, -0.0156250, -0.0546875, 0.0234375, -0.0546875, -0.0234375, -0.0312500, -0.0312500, -0.0390625, -0.0546875, -0.0312500, 0.0234375, -0.0546875, 0.0000000, -0.0546875, -0.0468750, -0.0234375, 0.0000000, 0.0234375, 0.0078125, -0.0468750, 0.0390625, -0.0234375, -0.0078125, -0.0234375, 0.0234375, 0.0156250, -0.0390625, -0.0390625, 0.0390625, 0.0000000, 0.0312500, -0.0390625, 0.0234375, 0.0468750, -0.0546875, -0.0078125, -0.0234375, -0.0546875, -0.0156250, 0.0234375, -0.0312500, 0.0312500, 0.0234375, 0.0234375, 0.0390625, -0.0546875, 0.0312500, 0.0234375, -0.0078125, -0.0078125, 0.0312500, 0.0078125, 0.0390625, -0.0390625, 0.0078125, -0.0390625, -0.0234375, 0.0156250, -0.0312500, 0.0078125, 0.0078125, -0.0546875, 0.0234375, -0.0234375, 0.0390625, -0.0234375, -0.0390625, -0.0078125, 0.0234375, -0.0234375, -0.0078125, 0.0000000, -0.0078125, 0.0000000, 0.0390625, 0.0234375, 0.0468750, -0.0234375, 0.0156250, -0.0078125, -0.0468750, 0.0000000, -0.0390625, -0.0390625, -0.0546875, -0.0156250, 0.0156250, 0.0156250, 0.0000000, 0.0390625, 0.0078125, 0.0312500, -0.0234375, 0.0390625, 0.0234375, 0.0234375, 0.0078125, 0.0078125, 0.0234375, -0.0468750, 0.0390625, -0.0078125, -0.0078125, 0.0468750, 0.0234375, -0.0078125, 0.0000000, 0.0000000, 0.0312500, 0.0468750, 0.0312500, 0.0312500, 0.0390625, 0.0390625, 0.0468750, -0.0468750, 0.0156250, -0.0390625, -0.0234375, -0.0078125, 0.0468750, -0.0156250, -0.0468750, 0.0468750, 0.0156250, -0.0312500, 0.0312500, -0.0468750, -0.0390625, -0.0156250, -0.0546875, 0.0234375, -0.0312500, 0.0390625, 0.0000000, -0.0546875, 0.0078125, -0.0390625, -0.0156250, 0.0078125, 0.0546875, -0.0156250, 0.0156250, -0.0390625, 0.0390625, -0.0156250, 0.0390625, -0.0078125, 0.0078125, -0.0156250, 0.0312500, 0.0234375, 0.0156250, -0.0078125, 0.0468750, -0.0234375, 0.0078125, 0.0234375, 0.0078125, -0.0078125, 0.0156250, 0.0156250, 0.0234375, 0.0156250, 0.0468750, -0.0078125, -0.0468750, -0.0312500, 0.0468750, 0.0234375, 0.0312500, 0.0468750, 0.0312500, 0.0390625, -0.0234375, -0.0234375, 0.0390625, -0.0234375, -0.0156250, 0.0078125, 0.0234375, -0.0546875, -0.0546875, 0.0000000, 0.0156250, -0.0468750, 0.0312500, 0.0000000, 0.0234375, 0.0234375, -0.0468750, -0.0078125, -0.0390625, -0.0546875, -0.0078125, 0.0312500, -0.0312500, 0.0546875, -0.0078125, 0.0390625, 0.0390625, 0.0312500, 0.0156250, -0.0390625, 0.0000000, -0.0312500, 0.0234375, 0.0078125, 0.0390625, -0.0312500, 0.0234375, 0.0234375, 0.0312500, 0.0234375, -0.0234375, 0.0078125, 0.0312500, 0.0234375, 0.0078125, -0.0312500, 0.0234375, -0.0078125, -0.0468750, -0.0156250, -0.0078125, -0.0078125, 0.0312500, -0.0234375, 0.0390625, -0.0390625, -0.0546875, -0.0468750, -0.0390625, 0.0234375, -0.0390625, 0.0312500, -0.0156250, 0.0000000, -0.0390625, 0.0468750, 0.0468750, 0.0390625, 0.0468750, 0.0468750, -0.0156250, -0.0546875, -0.0468750, -0.0468750, -0.0546875, -0.0468750, 0.0468750, -0.0390625, -0.0390625, 0.0156250, 0.0468750, 0.0234375, -0.0156250, -0.0468750, 0.0390625, 0.0156250, 0.0390625, 0.0390625, 0.0156250, 0.0078125, -0.0468750, 0.0468750, 0.0312500, -0.0078125, -0.0156250, -0.0312500, 0.0312500, 0.0468750, 0.0156250, 0.0468750, 0.0156250, 0.0156250, 0.0468750, 0.0312500, 0.0078125, 0.0312500, -0.0312500, 0.0000000, -0.0468750, -0.0078125, -0.0156250, -0.0312500, 0.0468750, 0.0234375, 0.0078125, 0.0234375, -0.0390625, 0.0234375, 0.0468750, -0.0390625, -0.0156250, -0.0234375, -0.0234375, -0.0234375, -0.0390625, -0.0546875, -0.0546875, 0.0078125, 0.0156250, -0.0312500, 0.0312500, -0.0546875, -0.0234375, -0.0156250, 0.0390625, -0.0546875, 0.0546875, 0.0390625, -0.0312500, -0.0468750, -0.0468750, 0.0312500, 0.0546875, 0.0312500, -0.0156250, 0.0000000, 0.0234375, -0.0390625, -0.0312500, -0.0156250, 0.0078125, 0.0078125, -0.0468750, 0.0390625, 0.0234375, 0.0234375, 0.0078125, -0.0546875, 0.0156250, -0.0390625, 0.0078125, 0.0312500, 0.0000000, 0.0000000, 0.0312500, -0.0234375, 0.0234375, -0.0390625, 0.0156250, -0.0390625, -0.0390625, -0.0390625, -0.0468750, -0.0546875, 0.0234375, -0.0156250, -0.0390625, 0.0234375, -0.0156250, 0.0156250, -0.0234375, -0.0078125, 0.0312500, -0.0234375, 0.0156250, 0.0000000, 0.0234375, -0.0234375, -0.0234375, -0.0078125, -0.0312500, 0.0468750, 0.0156250, -0.0156250, -0.0546875, 0.0156250, 0.0156250, 0.0000000, 0.0312500, 0.0078125, -0.0234375, -0.0390625, -0.0078125, -0.0390625, 0.0468750, 0.0156250, 0.0312500, -0.0156250, 0.0312500, 0.0078125, -0.0234375, 0.0078125, -0.0234375, -0.0156250, -0.0390625, 0.0078125, -0.0390625, 0.0078125, -0.0156250, -0.0078125, -0.0468750, 0.0312500, -0.0390625, 0.0390625, -0.0468750, -0.0078125, -0.0312500, -0.0156250, 0.0078125, 0.0468750, -0.0390625, 0.0000000, -0.0546875, -0.0546875, 0.0000000, 0.0000000, 0.0468750, 0.0000000, 0.0078125, -0.0390625, -0.0234375, -0.0312500, -0.0546875, -0.0234375, -0.0078125, -0.0312500, 0.0468750, -0.0156250, 0.0390625, 0.0546875, 0.0312500, -0.0078125, -0.0390625, 0.0078125, 0.0234375, 0.0390625, -0.0078125, -0.0234375, 0.0390625, -0.0156250, -0.0078125, -0.0625000, 0.0000000, -0.0078125, -0.0234375, 0.0390625, -0.0078125, 0.0234375, 0.0078125, -0.0234375, 0.0312500, 0.0312500, -0.0234375, -0.0312500, -0.0156250, 0.0468750, 0.0078125, 0.0390625, -0.0390625, -0.0156250, 0.0390625, -0.0156250, -0.0390625, 0.0390625, 0.0078125, 0.0078125, 0.0078125, -0.0156250, -0.0156250, -0.0546875, -0.0156250, -0.0546875, -0.0546875, 0.0390625, -0.0390625, 0.0312500, -0.0546875, -0.0468750, -0.0156250, -0.0312500, 0.0156250, -0.0156250, 0.0234375, 0.0234375, 0.0000000, 0.0312500, -0.0156250, 0.0156250, 0.0000000, 0.0312500, -0.0078125, -0.0078125, 0.0234375, 0.0000000, -0.0390625, 0.0468750, -0.0468750, -0.0234375, -0.0468750, 0.0234375, -0.0078125, -0.0156250, -0.0156250, -0.0468750, -0.0546875, -0.0312500, -0.0546875, 0.0156250, -0.0312500, 0.0468750, -0.0546875, 0.0000000, 0.0156250, -0.0468750, 0.0234375, -0.0390625, -0.0468750, -0.0625000, -0.0234375, -0.0078125, -0.0546875, -0.0468750, -0.0312500, -0.0546875, -0.0390625, 0.0468750, -0.0390625, -0.0312500, 0.0468750, -0.0546875, 0.0156250, 0.0000000, -0.0078125, -0.0390625, 0.0234375, -0.0078125, -0.0234375, -0.0234375, 0.0468750, -0.0078125, -0.0234375, -0.0468750, 0.0234375, -0.0390625, -0.0078125, 0.0156250, 0.0468750, -0.0312500, -0.0078125, 0.0234375, -0.0546875, 0.0234375, 0.0390625, 0.0468750, 0.0234375, -0.0546875, -0.0234375, -0.0234375, 0.0156250, 0.0078125, -0.0156250, 0.0390625, -0.0078125, -0.0468750, 0.0234375, 0.0312500, -0.0078125, -0.0312500, 0.0468750, 0.0468750, 0.0000000, 0.0312500, -0.0234375, -0.0078125, 0.0156250, 0.0000000, 0.0468750, 0.0078125, 0.0078125, 0.0000000, 0.0468750, 0.0078125, 0.0078125, 0.0312500, 0.0312500, 0.0156250, -0.0234375, -0.0078125, -0.0078125, 0.0390625, 0.0234375, 0.0234375, 0.0468750, -0.0156250, -0.0078125, 0.0078125, 0.0000000, -0.0156250, -0.0390625, 0.0312500, -0.0546875, -0.0546875, -0.0468750, 0.0000000, -0.0390625, -0.0390625, -0.0546875, 0.0312500, 0.0468750, -0.0312500, 0.0000000, 0.0000000, 0.0468750, -0.0234375, 0.0000000, -0.0156250, 0.0390625, 0.0000000, 0.0000000, 0.0312500, -0.0312500, -0.0156250, -0.0390625, 0.0312500, -0.0312500, -0.0312500, 0.0078125, 0.0312500, 0.0390625, 0.0468750, -0.0156250, -0.0234375, 0.0234375, -0.0312500, 0.0078125, 0.0000000, 0.0156250, -0.0312500, 0.0390625, 0.0312500, 0.0000000, 0.0000000, 0.0078125, 0.0234375, 0.0156250, -0.0156250, -0.0468750, 0.0234375, -0.0468750, -0.0078125, -0.0468750, 0.0312500, 0.0312500, -0.0156250, -0.0078125, -0.0468750, 0.0000000, 0.0000000, 0.0000000, -0.0468750, 0.0234375, -0.0234375, 0.0000000, 0.0390625, -0.0625000, -0.0625000, 0.0390625, 0.0156250, -0.0156250, -0.0546875, 0.0468750, 0.0234375, -0.0156250, 0.0468750, -0.0156250, 0.0468750, -0.0078125, 0.0000000, 0.0390625, -0.0468750, 0.0234375, 0.0078125, -0.0156250, 0.0078125, -0.0156250, 0.0390625, -0.0234375, -0.0390625, 0.0078125, -0.0468750, -0.0156250, 0.0000000, -0.0156250, -0.0468750, -0.0390625, 0.0468750, 0.0000000, 0.0078125, -0.0312500, -0.0468750, 0.0312500, 0.0234375, -0.0390625, -0.0390625, 0.0078125, -0.0078125, -0.0390625, -0.0156250, 0.0000000, -0.0312500, 0.0234375, 0.0000000, -0.0234375, 0.0156250, -0.0546875, 0.0156250, -0.0468750, -0.0156250, 0.0546875, 0.0156250, -0.0390625, 0.0468750, -0.0078125, -0.0156250, 0.0546875, -0.0312500, 0.0312500, 0.0390625, -0.0078125, 0.0390625, 0.0312500, 0.0078125, -0.0234375, 0.0234375, 0.0390625, -0.0312500, -0.0156250, 0.0156250, 0.0000000, 0.0312500, -0.0234375, -0.0468750, 0.0078125, -0.0234375, 0.0156250, -0.0156250, -0.0312500, 0.0078125, 0.0000000, 0.0312500, -0.0156250, -0.0312500, -0.0468750, -0.0312500, -0.0390625, -0.0234375, 0.0078125, -0.0078125, -0.0546875, -0.0078125, 0.0078125, 0.0000000, -0.0468750, -0.0078125, 0.0468750, 0.0312500, -0.0390625, -0.0468750, 0.0000000, -0.0312500, 0.0234375, 0.0078125, 0.0390625, 0.0156250, -0.0078125, 0.0078125, -0.0078125, 0.0390625, -0.0156250, 0.0234375, 0.0078125, 0.0078125, 0.0078125, -0.0468750, 0.0390625, 0.0156250, 0.0312500, -0.0468750, -0.0234375, 0.0312500, 0.0234375, -0.0390625, 0.0312500, -0.0312500, 0.0234375, -0.0390625, -0.0546875, 0.0234375, 0.0156250, 0.0468750, 0.0312500, 0.0000000, 0.0312500, 0.0234375, 0.0234375, -0.0156250, -0.0078125, 0.0312500, 0.0078125, -0.0078125, -0.0078125, 0.0390625, -0.0312500, 0.0312500, -0.0078125, 0.0156250, -0.0390625, -0.0234375, -0.0156250, 0.0468750, 0.0156250, 0.0234375, -0.0156250, 0.0468750, 0.0234375, 0.0390625, -0.0156250, 0.0390625, 0.0000000, -0.0234375, 0.0000000, 0.0000000, 0.0234375, -0.0234375, -0.0234375, 0.0390625, -0.0078125, -0.0468750, 0.0312500, 0.0000000, -0.0156250, -0.0390625, -0.0468750, 0.0156250, -0.0234375, 0.0234375, 0.0156250, 0.0390625, -0.0546875, -0.0234375, 0.0390625, 0.0234375, 0.0234375, -0.0546875, -0.0078125, -0.0234375, 0.0234375, 0.0546875, 0.0546875, -0.0312500, 0.0078125, -0.0390625, 0.0234375, 0.0468750, -0.0312500, -0.0156250, 0.0468750, -0.0312500, -0.0156250, 0.0468750, 0.0468750, -0.0156250, -0.0390625, 0.0156250, 0.0000000, -0.0312500, -0.0312500, -0.0312500, 0.0156250, 0.0234375, -0.0078125, -0.0312500, 0.0156250, -0.0468750, 0.0390625, 0.0312500, 0.0546875, 0.0390625, 0.0156250, 0.0312500, 0.0234375, 0.0156250, -0.0546875, 0.0234375, -0.0234375, -0.0390625, 0.0234375, 0.0312500, 0.0078125, -0.0078125, -0.0390625, -0.0468750, 0.0234375, -0.0078125, -0.0390625, -0.0234375, -0.0390625, 0.0000000, 0.0078125, 0.0468750, 0.0000000, -0.0312500, -0.0156250, -0.0546875, -0.0312500, -0.0546875, 0.0078125, 0.0078125, 0.0000000, -0.0078125, -0.0234375, -0.0078125, 0.0000000, 0.0546875, -0.0156250, 0.0546875, 0.0156250, 0.0312500, 0.0468750, -0.0546875, -0.0468750, -0.0390625, 0.0000000, -0.0078125, -0.0390625, -0.0312500, -0.0078125, 0.0468750, -0.0078125, -0.0234375, 0.0312500, -0.0312500, 0.0312500, -0.0078125, -0.0078125, 0.0156250, -0.0078125, 0.0390625, 0.0390625, 0.0312500, 0.0000000, -0.0234375, -0.0468750, -0.0156250, -0.0390625, 0.0078125, -0.0156250, 0.0000000, 0.0078125, -0.0156250, -0.0546875, 0.0390625, 0.0234375, 0.0390625, -0.0312500, 0.0000000, -0.0468750, 0.0546875, 0.0312500, 0.0000000, 0.0156250, -0.0156250, -0.0156250, 0.0468750, 0.0468750, 0.0390625, 0.0390625, -0.0078125, -0.0078125, 0.0156250, 0.0234375, 0.0000000, -0.0078125, 0.0156250, -0.0390625, 0.0312500, -0.0312500, 0.0390625, 0.0156250, -0.0078125, -0.0156250, 0.0625000, 0.0078125, -0.0234375, 0.0234375, 0.0078125, 0.0234375, 0.0312500, -0.0390625, 0.0468750, 0.0078125, 0.0000000, 0.0156250, 0.0234375, -0.0234375, -0.0156250, 0.0156250, -0.0468750, 0.0078125, 0.0234375, 0.0390625, 0.0468750, -0.0234375, -0.0390625, -0.0312500, -0.0468750, -0.0156250, 0.0078125, -0.0546875, 0.0234375, 0.0312500, 0.0468750, -0.0156250, -0.0390625, -0.0234375, -0.0078125, 0.0156250, 0.0390625, -0.0312500, -0.0156250, -0.0234375, 0.0312500, 0.0468750, 0.0312500, 0.0312500, 0.0312500, 0.0390625, -0.0468750, 0.0390625, -0.0234375, -0.0390625, 0.0000000, 0.0312500, 0.0468750, 0.0078125, 0.0312500, 0.0390625, -0.0468750, -0.0390625, 0.0390625, -0.0156250, -0.0312500, 0.0078125, -0.0312500, 0.0234375, 0.0078125, -0.0312500, -0.0390625, -0.0234375, -0.0234375, -0.0156250, -0.0156250, -0.0546875, -0.0234375, 0.0234375, -0.0390625, -0.0468750, -0.0156250, 0.0000000, 0.0000000, -0.0156250, -0.0156250, 0.0234375, 0.0234375, 0.0000000, -0.0546875, 0.0312500, -0.0156250, 0.0234375, -0.0390625, -0.0078125, 0.0000000, -0.0312500, 0.0312500, -0.0468750, 0.0312500, 0.0468750, -0.0234375, 0.0156250, 0.0000000, 0.0156250, -0.0156250, 0.0390625, 0.0312500, 0.0000000, -0.0312500, -0.0078125, -0.0312500, 0.0234375, 0.0156250, 0.0156250, -0.0546875, -0.0468750, -0.0312500, -0.0156250, 0.0390625, -0.0312500, 0.0390625, -0.0390625, 0.0312500, 0.0390625, 0.0390625, 0.0234375, 0.0312500, 0.0312500, 0.0156250, -0.0156250, -0.0312500, 0.0312500, -0.0312500, 0.0078125, -0.0234375, 0.0000000, 0.0234375, -0.0468750, 0.0312500, -0.0468750, -0.0546875, -0.0312500, -0.0312500, -0.0312500, -0.0078125, 0.0312500, -0.0234375, -0.0078125, 0.0390625, 0.0468750, -0.0234375, 0.0078125, -0.0078125, -0.0234375, -0.0390625, -0.0312500, -0.0546875, 0.0234375, 0.0546875, -0.0234375, 0.0468750, 0.0000000, -0.0078125, -0.0234375, 0.0468750, 0.0156250, -0.0234375, 0.0312500, 0.0468750, 0.0546875, 0.0078125, 0.0078125, -0.0546875, 0.0078125, 0.0390625, 0.0000000, 0.0078125, -0.0546875, 0.0234375, -0.0390625, 0.0234375, -0.0312500, -0.0468750, 0.0312500, -0.0156250, 0.0468750, -0.0312500, -0.0234375, -0.0468750, -0.0078125, -0.0234375, -0.0078125, 0.0156250, 0.0468750, -0.0234375, 0.0078125, 0.0468750, -0.0156250, -0.0234375, -0.0078125, 0.0156250, -0.0234375, -0.0234375, 0.0468750, 0.0156250, -0.0312500, 0.0468750, 0.0468750, 0.0312500, 0.0312500, 0.0000000, 0.0156250, 0.0468750, -0.0312500, 0.0312500, -0.0078125, 0.0234375, 0.0468750, 0.0234375, -0.0390625, -0.0078125, -0.0546875, -0.0078125, 0.0156250, 0.0156250, -0.0312500, -0.0234375, 0.0234375, 0.0468750, -0.0390625, 0.0390625, -0.0156250, 0.0234375, 0.0312500, 0.0000000, 0.0156250, -0.0312500, -0.0156250, 0.0390625, 0.0234375, -0.0234375, -0.0156250, 0.0546875, -0.0546875, 0.0390625, -0.0312500, 0.0234375, 0.0000000, -0.0234375, -0.0156250, 0.0312500, -0.0546875, -0.0234375, -0.0312500, -0.0390625, 0.0234375, -0.0546875, 0.0078125, -0.0546875, -0.0390625, 0.0078125, 0.0078125, 0.0000000, -0.0312500, 0.0156250, 0.0156250, 0.0078125, 0.0390625, 0.0546875, 0.0156250, -0.0312500, 0.0390625, 0.0234375, -0.0390625, -0.0468750, 0.0390625, -0.0234375, 0.0000000, 0.0390625, 0.0390625, -0.0078125, -0.0546875, -0.0234375, 0.0312500, 0.0156250, -0.0312500, 0.0078125, 0.0156250, -0.0312500, 0.0078125, 0.0078125, 0.0468750, -0.0390625, 0.0312500, 0.0156250, 0.0234375, 0.0078125, 0.0234375, 0.0000000, 0.0312500, 0.0312500, 0.0468750, 0.0390625, 0.0312500, 0.0312500, 0.0000000, -0.0234375, -0.0468750, 0.0078125, -0.0312500, -0.0546875, 0.0234375, -0.0312500, -0.0468750, 0.0078125, 0.0156250, -0.0468750, 0.0312500, -0.0468750, -0.0234375, 0.0078125, -0.0078125, -0.0078125, 0.0390625, -0.0312500, -0.0390625, -0.0156250, 0.0390625, -0.0546875, 0.0234375, -0.0468750, -0.0078125, -0.0312500, 0.0000000, 0.0390625, 0.0312500, 0.0468750, -0.0078125, -0.0390625, 0.0000000, -0.0078125, 0.0000000, -0.0078125, -0.0468750, 0.0234375, 0.0390625, -0.0468750, -0.0234375, 0.0234375, -0.0156250, -0.0468750, -0.0234375, 0.0312500, 0.0390625, -0.0468750, -0.0546875, 0.0390625, -0.0546875, 0.0312500, -0.0078125, -0.0312500, 0.0390625, -0.0546875, -0.0078125, -0.0546875, -0.0390625, 0.0390625, -0.0156250, 0.0078125, -0.0390625, -0.0234375, 0.0078125, 0.0312500, 0.0000000, 0.0156250, -0.0078125, 0.0312500, 0.0234375, -0.0312500, -0.0156250, 0.0390625, -0.0156250, -0.0234375, 0.0312500, -0.0234375, -0.0156250, 0.0390625, 0.0234375, 0.0234375, -0.0546875, -0.0312500, 0.0078125, 0.0234375, 0.0000000, 0.0078125, -0.0546875, 0.0156250, 0.0000000, -0.0546875, 0.0312500, 0.0468750, -0.0234375, 0.0312500, 0.0000000, 0.0468750, -0.0468750, -0.0468750, 0.0468750, -0.0156250, -0.0468750, 0.0234375, 0.0000000, -0.0078125, -0.0312500, -0.0156250, 0.0000000, -0.0078125, 0.0078125, -0.0234375, 0.0234375, -0.0312500, 0.0156250, 0.0468750, 0.0000000, -0.0078125, 0.0078125, 0.0390625, 0.0390625, -0.0156250, -0.0078125, -0.0468750, 0.0234375, 0.0312500, -0.0546875, -0.0312500, 0.0468750, 0.0078125, 0.0078125, -0.0234375, -0.0390625, 0.0390625, -0.0468750, 0.0156250, -0.0156250, -0.0156250, 0.0078125, 0.0078125, 0.0390625, -0.0078125, 0.0078125, -0.0078125, 0.0390625, 0.0390625, 0.0468750, -0.0468750, 0.0546875, -0.0078125, 0.0390625, -0.0468750, -0.0468750, -0.0546875, -0.0156250, 0.0390625, -0.0390625, 0.0000000, -0.0156250, 0.0078125, -0.0390625, 0.0078125, -0.0468750, 0.0312500, 0.0156250, -0.0468750, -0.0156250, -0.0234375, -0.0468750, -0.0468750, 0.0312500, 0.0390625, -0.0312500, 0.0234375, 0.0390625, 0.0234375, -0.0312500, -0.0312500, 0.0468750, 0.0000000, -0.0234375, 0.0468750, -0.0234375, 0.0312500, 0.0156250, 0.0468750, 0.0234375, 0.0000000, -0.0468750, -0.0546875, -0.0078125, 0.0312500, 0.0390625, -0.0390625, 0.0390625, -0.0390625, 0.0312500, -0.0468750, -0.0546875, -0.0234375, -0.0468750, 0.0234375, -0.0312500, -0.0156250, -0.0078125, 0.0156250, -0.0234375, -0.0546875, -0.0390625, 0.0000000, -0.0156250, 0.0390625, -0.0156250, 0.0312500, 0.0312500, -0.0156250, -0.0468750, -0.0390625, 0.0312500, -0.0234375, 0.0390625, 0.0234375, -0.0468750, -0.0546875, -0.0546875, -0.0078125, 0.0078125, -0.0078125, -0.0312500, -0.0156250, -0.0234375, 0.0000000, -0.0234375, 0.0468750, 0.0234375, 0.0078125, -0.0546875, 0.0078125, 0.0390625, 0.0312500, 0.0234375, -0.0312500, 0.0156250, -0.0156250, -0.0468750, 0.0390625, -0.0468750, -0.0468750, 0.0312500, 0.0000000, -0.0312500, -0.0312500, -0.0312500, -0.0156250, -0.0468750, 0.0156250, -0.0078125, -0.0234375, 0.0468750, -0.0390625, 0.0312500, 0.0078125, 0.0312500, -0.0546875, 0.0468750, -0.0390625, -0.0468750, 0.0156250, -0.0234375, -0.0390625, 0.0390625, -0.0312500, -0.0078125, -0.0312500, 0.0156250, 0.0156250, 0.0312500, -0.0078125, 0.0468750, 0.0468750, 0.0078125, -0.0468750, -0.0234375, 0.0156250, 0.0078125, 0.0234375, -0.0468750, -0.0312500, 0.0312500, -0.0234375, 0.0312500, -0.0234375, 0.0078125, 0.0156250, 0.0000000, -0.0078125, -0.0390625, 0.0000000, -0.0078125, 0.0312500, -0.0468750, -0.0156250, -0.0234375, -0.0234375, -0.0468750, 0.0546875, 0.0078125, -0.0078125, -0.0234375, 0.0390625, 0.0468750, 0.0390625, 0.0234375, 0.0468750, 0.0468750, 0.0234375, 0.0234375, -0.0078125, 0.0390625, 0.0234375, 0.0312500, -0.0390625, 0.0078125, 0.0390625, -0.0468750, -0.0468750, 0.0156250, -0.0468750, -0.0468750, 0.0078125, -0.0468750, 0.0078125, -0.0234375, -0.0546875, -0.0390625, -0.0312500, 0.0390625, -0.0078125, -0.0234375, -0.0156250, -0.0312500, -0.0546875, -0.0468750, -0.0468750, 0.0078125, -0.0546875, 0.0156250, -0.0234375, -0.0390625, -0.0390625, 0.0000000, 0.0468750, 0.0156250, 0.0000000, -0.0390625, -0.0156250, 0.0000000, -0.0468750, -0.0390625, -0.0234375, -0.0078125, 0.0234375, 0.0156250, -0.0156250, 0.0078125, -0.0234375, -0.0156250, 0.0000000, 0.0390625, -0.0156250, -0.0468750, 0.0390625, 0.0078125, -0.0390625, 0.0390625, 0.0234375, 0.0390625, 0.0000000, -0.0156250, 0.0468750, 0.0156250, -0.0468750, 0.0390625, -0.0234375, -0.0156250, 0.0312500, 0.0468750, 0.0156250, -0.0390625, 0.0312500, -0.0234375, 0.0390625, -0.0156250, 0.0000000, 0.0078125, 0.0390625, 0.0156250, -0.0078125, 0.0000000, -0.0468750, -0.0234375, 0.0000000, -0.0078125, 0.0078125, -0.0234375, -0.0546875, 0.0078125, 0.0078125, 0.0000000, 0.0000000, -0.0078125, -0.0468750, -0.0156250, -0.0468750, -0.0546875, 0.0390625, 0.0468750, -0.0078125, 0.0078125, -0.0312500, 0.0000000, 0.0234375, 0.0234375, -0.0156250, -0.0078125, -0.0234375, -0.0156250, -0.0234375, 0.0468750, 0.0000000, 0.0234375, 0.0000000, 0.0078125, 0.0078125, 0.0156250, 0.0156250, 0.0156250, -0.0312500, 0.0000000, 0.0078125, -0.0234375, 0.0390625, -0.0234375, 0.0000000, 0.0312500, -0.0312500, -0.0312500, 0.0234375, 0.0390625, 0.0000000, -0.0078125, -0.0312500, 0.0390625, -0.0390625, -0.0234375, -0.0234375, 0.0078125, -0.0390625, 0.0000000, 0.0000000, 0.0468750, 0.0000000, 0.0234375, -0.0078125, -0.0468750, -0.0390625, 0.0234375, 0.0078125, -0.0156250, 0.0390625, 0.0156250, -0.0234375, -0.0312500, -0.0312500, 0.0156250, 0.0000000, -0.0546875, -0.0546875, -0.0312500, -0.0234375, 0.0234375, 0.0312500, 0.0312500, -0.0234375, -0.0312500, 0.0078125, 0.0078125, -0.0468750, 0.0390625, -0.0156250, 0.0234375, -0.0234375, -0.0390625, 0.0234375, -0.0078125, 0.0000000, -0.0078125, 0.0312500, -0.0156250, 0.0156250, -0.0468750, -0.0078125, -0.0468750, -0.0234375, 0.0312500, -0.0546875, -0.0312500, -0.0390625, -0.0078125, -0.0390625, 0.0156250, 0.0390625, -0.0312500, 0.0546875, 0.0078125, -0.0390625, 0.0468750, 0.0156250, 0.0000000, -0.0390625, 0.0234375, 0.0312500, 0.0390625, -0.0078125, 0.0234375, 0.0000000, 0.0156250, 0.0312500, -0.0234375, 0.0312500, 0.0000000, -0.0234375, -0.0546875, 0.0156250, 0.0234375, -0.0078125, -0.0390625, 0.0234375, 0.0546875, -0.0390625, 0.0546875, 0.0000000, -0.0312500, 0.0000000, -0.0312500, -0.0078125, 0.0156250, -0.0156250, 0.0312500, -0.0156250, -0.0468750, -0.0156250, 0.0546875, 0.0234375, 0.0234375, 0.0078125, 0.0078125, 0.0390625, 0.0312500, -0.0468750, 0.0390625, -0.0156250, 0.0078125, 0.0390625, 0.0000000, 0.0234375, -0.0078125, 0.0156250, 0.0312500, -0.0546875, -0.0078125, -0.0468750, -0.0468750, -0.0468750, 0.0000000, 0.0000000, -0.0234375, 0.0234375, -0.0078125, -0.0234375, -0.0234375, -0.0078125, 0.0312500, -0.0468750, -0.0234375, 0.0156250, 0.0390625, -0.0078125, 0.0000000, 0.0156250, 0.0078125, -0.0078125, 0.0468750, -0.0234375, -0.0312500, 0.0156250, 0.0078125, -0.0390625, -0.0156250, 0.0390625, -0.0078125, -0.0312500, 0.0078125, -0.0156250, 0.0390625, 0.0156250, 0.0078125, -0.0156250, 0.0468750, 0.0156250, -0.0156250, 0.0390625, 0.0390625, -0.0156250, -0.0390625, 0.0078125, 0.0468750, 0.0000000, 0.0234375, 0.0078125, -0.0156250, -0.0312500, 0.0156250, 0.0000000, -0.0234375, -0.0234375, 0.0234375, -0.0234375, -0.0156250, 0.0000000, -0.0390625, 0.0156250, 0.0312500, -0.0156250, -0.0312500, -0.0390625, -0.0156250, -0.0078125, -0.0156250, 0.0468750, 0.0390625, 0.0156250, 0.0000000, -0.0312500, 0.0468750, 0.0390625, 0.0312500, 0.0468750, -0.0546875, -0.0312500, -0.0312500, 0.0234375, -0.0078125, -0.0234375, -0.0078125, -0.0234375, 0.0078125, -0.0156250, -0.0156250, 0.0078125, 0.0000000, 0.0390625, -0.0234375, -0.0312500, 0.0234375, -0.0390625, -0.0468750, 0.0000000, 0.0390625, 0.0390625, -0.0468750, -0.0468750, 0.0156250, -0.0468750, -0.0078125, 0.0000000, -0.0312500, -0.0156250, -0.0390625, -0.0312500, -0.0546875, 0.0234375, -0.0156250, 0.0234375, -0.0078125, 0.0468750, 0.0390625, -0.0390625, 0.0390625, -0.0312500, 0.0390625, -0.0312500, -0.0234375, -0.0546875, -0.0312500, -0.0156250, 0.0156250, -0.0546875, -0.0078125, 0.0312500, 0.0468750, 0.0390625, 0.0000000, 0.0312500, -0.0546875, 0.0390625, 0.0390625, 0.0312500, -0.0546875, 0.0312500, 0.0000000, 0.0468750, -0.0234375, -0.0156250, -0.0312500, -0.0390625, -0.0546875, 0.0000000, 0.0546875, -0.0078125, 0.0468750, -0.0312500, -0.0312500, -0.0078125, 0.0234375, 0.0390625, 0.0078125, -0.0312500, 0.0156250, 0.0078125, -0.0234375, 0.0000000, 0.0000000, -0.0312500, 0.0390625, 0.0000000, -0.0468750, 0.0000000, 0.0390625, 0.0468750, -0.0234375, 0.0390625, -0.0312500, -0.0156250, -0.0390625, -0.0390625, -0.0546875, -0.0078125, 0.0000000, 0.0312500, 0.0000000, -0.0078125, 0.0312500, -0.0234375, -0.0234375, 0.0234375, 0.0312500, -0.0546875, -0.0390625, -0.0546875, 0.0390625, 0.0156250, -0.0156250, 0.0078125, -0.0390625, 0.0390625, 0.0078125, 0.0000000, 0.0390625, -0.0156250, 0.0390625, -0.0390625, 0.0000000, -0.0078125, 0.0390625, 0.0234375, -0.0078125, -0.0078125, -0.0234375, 0.0078125, -0.0234375, 0.0000000, 0.0234375, -0.0390625, -0.0390625, -0.0468750, 0.0000000, 0.0156250, -0.0078125, -0.0468750, -0.0156250, 0.0468750, 0.0234375, -0.0468750, 0.0390625, -0.0312500, 0.0156250, 0.0312500, -0.0078125, 0.0234375, -0.0078125, -0.0312500, 0.0234375, 0.0078125, -0.0156250, 0.0390625, -0.0234375, -0.0546875, -0.0312500, -0.0234375, 0.0156250, 0.0468750, 0.0468750, 0.0000000, -0.0546875, -0.0546875, 0.0078125, -0.0468750, -0.0156250, -0.0390625, 0.0468750, 0.0546875, 0.0468750, -0.0312500, 0.0234375, 0.0078125, 0.0000000, 0.0312500, 0.0078125, -0.0156250, -0.0234375, -0.0468750, 0.0312500, 0.0078125, 0.0468750, -0.0078125, -0.0468750, 0.0156250, -0.0156250, 0.0390625, 0.0390625, -0.0312500, -0.0468750, -0.0625000, -0.0234375, -0.0390625, 0.0000000, -0.0546875, -0.0234375, 0.0078125, -0.0078125, -0.0234375, 0.0000000, 0.0468750, 0.0312500, -0.0390625, -0.0546875, 0.0312500, -0.0546875, 0.0156250, -0.0156250, -0.0468750, -0.0390625, 0.0156250, -0.0546875, -0.0156250, 0.0390625, -0.0390625, 0.0312500, 0.0234375, -0.0078125, -0.0156250, 0.0234375, -0.0390625, 0.0156250, -0.0312500, 0.0312500, -0.0234375, 0.0468750, 0.0468750, 0.0000000, 0.0156250, -0.0390625, 0.0312500, 0.0468750, 0.0312500, -0.0312500, 0.0390625, 0.0156250, -0.0468750, 0.0234375, -0.0312500, 0.0078125, -0.0390625, 0.0468750, -0.0468750, -0.0234375, -0.0312500, 0.0000000, -0.0078125, 0.0390625, -0.0156250, 0.0234375, 0.0156250, -0.0078125, 0.0312500, 0.0078125, 0.0234375, -0.0078125, 0.0312500, -0.0546875, -0.0078125, -0.0468750, 0.0468750, 0.0312500, -0.0390625, -0.0468750, 0.0156250, 0.0390625, -0.0156250, 0.0468750, -0.0156250, -0.0312500, 0.0234375, 0.0468750, 0.0312500, -0.0468750, 0.0000000, -0.0234375, -0.0312500, 0.0390625, 0.0000000, -0.0234375, 0.0234375, 0.0234375, -0.0468750, -0.0468750, 0.0312500, -0.0312500, -0.0390625, -0.0312500, -0.0312500, -0.0156250, 0.0390625, 0.0312500, 0.0468750, -0.0156250, -0.0312500, 0.0468750, 0.0312500, -0.0390625, 0.0000000, -0.0468750, -0.0468750, -0.0078125, -0.0546875, 0.0156250, -0.0312500, 0.0468750, -0.0234375, 0.0468750, -0.0390625, 0.0078125, 0.0000000, 0.0156250, 0.0156250, -0.0078125, -0.0234375, -0.0390625, -0.0312500, -0.0390625, 0.0078125, -0.0234375, 0.0234375, -0.0312500, 0.0000000, 0.0078125, 0.0468750, 0.0156250, 0.0468750, 0.0000000, -0.0312500, -0.0234375, 0.0078125, -0.0312500, -0.0234375, -0.0234375, -0.0390625, -0.0156250, 0.0234375, -0.0312500, -0.0390625, 0.0000000, -0.0312500, -0.0156250, 0.0078125, 0.0468750, 0.0234375, -0.0156250, -0.0156250, 0.0468750, -0.0234375, 0.0078125, -0.0078125, 0.0312500, 0.0000000, 0.0390625, 0.0390625, 0.0000000, -0.0390625, -0.0078125, -0.0390625, -0.0546875, -0.0234375, -0.0390625, 0.0234375, 0.0156250, -0.0390625, 0.0234375, 0.0156250, 0.0546875, 0.0156250, -0.0390625, 0.0390625, -0.0312500, 0.0234375, 0.0546875, 0.0234375, 0.0156250, 0.0390625, 0.0312500, -0.0546875, -0.0390625, 0.0468750, -0.0234375, 0.0312500, -0.0078125, 0.0312500, -0.0468750, 0.0390625, 0.0156250, -0.0546875, -0.0390625, 0.0156250, -0.0390625, -0.0234375, 0.0390625, -0.0234375, 0.0000000, 0.0156250, -0.0078125, -0.0546875, 0.0156250, 0.0312500, -0.0312500, 0.0390625, -0.0234375, -0.0234375, -0.0390625, -0.0468750, -0.0078125, -0.0390625, 0.0000000, 0.0078125, -0.0312500, 0.0312500, 0.0000000, -0.0546875, -0.0546875, -0.0312500, -0.0468750, -0.0312500, -0.0156250, -0.0156250, 0.0078125, 0.0312500, -0.0234375, -0.0234375, 0.0390625, 0.0390625, -0.0546875, -0.0390625, -0.0156250, -0.0390625, 0.0234375, -0.0468750, 0.0234375, 0.0546875, 0.0234375, -0.0078125, 0.0312500, 0.0078125, -0.0078125, -0.0390625, 0.0234375, 0.0000000, 0.0234375, -0.0390625, -0.0390625, 0.0312500, 0.0312500, -0.0546875, -0.0234375, 0.0234375, -0.0156250, -0.0234375, 0.0234375, -0.0312500, 0.0234375, 0.0312500, -0.0078125, -0.0312500, -0.0390625, -0.0078125, -0.0234375, 0.0000000, 0.0156250, -0.0390625, 0.0468750, 0.0468750, 0.0234375, -0.0468750, 0.0390625, 0.0468750, 0.0390625, -0.0468750, 0.0234375, 0.0234375, -0.0312500, 0.0390625, -0.0546875, -0.0390625, -0.0156250, -0.0078125, 0.0234375, -0.0234375, 0.0312500, -0.0390625, -0.0312500, 0.0234375, 0.0234375, -0.0078125, 0.0000000, 0.0390625, 0.0000000, -0.0312500, -0.0234375, 0.0234375, 0.0234375, 0.0000000, -0.0312500, 0.0468750, 0.0156250, 0.0156250, 0.0234375, -0.0312500, -0.0078125, 0.0156250, 0.0000000, -0.0156250, 0.0000000, -0.0312500, -0.0546875, -0.0234375, -0.0234375, 0.0546875, 0.0000000, 0.0156250, 0.0234375, -0.0468750, -0.0156250, 0.0156250, 0.0468750, 0.0234375, -0.0312500, 0.0234375, -0.0468750, -0.0078125, 0.0000000, -0.0390625, 0.0156250, -0.0234375, -0.0156250, 0.0468750, 0.0468750, -0.0312500, 0.0312500, -0.0390625, -0.0156250, -0.0312500, -0.0546875, -0.0625000, 0.0000000, 0.0156250, 0.0390625, 0.0156250, -0.0312500, 0.0078125, -0.0078125, -0.0234375, -0.0156250, 0.0156250, 0.0000000, 0.0078125, 0.0156250, -0.0390625, -0.0078125, 0.0312500, -0.0546875, 0.0468750, -0.0390625, -0.0468750, 0.0234375, -0.0312500, 0.0312500, 0.0234375, 0.0390625, -0.0234375, 0.0390625, 0.0078125, -0.0234375, 0.0468750, 0.0000000, 0.0390625, 0.0390625, 0.0078125, -0.0156250, 0.0234375, -0.0156250, -0.0546875, 0.0312500, 0.0078125, -0.0078125, 0.0078125, 0.0156250, -0.0312500, -0.0468750, 0.0000000, 0.0000000, 0.0390625, -0.0156250, 0.0312500, -0.0312500, -0.0625000, -0.0156250, -0.0234375, 0.0468750, -0.0468750, 0.0234375, 0.0546875, -0.0078125, -0.0546875, -0.0312500, 0.0390625, -0.0234375, -0.0312500, 0.0078125, -0.0390625, 0.0078125, 0.0390625, 0.0312500, 0.0390625, -0.0156250, 0.0156250, -0.0078125, -0.0390625, -0.0312500, 0.0390625, -0.0312500, -0.0312500, 0.0390625, -0.0546875, 0.0156250, 0.0156250, -0.0078125, -0.0234375, 0.0312500, 0.0468750, -0.0546875, 0.0390625, 0.0390625, 0.0156250, 0.0312500, 0.0156250, -0.0312500, 0.0312500, -0.0468750, -0.0234375, 0.0234375, -0.0468750, -0.0156250, -0.0078125, 0.0546875, 0.0000000, -0.0234375, -0.0156250, -0.0156250, 0.0000000, 0.0468750, 0.0234375, -0.0312500, -0.0546875, -0.0078125, -0.0468750, -0.0234375, 0.0078125, 0.0078125, -0.0078125, 0.0546875, -0.0234375, -0.0078125, -0.0312500, -0.0234375, -0.0390625, 0.0234375, -0.0234375, 0.0078125, -0.0234375, 0.0156250, 0.0156250, -0.0390625, 0.0312500, 0.0234375, 0.0468750, -0.0234375, 0.0468750, 0.0078125, -0.0312500, -0.0468750, 0.0390625, 0.0390625, -0.0234375, -0.0156250, -0.0390625, -0.0312500, -0.0468750, 0.0468750, -0.0468750, 0.0000000, 0.0078125, -0.0078125, 