//Numpy array shape [32, 5]
//Min -0.562500000000
//Max 0.523437500000
//Number of zeros 2

#ifndef W18_H_
#define W18_H_

#ifndef __SYNTHESIS__
weight18_t w18[160];
#else
weight18_t w18[160] = {-0.0468750, -0.1250000, -0.3281250, -0.4062500, -0.0859375, 0.2187500, -0.3046875, 0.1953125, 0.3515625, 0.3046875, -0.1015625, -0.1015625, 0.1093750, -0.2656250, -0.1093750, 0.1718750, -0.1406250, 0.0937500, 0.0546875, -0.0078125, -0.4765625, -0.4062500, -0.2109375, -0.0312500, 0.0781250, 0.0781250, 0.0234375, 0.0390625, -0.2265625, 0.1406250, -0.2578125, 0.4296875, -0.3671875, 0.2031250, -0.2031250, 0.3593750, 0.1796875, 0.2656250, 0.2031250, -0.3750000, 0.5234375, 0.0312500, 0.0859375, -0.2578125, -0.1640625, -0.1093750, -0.4921875, 0.2031250, 0.4687500, -0.1796875, 0.0156250, 0.3125000, 0.0000000, -0.0234375, 0.2890625, 0.2109375, -0.0468750, -0.3203125, 0.0546875, 0.3593750, 0.2656250, 0.2109375, 0.3671875, -0.0312500, -0.2031250, 0.3437500, 0.2968750, -0.1015625, 0.0390625, 0.1328125, -0.3203125, -0.1484375, 0.0156250, 0.2578125, -0.0625000, -0.0312500, 0.2500000, -0.2890625, -0.1250000, -0.2500000, 0.2968750, 0.0234375, -0.2265625, -0.3750000, -0.0078125, 0.1406250, -0.1718750, 0.0703125, -0.3593750, -0.2343750, 0.1171875, -0.0234375, 0.0000000, -0.2031250, 0.1718750, -0.3046875, 0.2109375, 0.0625000, 0.1796875, -0.0234375, -0.3203125, 0.0312500, -0.3046875, -0.1093750, 0.1562500, -0.0703125, 0.0937500, -0.2265625, 0.1796875, 0.1171875, 0.1406250, 0.4843750, -0.2656250, -0.0625000, -0.2578125, 0.2500000, -0.1796875, 0.2656250, 0.2812500, -0.1015625, -0.0468750, -0.2890625, 0.3750000, 0.1484375, -0.2109375, -0.0625000, -0.0078125, 0.2343750, -0.2109375, -0.4453125, -0.0703125, -0.2812500, -0.2500000, 0.2421875, 0.2187500, 0.1015625, -0.2500000, -0.1406250, 0.1718750, 0.0234375, -0.0390625, 0.2109375, 0.1953125, -0.1406250, 0.3203125, -0.0937500, -0.5625000, 0.4140625, 0.1015625, -0.0078125, -0.3593750, 0.4765625, 0.0468750, -0.2031250, 0.3671875, -0.2109375, -0.1875000, -0.0859375, 0.3281250, -0.0703125};
#endif

#endif
