//Numpy array shape [3, 3, 8, 16]
//Min -0.179687500000
//Max 0.171875000000
//Number of zeros 22

#ifndef W6_H_
#define W6_H_

#ifndef __SYNTHESIS__
weight6_t w6[1152];
#else
weight6_t w6[1152] = {0.0781250, -0.0781250, -0.1093750, -0.1328125, -0.0078125, -0.1406250, -0.0156250, 0.1093750, 0.0468750, 0.1171875, -0.0937500, -0.0234375, 0.1328125, -0.0546875, -0.1562500, -0.0468750, -0.0546875, -0.0156250, 0.1171875, 0.0546875, 0.0859375, -0.0468750, -0.1796875, 0.1250000, 0.0781250, 0.0312500, -0.0468750, -0.1484375, -0.0468750, -0.0546875, -0.0859375, -0.1093750, -0.0703125, -0.0078125, -0.1562500, 0.0000000, -0.0937500, 0.0859375, 0.0937500, -0.1171875, 0.0703125, 0.1015625, -0.1640625, -0.0546875, 0.0546875, 0.1093750, -0.0234375, 0.0390625, 0.1015625, 0.0234375, 0.1562500, 0.1328125, -0.1640625, 0.0781250, 0.1406250, 0.0625000, -0.1484375, -0.0625000, 0.0781250, 0.0937500, -0.0546875, 0.0859375, -0.0546875, -0.1171875, 0.0000000, -0.1406250, 0.1406250, -0.0390625, -0.1015625, 0.0468750, 0.1093750, 0.0234375, 0.0468750, 0.0468750, 0.1484375, 0.0859375, -0.0312500, 0.0625000, 0.1406250, 0.0156250, -0.1718750, 0.0703125, 0.0234375, -0.1562500, 0.0000000, -0.1250000, -0.0156250, -0.0078125, -0.1484375, -0.0781250, -0.0312500, 0.0312500, -0.1562500, 0.1328125, 0.0156250, -0.1484375, -0.0468750, 0.1406250, -0.1250000, 0.1406250, -0.1093750, 0.0234375, 0.1328125, 0.0078125, -0.1406250, -0.1328125, 0.0937500, 0.0859375, 0.0859375, 0.0546875, 0.1640625, 0.1171875, 0.1406250, -0.0546875, -0.0859375, 0.1640625, -0.1093750, 0.1484375, -0.0703125, -0.1562500, -0.0781250, 0.1171875, 0.1015625, 0.1015625, -0.0703125, 0.0625000, -0.0312500, 0.0703125, -0.1171875, -0.0156250, 0.0625000, 0.1171875, -0.1640625, 0.0078125, 0.1093750, -0.1328125, 0.0468750, -0.0781250, -0.0859375, 0.0781250, 0.0703125, 0.1015625, 0.1484375, 0.0468750, -0.1718750, -0.0078125, 0.0937500, -0.0625000, -0.1250000, 0.1406250, -0.0390625, 0.0390625, -0.0156250, 0.1250000, 0.0000000, 0.1406250, 0.0390625, 0.1171875, -0.0546875, 0.0468750, -0.0156250, 0.1562500, -0.1640625, 0.1093750, 0.0703125, -0.0859375, -0.0156250, -0.0468750, 0.1093750, 0.1484375, 0.1250000, -0.0078125, 0.0546875, 0.1328125, 0.0390625, -0.0781250, -0.0468750, 0.0312500, -0.0937500, -0.1250000, -0.1562500, 0.0625000, -0.0546875, 0.1171875, 0.1484375, 0.0859375, 0.0156250, -0.0156250, -0.0781250, 0.0625000, -0.1171875, -0.0859375, 0.1015625, -0.0937500, 0.1484375, -0.0859375, 0.1484375, -0.1250000, 0.0312500, 0.0859375, -0.0937500, -0.0156250, 0.1171875, -0.0781250, 0.0234375, 0.0546875, 0.0546875, 0.0390625, -0.0468750, 0.1328125, -0.1250000, 0.0312500, 0.1250000, -0.0390625, -0.0546875, 0.1015625, -0.0390625, -0.0078125, 0.0859375, -0.1640625, 0.0312500, -0.0468750, -0.0703125, 0.1328125, -0.0156250, 0.0703125, 0.0312500, -0.0546875, 0.1484375, -0.0156250, -0.0078125, 0.0468750, 0.1328125, 0.1562500, 0.1718750, -0.1015625, 0.1562500, 0.1406250, -0.1406250, 0.0468750, -0.0625000, -0.1718750, 0.0156250, -0.0703125, 0.0625000, -0.0937500, -0.1328125, 0.1718750, -0.0234375, -0.1640625, 0.1250000, 0.1484375, 0.0468750, -0.1015625, -0.0625000, -0.1640625, 0.0078125, 0.1328125, 0.1250000, -0.0078125, -0.1406250, -0.1406250, 0.0625000, -0.1171875, 0.0625000, -0.0078125, -0.1250000, -0.0703125, 0.1171875, 0.1015625, 0.0625000, 0.0937500, 0.1640625, -0.0859375, 0.1171875, 0.0078125, 0.0234375, -0.1015625, 0.1015625, 0.1015625, 0.0859375, 0.1406250, 0.1250000, -0.0703125, 0.0546875, -0.1484375, 0.0078125, 0.0937500, 0.0468750, -0.0546875, -0.0625000, 0.0859375, -0.0312500, 0.0937500, 0.1406250, 0.0781250, 0.1562500, -0.1406250, -0.0468750, -0.1406250, 0.0546875, -0.1015625, 0.0937500, 0.1250000, -0.1250000, -0.1406250, -0.0546875, 0.1015625, -0.0703125, 0.0781250, 0.0078125, -0.0078125, -0.0468750, 0.1484375, -0.0937500, 0.0156250, 0.0625000, 0.0078125, -0.1562500, -0.0781250, -0.1328125, 0.0312500, -0.0234375, -0.1484375, -0.1171875, -0.1093750, 0.1093750, -0.1250000, 0.1250000, -0.1093750, -0.1015625, 0.0078125, 0.0312500, -0.0468750, 0.0390625, -0.1328125, -0.0312500, -0.0625000, -0.0468750, -0.1250000, -0.0625000, 0.0468750, 0.0390625, -0.1328125, -0.0468750, 0.0937500, 0.0937500, -0.0234375, 0.0390625, 0.0625000, 0.1562500, -0.0390625, 0.0000000, 0.0468750, -0.0937500, 0.1171875, 0.1171875, 0.0859375, -0.1015625, 0.1406250, 0.0078125, 0.1250000, -0.0468750, -0.0156250, 0.0625000, -0.0234375, -0.1328125, -0.0937500, -0.0312500, 0.1250000, -0.0156250, -0.0546875, 0.0234375, -0.1640625, 0.0390625, 0.0703125, -0.0156250, 0.0000000, -0.1484375, -0.0859375, -0.1562500, 0.0234375, -0.1171875, 0.0703125, 0.1406250, -0.0781250, 0.0625000, 0.1250000, -0.0546875, 0.1250000, 0.0703125, 0.0546875, -0.0859375, -0.1328125, 0.0312500, -0.0156250, 0.1406250, 0.1562500, -0.1406250, -0.0937500, 0.1015625, 0.1250000, 0.0546875, -0.1484375, 0.0390625, -0.0859375, 0.1250000, -0.1562500, 0.0703125, -0.1250000, 0.0078125, 0.1718750, 0.0937500, -0.1640625, -0.0078125, 0.0781250, -0.0781250, -0.0078125, 0.0234375, -0.0156250, -0.1328125, 0.0937500, -0.1093750, 0.1328125, 0.0468750, 0.1250000, 0.0390625, -0.0703125, -0.0390625, -0.0625000, 0.0625000, -0.1171875, -0.1484375, 0.1093750, 0.0625000, -0.0078125, 0.0078125, -0.1640625, -0.1093750, -0.1250000, -0.0625000, -0.1250000, 0.0156250, 0.1406250, -0.0781250, -0.0312500, -0.0156250, 0.0156250, -0.0468750, 0.0625000, -0.0625000, 0.1562500, -0.0468750, 0.0390625, 0.0312500, 0.0234375, 0.0000000, 0.0078125, 0.0156250, -0.0312500, 0.0390625, -0.0937500, -0.1484375, 0.1328125, -0.0937500, -0.0625000, 0.0937500, 0.0703125, 0.0546875, 0.0859375, 0.1328125, -0.1640625, 0.0312500, 0.0078125, 0.1250000, 0.0234375, 0.1640625, 0.1171875, 0.0859375, 0.0937500, 0.1015625, 0.1484375, -0.1640625, 0.0937500, 0.1328125, -0.0859375, 0.1015625, -0.0156250, -0.0859375, 0.0078125, 0.0390625, 0.0078125, 0.0468750, 0.0859375, -0.0625000, 0.0468750, -0.0390625, 0.0703125, -0.0468750, -0.0078125, 0.0546875, -0.1250000, 0.0234375, -0.0546875, 0.0625000, 0.0859375, 0.0000000, -0.1015625, -0.0781250, 0.0625000, 0.1171875, -0.0859375, 0.0234375, -0.1093750, 0.0234375, -0.0234375, 0.1015625, 0.1328125, -0.0156250, -0.1640625, 0.1015625, 0.1328125, 0.0078125, 0.0781250, -0.0312500, 0.0078125, -0.1171875, -0.0781250, 0.1171875, -0.0546875, -0.0234375, 0.0468750, 0.1484375, 0.1328125, -0.1250000, -0.1171875, 0.1171875, -0.0390625, -0.1015625, -0.1093750, 0.0859375, -0.0703125, 0.0078125, -0.0156250, -0.1093750, -0.1015625, 0.1328125, -0.0468750, 0.1093750, -0.0625000, 0.1484375, 0.0937500, 0.0390625, 0.0546875, 0.0078125, 0.0546875, 0.0703125, -0.0078125, 0.0468750, -0.0781250, -0.0703125, 0.1562500, -0.1328125, 0.1015625, -0.0234375, -0.0468750, 0.0546875, -0.1015625, 0.1562500, 0.1406250, 0.1171875, -0.0156250, -0.0468750, 0.0546875, -0.0234375, -0.1406250, 0.0781250, -0.0468750, -0.1171875, -0.0156250, 0.0859375, 0.0390625, 0.1015625, -0.0859375, -0.1171875, 0.1484375, -0.0468750, -0.0390625, -0.0312500, 0.1406250, -0.0937500, -0.0312500, 0.0625000, -0.0390625, -0.1562500, 0.1328125, -0.1562500, 0.1562500, 0.0625000, -0.0390625, -0.0937500, -0.0703125, -0.0390625, -0.1093750, 0.0625000, 0.1015625, -0.1328125, 0.1406250, -0.0312500, -0.1171875, -0.1640625, 0.0000000, -0.1484375, -0.1250000, 0.1484375, -0.1640625, -0.1328125, 0.1015625, -0.1250000, -0.0546875, 0.0468750, 0.0703125, -0.1171875, 0.1093750, 0.0781250, 0.0156250, -0.0312500, 0.0859375, -0.1406250, -0.0156250, 0.0546875, -0.1328125, 0.0078125, 0.1328125, 0.0312500, -0.1484375, -0.0312500, -0.1250000, -0.0859375, 0.0390625, -0.1328125, 0.0234375, 0.1093750, -0.1640625, -0.0312500, 0.0312500, 0.0078125, -0.0546875, 0.1328125, -0.1171875, -0.1250000, -0.1093750, 0.1250000, -0.1015625, 0.0546875, 0.0859375, -0.0078125, -0.0937500, -0.1406250, -0.1484375, -0.0937500, 0.0234375, -0.0859375, -0.1562500, 0.0000000, 0.0625000, 0.0937500, 0.0000000, -0.1328125, 0.0781250, 0.0703125, -0.1562500, 0.0937500, 0.0000000, 0.0703125, 0.0468750, -0.0234375, -0.0468750, 0.0000000, 0.0781250, 0.1015625, -0.0859375, -0.0468750, 0.0312500, -0.0703125, -0.0468750, -0.0546875, 0.1093750, -0.0859375, -0.0312500, -0.0234375, 0.0781250, 0.1250000, -0.0703125, 0.1562500, -0.0312500, -0.0625000, -0.0781250, -0.0937500, -0.1406250, -0.0312500, 0.1484375, 0.1171875, 0.1250000, -0.0468750, 0.0546875, -0.1406250, -0.0468750, 0.1093750, -0.1171875, 0.1171875, 0.0234375, 0.1093750, 0.0468750, 0.1328125, 0.1328125, -0.0703125, 0.1093750, 0.0703125, -0.1484375, -0.0703125, -0.1406250, -0.1250000, -0.0234375, -0.0390625, -0.0546875, -0.0468750, -0.1406250, -0.1015625, -0.1406250, -0.0546875, 0.1562500, 0.0703125, 0.1093750, -0.1328125, 0.0312500, 0.0468750, -0.1484375, 0.0937500, 0.0234375, 0.0234375, 0.0703125, -0.1640625, 0.0859375, 0.0625000, 0.0703125, 0.1406250, -0.0703125, 0.0781250, 0.1015625, 0.1093750, 0.0312500, -0.1484375, 0.0390625, 0.0703125, -0.1250000, -0.0703125, 0.0468750, -0.1484375, 0.1250000, -0.0156250, -0.1250000, -0.0937500, -0.0156250, -0.1328125, 0.1250000, 0.0937500, 0.0859375, -0.0156250, -0.0156250, -0.0859375, -0.0468750, -0.1406250, 0.1093750, -0.0859375, 0.0859375, -0.0937500, -0.1406250, -0.0312500, -0.0312500, 0.1406250, -0.1250000, -0.0937500, 0.0234375, 0.0000000, -0.0781250, 0.0546875, -0.1640625, -0.1484375, -0.1093750, -0.1640625, -0.0390625, -0.0156250, -0.1718750, -0.1015625, -0.0390625, 0.0000000, 0.0312500, 0.0312500, 0.1171875, 0.0546875, 0.0390625, -0.1640625, 0.1640625, 0.0859375, -0.0859375, 0.1171875, -0.1640625, 0.1328125, -0.1015625, 0.1093750, -0.1718750, 0.0156250, -0.0156250, -0.0625000, 0.1484375, -0.1328125, -0.0468750, 0.0390625, -0.1406250, -0.1250000, -0.1406250, -0.0781250, 0.0234375, -0.1250000, -0.0703125, 0.1328125, -0.1250000, -0.0781250, 0.0703125, 0.0781250, -0.1171875, -0.1406250, -0.0937500, -0.0625000, -0.0156250, 0.0078125, -0.0390625, 0.1562500, -0.1171875, 0.0468750, 0.0781250, 0.0703125, -0.0625000, -0.0156250, 0.1171875, 0.0859375, -0.0546875, 0.0312500, 0.0468750, -0.1406250, -0.0625000, -0.0234375, 0.1250000, -0.1484375, -0.1640625, -0.0468750, 0.0625000, -0.0234375, 0.0156250, -0.1484375, -0.1171875, 0.0937500, -0.0468750, 0.1250000, 0.1250000, -0.1015625, 0.0546875, 0.0078125, -0.0937500, -0.1171875, -0.1406250, -0.0312500, 0.1406250, -0.1562500, -0.0546875, 0.1640625, 0.1015625, -0.1718750, 0.0156250, 0.0703125, -0.0937500, 0.0937500, -0.1484375, 0.0390625, 0.1406250, -0.1640625, -0.0859375, 0.0000000, -0.0703125, 0.0312500, -0.0781250, -0.0859375, 0.1640625, 0.0781250, 0.0703125, -0.0078125, 0.1406250, 0.1406250, -0.1015625, -0.0156250, 0.0859375, -0.0937500, 0.1250000, -0.1328125, 0.1171875, 0.0156250, -0.0625000, -0.0078125, 0.0078125, 0.1171875, 0.0546875, -0.0937500, 0.0937500, 0.1406250, 0.0234375, 0.0000000, -0.0859375, -0.1093750, -0.1562500, -0.0390625, -0.1562500, -0.0859375, 0.0234375, -0.0390625, 0.0703125, -0.0625000, 0.1328125, 0.0000000, -0.1406250, 0.1484375, 0.0546875, -0.1250000, -0.1328125, 0.0781250, -0.1093750, 0.0937500, 0.1406250, -0.0937500, -0.0078125, -0.1015625, 0.0468750, 0.0546875, -0.1093750, 0.1406250, -0.0703125, -0.1093750, -0.0468750, 0.1171875, -0.1250000, -0.1171875, 0.0390625, -0.0468750, -0.1015625, 0.0390625, 0.1328125, 0.0468750, -0.0312500, -0.0390625, 0.0468750, 0.0781250, 0.0937500, 0.0078125, 0.0000000, 0.1484375, -0.1718750, -0.0703125, -0.0781250, 0.0937500, -0.0781250, -0.0390625, -0.0625000, 0.1093750, -0.0234375, -0.0390625, 0.0234375, -0.1484375, -0.0468750, 0.1171875, 0.1250000, -0.0937500, -0.0468750, -0.1406250, -0.1562500, 0.0703125, -0.1015625, 0.0078125, 0.0546875, -0.1640625, 0.0859375, -0.0468750, -0.1406250, -0.0859375, -0.1093750, 0.0234375, -0.0468750, -0.1562500, 0.1171875, -0.0703125, 0.1250000, 0.1562500, -0.0312500, -0.0781250, -0.0468750, -0.0156250, -0.0390625, -0.0781250, 0.0625000, 0.1328125, -0.0390625, -0.0312500, -0.0468750, 0.0156250, 0.0390625, 0.0312500, 0.1640625, 0.0546875, -0.1250000, 0.0234375, -0.0937500, -0.0859375, 0.0546875, 0.1718750, 0.0156250, -0.0156250, -0.0234375, 0.0156250, -0.0468750, -0.0625000, 0.1406250, -0.0234375, -0.1171875, 0.0468750, 0.0156250, 0.1093750, -0.1406250, -0.0937500, -0.0703125, -0.0312500, -0.0703125, -0.1015625, 0.1718750, -0.0625000, 0.0546875, 0.1015625, -0.0937500, -0.0390625, -0.1718750, -0.1015625, -0.1093750, -0.0390625, 0.0000000, -0.1093750, 0.0625000, -0.0937500, 0.0234375, -0.1328125, 0.0703125, -0.1015625, -0.0546875, -0.0390625, -0.0078125, 0.0078125, 0.0625000, -0.1640625, -0.0234375, 0.0625000, 0.0078125, -0.0625000, 0.0546875, 0.1484375, -0.1250000, -0.0390625, -0.0468750, -0.0234375, 0.1484375, 0.0703125, 0.1484375, 0.1640625, -0.0625000, 0.0703125, -0.0625000, 0.0234375, 0.1250000, -0.1093750, -0.1250000, -0.1015625, 0.1406250, -0.0625000, -0.1250000, -0.1250000, 0.0625000, 0.0781250, 0.1250000, 0.0937500, 0.1093750, 0.0312500, -0.0859375, -0.0859375, -0.1171875, 0.0781250, 0.0546875, 0.1328125, -0.0468750, 0.0156250, 0.1406250, -0.0234375, 0.0156250, 0.0468750, 0.0625000, -0.1093750, 0.1328125, -0.1562500, -0.1250000, -0.0234375, -0.0468750, -0.0312500, -0.0468750, 0.0781250, -0.0234375, 0.0000000, -0.1406250, 0.0390625, 0.0000000, -0.1171875, 0.1406250, -0.1093750, 0.1093750, 0.1484375, -0.1093750, 0.1015625, 0.0078125, -0.0390625, -0.1406250, 0.0312500, 0.0390625, -0.0390625, 0.1250000, -0.0781250, -0.0156250, -0.1328125, -0.0468750, 0.1562500, -0.0859375, 0.1250000, 0.1562500, -0.0234375, 0.1484375, -0.0156250, -0.0468750, -0.1093750, 0.1484375};
#endif

#endif
